{"learner":{"attributes":{"scikit_learn":"{\"_estimator_type\": \"classifier\"}"},"feature_names":[],"feature_types":[],"gradient_booster":{"model":{"cats":{"enc":[],"feature_segments":[],"sorted_idx":[]},"gbtree_model_param":{"num_parallel_tree":"1","num_trees":"700"},"iteration_indptr":[0,1,2,3,4,5,6,7,8,9,10,11,12,13,14,15,16,17,18,19,20,21,22,23,24,25,26,27,28,29,30,31,32,33,34,35,36,37,38,39,40,41,42,43,44,45,46,47,48,49,50,51,52,53,54,55,56,57,58,59,60,61,62,63,64,65,66,67,68,69,70,71,72,73,74,75,76,77,78,79,80,81,82,83,84,85,86,87,88,89,90,91,92,93,94,95,96,97,98,99,100,101,102,103,104,105,106,107,108,109,110,111,112,113,114,115,116,117,118,119,120,121,122,123,124,125,126,127,128,129,130,131,132,133,134,135,136,137,138,139,140,141,142,143,144,145,146,147,148,149,150,151,152,153,154,155,156,157,158,159,160,161,162,163,164,165,166,167,168,169,170,171,172,173,174,175,176,177,178,179,180,181,182,183,184,185,186,187,188,189,190,191,192,193,194,195,196,197,198,199,200,201,202,203,204,205,206,207,208,209,210,211,212,213,214,215,216,217,218,219,220,221,222,223,224,225,226,227,228,229,230,231,232,233,234,235,236,237,238,239,240,241,242,243,244,245,246,247,248,249,250,251,252,253,254,255,256,257,258,259,260,261,262,263,264,265,266,267,268,269,270,271,272,273,274,275,276,277,278,279,280,281,282,283,284,285,286,287,288,289,290,291,292,293,294,295,296,297,298,299,300,301,302,303,304,305,306,307,308,309,310,311,312,313,314,315,316,317,318,319,320,321,322,323,324,325,326,327,328,329,330,331,332,333,334,335,336,337,338,339,340,341,342,343,344,345,346,347,348,349,350,351,352,353,354,355,356,357,358,359,360,361,362,363,364,365,366,367,368,369,370,371,372,373,374,375,376,377,378,379,380,381,382,383,384,385,386,387,388,389,390,391,392,393,394,395,396,397,398,399,400,401,402,403,404,405,406,407,408,409,410,411,412,413,414,415,416,417,418,419,420,421,422,423,424,425,426,427,428,429,430,431,432,433,434,435,436,437,438,439,440,441,442,443,444,445,446,447,448,449,450,451,452,453,454,455,456,457,458,459,460,461,462,463,464,465,466,467,468,469,470,471,472,473,474,475,476,477,478,479,480,481,482,483,484,485,486,487,488,489,490,491,492,493,494,495,496,497,498,499,500,501,502,503,504,505,506,507,508,509,510,511,512,513,514,515,516,517,518,519,520,521,522,523,524,525,526,527,528,529,530,531,532,533,534,535,536,537,538,539,540,541,542,543,544,545,546,547,548,549,550,551,552,553,554,555,556,557,558,559,560,561,562,563,564,565,566,567,568,569,570,571,572,573,574,575,576,577,578,579,580,581,582,583,584,585,586,587,588,589,590,591,592,593,594,595,596,597,598,599,600,601,602,603,604,605,606,607,608,609,610,611,612,613,614,615,616,617,618,619,620,621,622,623,624,625,626,627,628,629,630,631,632,633,634,635,636,637,638,639,640,641,642,643,644,645,646,647,648,649,650,651,652,653,654,655,656,657,658,659,660,661,662,663,664,665,666,667,668,669,670,671,672,673,674,675,676,677,678,679,680,681,682,683,684,685,686,687,688,689,690,691,692,693,694,695,696,697,698,699,700],"tree_info":[0,0,0,0,0,0,0,0,0,0,0,0,0,0,0,0,0,0,0,0,0,0,0,0,0,0,0,0,0,0,0,0,0,0,0,0,0,0,0,0,0,0,0,0,0,0,0,0,0,0,0,0,0,0,0,0,0,0,0,0,0,0,0,0,0,0,0,0,0,0,0,0,0,0,0,0,0,0,0,0,0,0,0,0,0,0,0,0,0,0,0,0,0,0,0,0,0,0,0,0,0,0,0,0,0,0,0,0,0,0,0,0,0,0,0,0,0,0,0,0,0,0,0,0,0,0,0,0,0,0,0,0,0,0,0,0,0,0,0,0,0,0,0,0,0,0,0,0,0,0,0,0,0,0,0,0,0,0,0,0,0,0,0,0,0,0,0,0,0,0,0,0,0,0,0,0,0,0,0,0,0,0,0,0,0,0,0,0,0,0,0,0,0,0,0,0,0,0,0,0,0,0,0,0,0,0,0,0,0,0,0,0,0,0,0,0,0,0,0,0,0,0,0,0,0,0,0,0,0,0,0,0,0,0,0,0,0,0,0,0,0,0,0,0,0,0,0,0,0,0,0,0,0,0,0,0,0,0,0,0,0,0,0,0,0,0,0,0,0,0,0,0,0,0,0,0,0,0,0,0,0,0,0,0,0,0,0,0,0,0,0,0,0,0,0,0,0,0,0,0,0,0,0,0,0,0,0,0,0,0,0,0,0,0,0,0,0,0,0,0,0,0,0,0,0,0,0,0,0,0,0,0,0,0,0,0,0,0,0,0,0,0,0,0,0,0,0,0,0,0,0,0,0,0,0,0,0,0,0,0,0,0,0,0,0,0,0,0,0,0,0,0,0,0,0,0,0,0,0,0,0,0,0,0,0,0,0,0,0,0,0,0,0,0,0,0,0,0,0,0,0,0,0,0,0,0,0,0,0,0,0,0,0,0,0,0,0,0,0,0,0,0,0,0,0,0,0,0,0,0,0,0,0,0,0,0,0,0,0,0,0,0,0,0,0,0,0,0,0,0,0,0,0,0,0,0,0,0,0,0,0,0,0,0,0,0,0,0,0,0,0,0,0,0,0,0,0,0,0,0,0,0,0,0,0,0,0,0,0,0,0,0,0,0,0,0,0,0,0,0,0,0,0,0,0,0,0,0,0,0,0,0,0,0,0,0,0,0,0,0,0,0,0,0,0,0,0,0,0,0,0,0,0,0,0,0,0,0,0,0,0,0,0,0,0,0,0,0,0,0,0,0,0,0,0,0,0,0,0,0,0,0,0,0,0,0,0,0,0,0,0,0,0,0,0,0,0,0,0,0,0,0,0,0,0,0,0,0,0,0,0,0,0,0,0,0,0,0,0,0,0,0,0,0,0,0,0,0,0,0,0,0,0,0,0,0,0,0,0,0,0,0,0,0,0,0,0,0,0,0,0,0,0,0,0,0,0,0,0,0,0,0,0,0,0,0,0,0,0,0,0,0,0,0,0,0,0,0,0,0,0,0,0,0,0,0,0,0,0,0,0,0,0,0,0,0,0,0,0,0,0,0,0,0,0,0,0,0,0,0,0,0,0,0,0,0,0,0,0,0],"trees":[{"base_weights":[-1.5645566E-3,-1.3758985E0,1.9071176E0,-1.7459484E0,1.4520801E0,1.9992188E0,-5.9685864E-2,-1.9409429E0,-1.0973524E0,-1.947659E0,1.8653111E0,5.999297E-2,-3.8181815E-2,-1.984817E0,6.762011E-1,-1.8113884E0,1.6990356E0,-5.8989793E-2,-6.804545E-1,-5.8914024E-2,1.9802648E0,-5.9609704E-2,-5.777194E-1,1.3927773E0,-5.8447782E-2,-1.932973E0,1.6627218E0,1.8785537E0,-8.553091E-1,3.1427532E-2,-4.4E-2,1.9983449E0,-7.7269465E-1,-1.0961832E0,2.0218557E-1,1.6469975E0,-5.510204E-2,-1.9637754E0,-1.3833973E0,5.9353497E-2,-5.333333E-2,1.4577913E0,5.989101E-2,-5.449924E-2,7.3283625E-1,5.9966873E-2,1.9151572E-2,4.627975E-2,-5.3513512E-2,-2.6881525E-1,-4.7379874E-2,2.8419603E-2,-4.1538462E-2,9.3122154E-1,1.9341049E0,-1.9652737E0,2.0467285E-2,-1.8125842E0,1.7897553E0,1.6407597E0,-4.9756337E-2,1.222911E0,-4.4999998E-2,1.1749626E-3,-1.5950467E-2,5.6293E-2,-4.192104E-2,5.9144724E-2,-3E-2,-1.0866993E-2,-5.8974024E-2,-5.841815E-2,4.4856153E-2,5.6668915E-2,3.9629737E-4,3.989627E-2,5.915176E-2,1.6455261E-2,5.3160675E-2],"categories":[],"categories_nodes":[],"categories_segments":[],"categories_sizes":[],"default_left":[0,0,0,0,0,0,0,0,0,0,0,0,0,0,0,0,0,0,0,0,0,0,0,0,0,0,0,0,0,0,0,0,0,0,0,0,0,0,0,0,0,0,0,0,0,0,0,0,0,0,0,0,0,0,0,0,0,0,0,0,0,0,0,0,0,0,0,0,0,0,0,0,0,0,0,0,0,0,0],"id":0,"left_children":[1,3,5,7,9,11,-1,13,15,17,19,-1,-1,21,23,25,27,-1,29,-1,31,-1,33,35,-1,37,39,41,43,-1,-1,45,47,49,51,53,-1,55,57,-1,-1,59,-1,-1,61,-1,-1,-1,-1,63,-1,-1,-1,65,67,69,-1,71,73,75,-1,77,-1,-1,-1,-1,-1,-1,-1,-1,-1,-1,-1,-1,-1,-1,-1,-1,-1],"loss_changes":[8.210384E4,1.90455E4,4.7063086E3,2.033043E3,2.9625127E3,2.5445312E1,0E0,1.421832E3,7.4346523E3,4.072998E0,8.3070654E2,0E0,0E0,3.6058594E1,3.8770367E2,1.2557627E3,3.48989E2,0E0,8.125589E0,0E0,9.233838E1,0E0,8.378582E0,1.3552786E2,0E0,4.5791992E1,1.1302008E2,3.2192627E1,7.8328186E1,0E0,0E0,8.251953E-2,3.2302807E1,4.4815264E0,1.1834497E1,2.9053528E1,0E0,1.2088867E1,2.1496808E2,0E0,0E0,9.315961E1,0E0,0E0,2.3423065E1,0E0,0E0,0E0,0E0,4.8470148E-1,0E0,0E0,0E0,1.0147183E2,1.3624268E1,1.5771484E0,0E0,6.41434E1,3.3282585E0,1.2844269E1,0E0,5.2231827E0,0E0,0E0,0E0,0E0,0E0,0E0,0E0,0E0,0E0,0E0,0E0,0E0,0E0,0E0,0E0,0E0,0E0],"parents":[2147483647,0,0,1,1,2,2,3,3,4,4,5,5,7,7,8,8,9,9,10,10,13,13,14,14,15,15,16,16,18,18,20,20,22,22,23,23,25,25,26,26,27,27,28,28,31,31,32,32,33,33,34,34,35,35,37,37,38,38,41,41,44,44,49,49,53,53,54,54,55,55,57,57,58,58,59,59,61,61],"right_children":[2,4,6,8,10,12,-1,14,16,18,20,-1,-1,22,24,26,28,-1,30,-1,32,-1,34,36,-1,38,40,42,44,-1,-1,46,48,50,52,54,-1,56,58,-1,-1,60,-1,-1,62,-1,-1,-1,-1,64,-1,-1,-1,66,68,70,-1,72,74,76,-1,78,-1,-1,-1,-1,-1,-1,-1,-1,-1,-1,-1,-1,-1,-1,-1,-1,-1],"split_conditions":[-5.2742146E-2,1.5728495E-1,-3.9370155E-1,2.1607E0,-1.980374E-1,9.366294E-3,-5.9685864E-2,-6.6900754E-1,1.0807884E0,-2.1028669E-1,2.1607E0,5.999297E-2,-3.8181815E-2,-9.703036E-3,3.0881488E0,1.4458079E0,1.7233512E0,-5.8989793E-2,-2.2186863E-1,-5.8914024E-2,-4.4469167E-2,-5.9609704E-2,-2.6886168E-1,-1.7104756E-2,-5.8447782E-2,8.3090293E-1,-2.2186866E-1,-1.2060426E0,-1.8084956E-2,3.1427532E-2,-4.4E-2,-1.8097522E-2,3.1430953E0,3.328557E-2,-1.0791393E-1,-3.5712412E-1,-5.510204E-2,2.363386E0,-1.187426E0,5.9353497E-2,-5.333333E-2,-2.2186866E-1,5.989101E-2,-5.449924E-2,3.0881488E0,5.9966873E-2,1.9151572E-2,4.627975E-2,-5.3513512E-2,1.5494482E-2,-4.7379874E-2,2.8419603E-2,-4.1538462E-2,-5.0475407E-1,-2.611348E-2,-4.9839616E-1,2.0467285E-2,4.3070036E-1,-2.218675E-1,1.0048248E0,-4.9756337E-2,-2.2186866E-1,-4.4999998E-2,1.1749626E-3,-1.5950467E-2,5.6293E-2,-4.192104E-2,5.9144724E-2,-3E-2,-1.0866993E-2,-5.8974024E-2,-5.841815E-2,4.4856153E-2,5.6668915E-2,3.9629737E-4,3.989627E-2,5.915176E-2,1.6455261E-2,5.3160675E-2],"split_indices":[9,27,37,19,37,8,0,9,37,37,19,0,0,1,21,3,37,0,1,0,36,0,32,6,0,37,1,9,6,0,0,6,24,1,30,9,0,14,9,0,0,1,0,0,21,0,0,0,0,1,0,0,0,4,8,3,0,14,1,15,0,1,0,0,0,0,0,0,0,0,0,0,0,0,0,0,0,0,0],"split_type":[0,0,0,0,0,0,0,0,0,0,0,0,0,0,0,0,0,0,0,0,0,0,0,0,0,0,0,0,0,0,0,0,0,0,0,0,0,0,0,0,0,0,0,0,0,0,0,0,0,0,0,0,0,0,0,0,0,0,0,0,0,0,0,0,0,0,0,0,0,0,0,0,0,0,0,0,0,0,0],"sum_hessian":[3.1297516E4,1.8195934E4,1.3101583E4,1.6090786E4,2.1051475E3,1.2799539E4,3.020433E2,1.2369897E4,3.7208884E3,2.2774316E2,1.8774042E3,1.2797789E4,1.75E0,1.2166184E4,2.0371387E2,2.9643237E3,7.565648E2,2.2389323E2,3.8499238E0,5.425E1,1.8231542E3,1.2147011E4,1.917287E1,1.6039055E2,4.332333E1,2.8645166E3,9.980697E1,7.0713245E2,4.943237E1,1.0999237E0,2.75E0,1.8115311E3,1.1623099E1,1.1273176E1,7.899695E0,1.4914055E2,1.125E1,2.7100518E3,1.5446504E2,9.180697E1,8E0,1.5761053E2,5.495219E2,3.0703268E1,1.87291E1,1.8103278E3,1.2032672E0,3.3730996E0,8.25E0,4.7298627E0,6.543313E0,5.649695E0,2.25E0,4.3911087E1,1.05229454E2,2.7087751E3,1.2765955E0,1.3643959E2,1.8025452E1,1.4931721E2,8.293313E0,1.57291E1,3E0,2.5699084E0,2.1599543E0,3.1371193E1,1.2539893E1,1.04229454E2,1E0,1.1166413E0,2.7076584E3,1.3149658E2,4.943008E0,1.7012154E1,1.0132978E0,7.958205E1,6.973517E1,7.9563055E0,7.7727942E0],"tree_param":{"num_deleted":"0","num_feature":"38","num_nodes":"79","size_leaf_vector":"1"}},{"base_weights":[1.4502203E-4,-1.3365103E0,1.853284E0,-1.7312353E0,1.141671E0,1.9410849E0,-5.7977438E-2,-1.8838513E0,-1.2057782E0,-5.766731E-2,1.6694416E0,5.8246244E-2,-3.5320528E-2,-1.924693E0,7.7480227E-1,-1.8030348E0,1.6151015E0,1.9158856E0,-5.7871588E-2,-1.9275252E0,4.5387596E-1,1.5745201E0,-5.673513E-2,-1.8428445E0,-4.6330294E-1,1.8077012E0,-7.261143E-1,1.934356E0,-1.3096532E0,-1.9286045E0,-9.635927E-1,-4.097291E-2,9.8583174E-1,7.254487E-1,1.8685207E0,-1.8544978E0,-2.47061E-1,5.6617826E-2,-5.719362E-2,1.0470527E0,5.813626E-2,-1.3199248E0,5.2535396E-2,5.8206826E-2,-4.3798447E-2,-5.2918922E-2,3.4659415E-2,-5.7878353E-2,-1.3288023E0,-6.1436963E-1,-4.6957083E-2,1.3669959E-1,3.6674637E-2,5.6073397E-2,-1.4535037E0,5.7146087E-2,-4.1242503E-3,-1.6475701E0,-1.9228014E0,5.2679494E-2,-5.3706877E-2,5.7732467E-2,-3.451748E-1,-6.0729975E-1,-5.576203E-2,3.9682366E-2,-5.4269057E-2,-2.6167942E-2,3.0157488E-2,1.0148572E-3,5.7972902E-3,-5.396901E-2,2.4710972E-2,-5.7229683E-2,5.7508145E-2,1.9767042E-2,-5.7737663E-2,-5.4443676E-2,1.313342E-2,-4.74685E-2,1.1200332E-2],"categories":[],"categories_nodes":[],"categories_segments":[],"categories_sizes":[],"default_left":[0,0,0,0,0,0,0,0,0,0,0,0,0,0,0,0,0,0,0,0,0,0,0,0,0,0,0,0,0,0,0,0,0,0,0,0,0,0,0,0,0,0,0,0,0,0,0,0,0,0,0,0,0,0,0,0,0,0,0,0,0,0,0,0,0,0,0,0,0,0,0,0,0,0,0,0,0,0,0,0,0],"id":1,"left_children":[1,3,5,7,9,11,-1,13,15,-1,17,-1,-1,19,21,23,25,27,-1,29,31,33,-1,35,37,39,41,43,45,47,49,-1,51,53,55,57,59,-1,-1,61,-1,63,-1,-1,-1,-1,-1,-1,65,67,-1,69,-1,-1,71,-1,-1,73,75,-1,-1,-1,77,79,-1,-1,-1,-1,-1,-1,-1,-1,-1,-1,-1,-1,-1,-1,-1,-1,-1],"loss_changes":[7.750854E4,1.7784566E4,4.3623086E3,1.2552891E3,4.043077E3,2.0539062E1,0E0,1.3208164E3,5.9540635E3,0E0,1.8941748E3,0E0,0E0,8.148828E1,3.9642056E2,1.5464453E2,2.7985742E2,1.2142578E2,0E0,1.0578125E1,1.5906015E1,3.421692E1,0E0,5.2189453E1,2.9353247E2,5.4515503E1,7.243326E1,4.238623E1,1.54299755E1,2.2617188E0,2.2671318E0,0E0,2.2884579E0,9.812636E1,7.9337463E0,3.6554688E1,7.015108E1,0E0,0E0,1.0525224E2,0E0,1.385424E1,0E0,0E0,0E0,0E0,0E0,0E0,2.354453E1,5.6257606E0,0E0,1.5503846E-2,0E0,0E0,1.2291704E1,0E0,0E0,6.5672644E2,1.0990234E1,0E0,0E0,0E0,3.985605E1,1.8074312E1,0E0,0E0,0E0,0E0,0E0,0E0,0E0,0E0,0E0,0E0,0E0,0E0,0E0,0E0,0E0,0E0,0E0],"parents":[2147483647,0,0,1,1,2,2,3,3,4,4,5,5,7,7,8,8,10,10,13,13,14,14,15,15,16,16,17,17,19,19,20,20,21,21,23,23,24,24,25,25,26,26,27,27,28,28,29,29,30,30,32,32,33,33,34,34,35,35,36,36,39,39,41,41,48,48,49,49,51,51,54,54,57,57,58,58,62,62,63,63],"right_children":[2,4,6,8,10,12,-1,14,16,-1,18,-1,-1,20,22,24,26,28,-1,30,32,34,-1,36,38,40,42,44,46,48,50,-1,52,54,56,58,60,-1,-1,62,-1,64,-1,-1,-1,-1,-1,-1,66,68,-1,70,-1,-1,72,-1,-1,74,76,-1,-1,-1,78,80,-1,-1,-1,-1,-1,-1,-1,-1,-1,-1,-1,-1,-1,-1,-1,-1,-1],"split_conditions":[-5.2742146E-2,9.205021E-1,-3.9370155E-1,2.1607E0,2.1607E0,3.6049097E0,-5.7977438E-2,-5.191516E-1,1.0807884E0,-5.766731E-2,-2.2186866E-1,5.8246244E-2,-3.5320528E-2,7.233433E-2,3.0881488E0,8.0931914E-1,1.7233512E0,1.8079233E1,-5.7871588E-2,-2.5004216E-2,-2.6886168E-1,-3.5712412E-1,-5.673513E-2,8.720941E0,-2.2186866E-1,-1.2060426E0,-2.2184384E-1,3.0881488E0,-1.2060426E0,-6.6900754E-1,-1.0791393E-1,-4.097291E-2,-8.1276625E-1,-5.0475407E-1,-3.8528994E-1,-2.5228846E-1,-2.2186863E-1,5.6617826E-2,-5.719362E-2,-3.9426035E-1,5.813626E-2,3.0881488E0,5.2535396E-2,5.8206826E-2,-4.3798447E-2,-5.2918922E-2,3.4659415E-2,-5.7878353E-2,-3.9522246E-1,-3.9522615E-1,-4.6957083E-2,-8.4833735E-1,3.6674637E-2,5.6073397E-2,-3.9522418E-1,5.7146087E-2,-4.1242503E-3,-1.2060426E0,-4.836838E-1,5.2679494E-2,-5.3706877E-2,5.7732467E-2,-3.9181954E-1,-3.9522603E-1,-5.576203E-2,3.9682366E-2,-5.4269057E-2,-2.6167942E-2,3.0157488E-2,1.0148572E-3,5.7972902E-3,-5.396901E-2,2.4710972E-2,-5.7229683E-2,5.7508145E-2,1.9767042E-2,-5.7737663E-2,-5.4443676E-2,1.313342E-2,-4.74685E-2,1.1200332E-2],"split_indices":[9,3,37,19,19,11,0,9,37,0,1,0,0,1,21,3,37,25,0,1,32,9,0,25,1,9,1,21,9,9,30,0,9,4,0,11,1,0,0,0,0,21,0,0,0,0,0,0,0,0,0,9,0,0,0,0,0,9,15,0,0,0,13,0,0,0,0,0,0,0,0,0,0,0,0,0,0,0,0,0,0],"split_type":[0,0,0,0,0,0,0,0,0,0,0,0,0,0,0,0,0,0,0,0,0,0,0,0,0,0,0,0,0,0,0,0,0,0,0,0,0,0,0,0,0,0,0,0,0,0,0,0,0,0,0,0,0,0,0,0,0,0,0,0,0,0,0,0,0,0,0,0,0,0,0,0,0,0,0,0,0,0,0,0,0],"sum_hessian":[3.1289193E4,1.8177893E4,1.3111301E4,1.5680589E4,2.4973042E3,1.2814595E4,2.9670566E2,1.2149307E4,3.5312822E3,3.665714E2,2.130733E3,1.2813096E4,1.4994534E0,1.1965767E4,1.835394E2,2.9145532E3,6.1672894E2,1.9945996E3,1.361332E2,1.1951726E4,1.404141E1,1.415021E2,4.2037296E1,2.8300828E3,8.447046E1,5.7006085E2,4.666809E1,1.983641E3,1.0958664E1,1.1937358E4,1.4367192E1,2.8217444E0,1.12196665E1,3.7286495E1,1.04215614E2,2.8094048E3,2.0678007E1,3.2015987E1,5.2454475E1,8.462337E1,4.854375E2,3.8021484E1,8.646607E0,1.9806432E3,2.9977734E0,9.493358E0,1.4653064E0,1.1921745E4,1.5613251E1,1.0369426E1,3.997766E0,2.7892725E0,8.430394E0,2.4545513E1,1.2740982E1,1.0241033E2,1.8052806E0,7.0343823E2,2.1059666E3,8.938221E0,1.1739786E1,5.1675755E1,3.2947613E1,1.7286118E1,2.0735367E1,2.1248355E0,1.3488415E1,9.343139E0,1.0262877E0,1.5562391E0,1.2330335E0,1.1245059E1,1.495923E0,6.5603516E2,4.740308E1,1.2026777E0,2.104764E3,1.0993967E1,2.1953646E1,8.360432E0,8.925686E0],"tree_param":{"num_deleted":"0","num_feature":"38","num_nodes":"81","size_leaf_vector":"1"}},{"base_weights":[-2.9052072E-4,-1.3001856E0,1.7997482E0,-1.6474835E0,1.3614129E0,1.8875879E0,-5.6369625E-2,-1.833211E0,-1.0319701E0,-1.835965E0,1.7626648E0,5.6647744E-2,-4.0049978E-2,-1.8747005E0,6.641782E-1,-1.7056593E0,1.5968281E0,-5.5735853E-2,-4.9782234E-1,-5.561504E-2,1.8662449E0,-5.6297723E-2,-7.4355656E-1,1.3670709E0,-5.5310592E-2,-1.8236035E0,1.6038312E0,1.7713747E0,-8.237017E-1,3.3440884E-2,-4.184191E-2,5.662827E-2,-1.152007E0,-1.1337264E0,-7.3951446E-2,1.5979302E0,-5.1944222E-2,-1.8537443E0,-1.2943984E0,5.6077734E-2,-4.9933907E-2,1.3666486E0,5.6557063E-2,-1.3530307E0,5.1102288E-2,-5.18939E-2,3.8831394E-2,-5.343008E-1,-4.575759E-2,2.8230965E-2,-4.391108E-2,1.6348624E0,-3.6175724E-2,-1.855191E0,-9.251606E-2,-1.7161776E0,1.748564E0,1.5376228E0,-4.552014E-2,-1.5432123E0,4.1494694E-2,-3.2007672E-2,-6.9585387E-3,3.1455252E-2,5.5914123E-2,-5.2431416E-2,-5.6211766E-2,3.0443147E-2,-3.151276E-2,-5.5247642E-2,4.328983E-2,5.375817E-2,1.5120054E-2,3.6978245E-2,5.5880614E-2,-5.4032795E-2,-1.8892173E-2],"categories":[],"categories_nodes":[],"categories_segments":[],"categories_sizes":[],"default_left":[0,0,0,0,0,0,0,0,0,0,0,0,0,0,0,0,0,0,0,0,0,0,0,0,0,0,0,0,0,0,0,0,0,0,0,0,0,0,0,0,0,0,0,0,0,0,0,0,0,0,0,0,0,0,0,0,0,0,0,0,0,0,0,0,0,0,0,0,0,0,0,0,0,0,0,0,0],"id":2,"left_children":[1,3,5,7,9,11,-1,13,15,17,19,-1,-1,21,23,25,27,-1,29,-1,31,-1,33,35,-1,37,39,41,43,-1,-1,-1,45,47,49,51,-1,53,55,-1,-1,57,-1,59,-1,-1,-1,61,-1,-1,-1,63,-1,65,67,69,71,73,-1,75,-1,-1,-1,-1,-1,-1,-1,-1,-1,-1,-1,-1,-1,-1,-1,-1,-1],"loss_changes":[7.309381E4,1.6769605E4,4.236426E3,1.8324492E3,2.6900615E3,3.0160156E1,0E0,1.2783359E3,6.5939214E3,5.9316406E0,7.006792E2,0E0,0E0,2.4527344E1,3.5887012E2,1.1594961E3,3.22443E2,0E0,8.979134E0,0E0,1.18881836E2,0E0,5.6333885E0,1.161272E2,0E0,4.324414E1,9.2024994E1,3.0093506E1,7.1573204E1,0E0,0E0,0E0,2.109806E1,2.413681E0,1.4250871E1,1.7297333E1,0E0,6.720703E0,2.0515707E2,0E0,0E0,8.087811E1,0E0,2.470417E1,0E0,0E0,0E0,8.756938E-1,0E0,0E0,0E0,1.7712769E1,0E0,2.109375E0,4.53716E0,5.7664703E1,1.5868378E-1,1.2663055E1,0E0,8.530174E0,0E0,0E0,0E0,0E0,0E0,0E0,0E0,0E0,0E0,0E0,0E0,0E0,0E0,0E0,0E0,0E0,0E0],"parents":[2147483647,0,0,1,1,2,2,3,3,4,4,5,5,7,7,8,8,9,9,10,10,13,13,14,14,15,15,16,16,18,18,20,20,22,22,23,23,25,25,26,26,27,27,28,28,32,32,33,33,34,34,35,35,37,37,38,38,41,41,43,43,47,47,51,51,53,53,54,54,55,55,56,56,57,57,59,59],"right_children":[2,4,6,8,10,12,-1,14,16,18,20,-1,-1,22,24,26,28,-1,30,-1,32,-1,34,36,-1,38,40,42,44,-1,-1,-1,46,48,50,52,-1,54,56,-1,-1,58,-1,60,-1,-1,-1,62,-1,-1,-1,64,-1,66,68,70,72,74,-1,76,-1,-1,-1,-1,-1,-1,-1,-1,-1,-1,-1,-1,-1,-1,-1,-1,-1],"split_conditions":[-5.2742146E-2,1.5728495E-1,-3.9370155E-1,2.1607E0,-1.980374E-1,9.366294E-3,-5.6369625E-2,-6.6900754E-1,1.0807884E0,-2.1028669E-1,2.1607E0,5.6647744E-2,-4.0049978E-2,-2.5004216E-2,3.0881488E0,1.4458079E0,1.7233512E0,-5.5735853E-2,-2.2186863E-1,-5.561504E-2,1.8079233E1,-5.6297723E-2,-2.6886168E-1,-1.7104756E-2,-5.5310592E-2,8.3090293E-1,-2.2186866E-1,-1.2060426E0,-2.2184384E-1,3.3440884E-2,-4.184191E-2,5.662827E-2,-3.0580088E-1,3.328557E-2,-1.0791393E-1,-2.611348E-2,-5.1944222E-2,1.0256874E1,-1.187426E0,5.6077734E-2,-4.9933907E-2,-2.2186866E-1,5.6557063E-2,-1.7896455E-2,5.1102288E-2,-5.18939E-2,3.8831394E-2,-1.810171E-2,-4.575759E-2,2.8230965E-2,-4.391108E-2,-3.5712412E-1,-3.6175724E-2,9.8065734E-2,-2.2186863E-1,4.667796E-1,-2.2546637E-1,1.0048248E0,-4.552014E-2,-1.8084956E-2,4.1494694E-2,-3.2007672E-2,-6.9585387E-3,3.1455252E-2,5.5914123E-2,-5.2431416E-2,-5.6211766E-2,3.0443147E-2,-3.151276E-2,-5.5247642E-2,4.328983E-2,5.375817E-2,1.5120054E-2,3.6978245E-2,5.5880614E-2,-5.4032795E-2,-1.8892173E-2],"split_indices":[9,27,37,19,37,8,0,9,37,37,19,0,0,1,21,3,37,0,1,0,25,0,32,6,0,37,1,9,1,0,0,0,2,1,30,8,0,25,9,0,0,1,0,6,0,0,0,6,0,0,0,9,0,8,1,15,16,15,0,6,0,0,0,0,0,0,0,0,0,0,0,0,0,0,0,0,0],"split_type":[0,0,0,0,0,0,0,0,0,0,0,0,0,0,0,0,0,0,0,0,0,0,0,0,0,0,0,0,0,0,0,0,0,0,0,0,0,0,0,0,0,0,0,0,0,0,0,0,0,0,0,0,0,0,0,0,0,0,0,0,0,0,0,0,0,0,0,0,0,0,0,0,0,0,0,0,0],"sum_hessian":[3.1236523E4,1.8138275E4,1.3098249E4,1.6045025E4,2.0932493E3,1.2793262E4,3.0498648E2,1.2324272E4,3.7207527E3,2.3300136E2,1.860248E3,1.2791016E4,2.2469635E0,1.2123118E4,2.0115437E2,2.9620193E3,7.5873334E2,2.2886789E2,4.1334662E0,5.132539E1,1.8089226E3,1.2102235E4,2.0883324E1,1.5747336E2,4.368102E1,2.8605244E3,1.01494995E2,7.0795056E2,5.078278E1,1.3905771E0,2.7428892E0,1.7965806E3,1.234212E1,1.2756917E1,8.126408E0,1.4700494E2,1.04684105E1,2.7040154E3,1.5650902E2,9.426736E1,7.227632E0,1.5829218E2,5.496584E2,4.237211E1,8.410671E0,1.0221027E1,2.1210935E0,5.974558E0,6.782359E0,4.8830347E0,3.2433724E0,1.4550522E2,1.4997245E0,2.7017427E3,2.2726316E0,1.3783939E2,1.8669634E1,1.4987389E2,8.418286E0,4.002605E1,2.3460553E0,1.2477458E0,4.7268124E0,4.2425903E1,1.0307932E2,4.114067E2,2.290336E3,1.026591E0,1.2460406E0,1.329776E2,4.861788E0,1.7615877E1,1.053756E0,7.979368E1,7.008021E1,3.0456297E1,9.569755E0],"tree_param":{"num_deleted":"0","num_feature":"38","num_nodes":"77","size_leaf_vector":"1"}},{"base_weights":[-3.7458062E-3,-1.2659578E0,1.7530004E0,-1.6400062E0,1.0759623E0,1.8357373E0,-1.8269287E0,-1.7844093E0,-1.1390027E0,-5.468228E-2,1.5930907E0,5.517985E-2,-5.0459255E-2,-1.4731631E-2,-5.4943208E-2,-1.822961E0,7.586896E-1,1.6484957E0,-1.5337359E0,1.8162397E0,-5.483058E-2,-1.8265157E0,5.3521972E-2,1.4637687E0,-5.3681426E-2,-1.3937634E0,1.7852393E0,-1.7095159E0,3.2903737E-1,1.8332931E0,-1.24993E0,-5.481191E-2,-1.3203318E0,-1.0363215E0,9.18892E-1,6.4216816E-1,1.752305E0,-4.776969E-2,2.9675066E-2,1.8140837E0,-4.3258734E-2,-1.7463996E0,-4.8911694E-1,-1.4225122E0,5.4811113E-2,5.515228E-2,-4.0828213E-2,-5.0263625E-2,3.272167E-2,3.644781E-2,-5.1574226E-2,1.775849E-1,-4.1177027E-2,1.4798299E0,-4.004704E-2,5.2585796E-2,-1.3624414E0,5.3593162E-2,-2.4710535E-3,5.519158E-2,1.1978681E0,-1.7611017E0,-4.0864554E-1,5.3719793E-2,-5.421929E-2,4.5831934E-2,-1.6672621E0,-1.0201949E-2,1.8256204E-2,4.8568234E-2,2.398401E-3,-5.228285E-2,3.5311658E-2,2.014275E-2,4.9854934E-2,-4.6725735E-2,-5.4656852E-2,5.135076E-2,-5.247753E-2,-4.1143826E-4,-5.221228E-2],"categories":[],"categories_nodes":[],"categories_segments":[],"categories_sizes":[],"default_left":[0,0,0,0,0,0,0,0,0,0,0,0,0,0,0,0,0,0,0,0,0,0,0,0,0,0,0,0,0,0,0,0,0,0,0,0,0,0,0,0,0,0,0,0,0,0,0,0,0,0,0,0,0,0,0,0,0,0,0,0,0,0,0,0,0,0,0,0,0,0,0,0,0,0,0,0,0,0,0,0,0],"id":3,"left_children":[1,3,5,7,9,11,13,15,17,-1,19,-1,-1,-1,-1,21,23,25,27,29,-1,31,33,35,-1,37,39,41,43,45,47,-1,49,51,53,55,57,-1,-1,59,-1,61,63,65,-1,-1,-1,-1,-1,-1,-1,67,-1,69,-1,-1,71,-1,-1,-1,73,75,77,-1,-1,-1,79,-1,-1,-1,-1,-1,-1,-1,-1,-1,-1,-1,-1,-1,-1],"loss_changes":[6.893664E4,1.5849256E4,3.8533281E3,1.1265586E3,3.7385986E3,1.6358984E2,8.7335205E-1,1.1884336E3,3.8460059E3,0E0,1.6180708E3,0E0,0E0,0E0,0E0,7.965625E1,3.287194E2,1.8294128E2,1.0026177E3,1.061543E2,0E0,8.90625E-1,2.3137257E1,3.270822E1,0E0,1.066914E1,4.1297974E1,1.25026855E2,6.971782E2,3.479004E1,1.336223E1,0E0,1.8750103E1,4.68513E0,1.9221981E1,8.849371E1,6.7256775E0,0E0,0E0,4.3095703E0,0E0,5.266211E1,2.5395683E2,9.106949E1,0E0,0E0,0E0,0E0,0E0,0E0,0E0,9.310052E-1,0E0,2.0901089E0,0E0,0E0,1.5911512E1,0E0,0E0,0E0,3.606575E0,3.038379E1,9.056359E1,0E0,0E0,0E0,1.3726227E1,0E0,0E0,0E0,0E0,0E0,0E0,0E0,0E0,0E0,0E0,0E0,0E0,0E0,0E0],"parents":[2147483647,0,0,1,1,2,2,3,3,4,4,5,5,6,6,7,7,8,8,10,10,15,15,16,16,17,17,18,18,19,19,21,21,22,22,23,23,25,25,26,26,27,27,28,28,29,29,30,30,32,32,33,33,34,34,35,35,36,36,39,39,41,41,42,42,43,43,51,51,53,53,56,56,60,60,61,61,62,62,66,66],"right_children":[2,4,6,8,10,12,14,16,18,-1,20,-1,-1,-1,-1,22,24,26,28,30,-1,32,34,36,-1,38,40,42,44,46,48,-1,50,52,54,56,58,-1,-1,60,-1,62,64,66,-1,-1,-1,-1,-1,-1,-1,68,-1,70,-1,-1,72,-1,-1,-1,74,76,78,-1,-1,-1,80,-1,-1,-1,-1,-1,-1,-1,-1,-1,-1,-1,-1,-1,-1],"split_conditions":[-5.2742146E-2,9.205021E-1,2.367045E0,2.1607E0,2.1607E0,3.0881488E0,3.6049097E0,-5.191516E-1,-3.9426035E-1,-5.468228E-2,-2.2186866E-1,5.517985E-2,-5.0459255E-2,-1.4731631E-2,-5.4943208E-2,-9.703036E-3,3.0881488E0,-3.9522603E-1,-1.1210059E-1,1.8079233E1,-5.483058E-2,-6.6900754E-1,-2.6886168E-1,-3.5712412E-1,-5.3681426E-2,-2.2186866E-1,3.0881488E0,8.0931914E-1,-1.2060426E0,3.0881488E0,-1.2060426E0,-5.481191E-2,-3.9522305E-1,1.5494482E-2,-2.5228846E-1,-4.8475882E-1,-3.7812203E-1,-4.776969E-2,2.9675066E-2,-1.1210061E-1,-4.3258734E-2,7.3587546E0,-2.2186866E-1,-2.547856E-1,5.4811113E-2,5.515228E-2,-4.0828213E-2,-5.0263625E-2,3.272167E-2,3.644781E-2,-5.1574226E-2,-1.0720029E0,-4.1177027E-2,-3.9522612E-1,-4.004704E-2,5.2585796E-2,-8.608852E-2,5.3593162E-2,-2.4710535E-3,5.519158E-2,-2.2186577E-1,-2.5228846E-1,-2.2186863E-1,5.3719793E-2,-5.421929E-2,4.5831934E-2,-1.810171E-2,-1.0201949E-2,1.8256204E-2,4.8568234E-2,2.398401E-3,-5.228285E-2,3.5311658E-2,2.014275E-2,4.9854934E-2,-4.6725735E-2,-5.4656852E-2,5.135076E-2,-5.247753E-2,-4.1143826E-4,-5.221228E-2],"split_indices":[9,3,11,19,19,21,11,9,0,0,1,0,0,0,0,1,21,0,36,25,0,9,32,9,0,1,21,3,9,21,9,0,0,1,11,15,0,0,0,36,0,25,1,0,0,0,0,0,0,0,0,9,0,0,0,0,36,0,0,0,1,11,1,0,0,0,6,0,0,0,0,0,0,0,0,0,0,0,0,0,0],"split_type":[0,0,0,0,0,0,0,0,0,0,0,0,0,0,0,0,0,0,0,0,0,0,0,0,0,0,0,0,0,0,0,0,0,0,0,0,0,0,0,0,0,0,0,0,0,0,0,0,0,0,0,0,0,0,0,0,0,0,0,0,0,0,0,0,0,0,0,0,0,0,0,0,0,0,0,0,0,0,0,0,0],"sum_hessian":[3.1087146E4,1.8089922E4,1.2997225E4,1.5598802E4,2.4911204E3,1.2704104E4,2.9312173E2,1.2106741E4,3.4920598E3,3.7675235E2,2.114368E3,1.2691624E4,1.2478603E1,1.3563182E0,2.917654E2,1.1926231E4,1.8051045E2,4.3277127E2,3.0592886E3,1.9853273E3,1.290407E2,1.1903708E4,2.2523031E1,1.417204E2,3.879006E1,1.8220085E1,4.1455118E2,2.7955679E3,2.6372055E2,1.9747462E3,1.0581052E1,1.18882295E4,1.5478816E1,9.881174E0,1.2641857E1,3.767299E1,1.0404741E2,1.7124918E1,1.0951667E0,4.1131277E2,3.238395E0,2.7131387E3,8.2429306E1,1.2159495E2,1.421256E2,1.9720121E3,2.7341084E0,9.193831E0,1.3872198E0,1.8257842E0,1.3653032E1,2.2456927E0,7.635481E0,1.0397474E1,2.2443824E0,2.4322329E1,1.335066E1,1.0217279E2,1.8746161E0,3.929786E2,1.8334162E1,2.6833318E3,2.980679E1,3.006842E1,5.236089E1,8.913122E0,1.1268183E2,1.1160423E0,1.1296506E0,9.315298E0,1.0821764E0,1.1884543E1,1.4661164E0,9.735158E0,8.599004E0,6.2316724E2,2.0601646E3,1.1438518E1,1.836827E1,4.823804E0,1.07858025E2],"tree_param":{"num_deleted":"0","num_feature":"38","num_nodes":"81","size_leaf_vector":"1"}},{"base_weights":[-7.257349E-4,-1.2351488E0,1.7122325E0,1.0867139E0,-1.5847813E0,1.793835E0,-5.362541E-2,1.5305277E0,-5.332612E-2,-1.6884109E0,-9.764032E-1,5.3827904E-2,-3.3114593E-2,-5.3473618E-2,1.754657E0,-1.7642457E0,-1.3289104E0,1.2978922E0,-5.3464565E-2,1.7753646E0,-4.6693493E-2,-1.7731203E0,-2.4648917E-1,-1.5452694E0,4.902849E-1,1.7434283E0,-1.1765057E-1,5.3824805E-2,-1.330181E0,-3.8838297E-1,-1.7740856E0,-5.2380715E-2,5.20495E-2,-1.0161391E0,-1.7752305E0,1.5801407E0,-5.2119672E-2,1.7634643E0,1.0277907E0,-1.0415077E0,1.5742595E0,-4.9462084E-2,2.8926345E-2,4.0771183E-2,-4.4793256E-2,-1.7794962E0,-1.632228E0,-1.6726823E0,1.6617424E0,-1.7774682E0,1.7604934E-2,3.2366696E-1,5.347467E-2,1.778529E0,1.1423073E0,-7.5897175E-1,4.9659897E-2,-1.1948339E0,4.472641E-2,9.782826E-2,5.0711095E-2,-5.3464074E-2,-4.6094548E-2,-1.0496656E-2,-5.313315E-2,-5.2471373E-2,-2.3972126E-2,5.2798163E-2,-4.1777603E-2,-4.135293E-2,-5.3705562E-2,4.610642E-2,-9.311881E-3,1.691774E-2,5.3463846E-2,1.9502651E-2,4.6139773E-2,-3.7375085E-2,7.6803016E-3,-2.10948E-2,-5.2336894E-2,-2.4892185E-3,9.131386E-3],"categories":[],"categories_nodes":[],"categories_segments":[],"categories_sizes":[],"default_left":[0,0,0,0,0,0,0,0,0,0,0,0,0,0,0,0,0,0,0,0,0,0,0,0,0,0,0,0,0,0,0,0,0,0,0,0,0,0,0,0,0,0,0,0,0,0,0,0,0,0,0,0,0,0,0,0,0,0,0,0,0,0,0,0,0,0,0,0,0,0,0,0,0,0,0,0,0,0,0,0,0,0,0],"id":4,"left_children":[1,3,5,7,9,11,-1,13,-1,15,17,-1,-1,-1,19,21,23,25,-1,27,-1,29,31,33,35,37,39,-1,41,43,45,-1,-1,47,49,51,-1,53,55,57,59,-1,-1,-1,-1,61,63,65,67,69,-1,71,-1,73,75,77,-1,79,-1,81,-1,-1,-1,-1,-1,-1,-1,-1,-1,-1,-1,-1,-1,-1,-1,-1,-1,-1,-1,-1,-1,-1,-1],"loss_changes":[6.5371484E4,1.4587725E4,3.7010234E3,2.9926912E3,9.8291016E2,1.76875E1,0E0,1.515728E3,0E0,3.6139844E2,4.1717783E3,0E0,0E0,0E0,1.3361963E2,1.4792578E2,9.1714844E2,3.7595978E2,0E0,1.1312158E2,0E0,1.3949219E1,1.96735E2,2.514126E2,6.0538403E2,4.686157E0,2.260494E2,0E0,1.035088E1,1.9228832E1,5.5E0,0E0,0E0,1.1152719E3,8.703125E0,4.1933624E1,0E0,2.0810547E0,1.7784622E1,3.807164E1,8.595497E0,0E0,0E0,0E0,0E0,4.0117188E0,7.3129395E1,3.2536987E1,3.9968994E1,4.8813477E0,0E0,1.9257635E1,0E0,8.6291504E-1,1.5714073E0,2.5511289E0,0E0,2.2743225E1,0E0,2.0404157E-1,0E0,0E0,0E0,0E0,0E0,0E0,0E0,0E0,0E0,0E0,0E0,0E0,0E0,0E0,0E0,0E0,0E0,0E0,0E0,0E0,0E0,0E0,0E0],"parents":[2147483647,0,0,1,1,2,2,3,3,4,4,5,5,7,7,9,9,10,10,14,14,15,15,16,16,17,17,19,19,21,21,22,22,23,23,24,24,25,25,26,26,28,28,29,29,30,30,33,33,34,34,35,35,37,37,38,38,39,39,40,40,45,45,46,46,47,47,48,48,49,49,51,51,53,53,54,54,55,55,57,57,59,59],"right_children":[2,4,6,8,10,12,-1,14,-1,16,18,-1,-1,-1,20,22,24,26,-1,28,-1,30,32,34,36,38,40,-1,42,44,46,-1,-1,48,50,52,-1,54,56,58,60,-1,-1,-1,-1,62,64,66,68,70,-1,72,-1,74,76,78,-1,80,-1,82,-1,-1,-1,-1,-1,-1,-1,-1,-1,-1,-1,-1,-1,-1,-1,-1,-1,-1,-1,-1,-1,-1,-1],"split_conditions":[-5.2742146E-2,-3.0580038E-1,-3.9370155E-1,-1.1520544E0,-2.4822682E-1,9.366294E-3,-5.362541E-2,-2.3111048E-1,-5.332612E-2,-4.1371316E-1,3.0881488E0,5.3827904E-2,-3.3114593E-2,-5.3473618E-2,3.0881488E0,-2.4170099E-1,1.4556166E0,1.4678611E-1,-5.3464565E-2,1.8079233E1,-4.6693493E-2,-3.952214E-1,-9.129094E-2,-2.5228846E-1,3.0881488E0,-9.649336E-2,7.233433E-2,5.3824805E-2,-2.611348E-2,3.0881488E0,-4.7101828E-1,-5.2380715E-2,5.20495E-2,7.214811E-1,-1.1210059E-1,-1.2060426E0,-5.2119672E-2,1.7233512E0,-2.4976294E-1,-2.611348E-2,-8.1276625E-1,-4.9462084E-2,2.8926345E-2,4.0771183E-2,-4.4793256E-2,-2.5361115E-1,-2.218678E-1,-1.588398E-1,3.0881488E0,-1.4798887E-1,1.7604934E-2,-2.547856E-1,5.347467E-2,-3.9522532E-1,-2.2186866E-1,-3.9370155E-1,4.9659897E-2,-1.0791393E-1,4.472641E-2,-8.4833735E-1,5.0711095E-2,-5.3464074E-2,-4.6094548E-2,-1.0496656E-2,-5.313315E-2,-5.2471373E-2,-2.3972126E-2,5.2798163E-2,-4.1777603E-2,-4.135293E-2,-5.3705562E-2,4.610642E-2,-9.311881E-3,1.691774E-2,5.3463846E-2,1.9502651E-2,4.6139773E-2,-3.7375085E-2,7.6803016E-3,-2.10948E-2,-5.2336894E-2,-2.4892185E-3,9.131386E-3],"split_indices":[28,2,37,28,2,8,0,37,0,14,21,0,0,0,21,28,37,2,0,25,0,0,36,11,21,36,1,0,8,21,14,0,0,5,36,28,0,37,32,8,28,0,0,0,0,2,1,10,21,15,0,0,0,0,1,37,0,7,0,28,0,0,0,0,0,0,0,0,0,0,0,0,0,0,0,0,0,0,0,0,0,0,0],"split_type":[0,0,0,0,0,0,0,0,0,0,0,0,0,0,0,0,0,0,0,0,0,0,0,0,0,0,0,0,0,0,0,0,0,0,0,0,0,0,0,0,0,0,0,0,0,0,0,0,0,0,0,0,0,0,0,0,0,0,0,0,0,0,0,0,0,0,0,0,0,0,0,0,0,0,0,0,0,0,0,0,0,0,0],"sum_hessian":[3.0913592E4,1.7966516E4,1.2947077E4,2.3510957E3,1.561542E4,1.2652549E4,2.945285E2,2.0360732E3,3.1502252E2,1.33411455E4,2.2742742E3,1.2651059E4,1.4894037E0,1.2857535E2,1.9074979E3,1.101391E4,2.3272354E3,5.9479724E2,1.6794768E3,1.8961035E3,1.1394408E1,1.0949718E4,6.419251E1,2.0800083E3,2.472272E2,4.5222858E2,1.4256868E2,1.8851166E3,1.0986947E1,7.909782E0,1.0941808E4,3.660755E1,2.7584963E1,6.3176483E2,1.4482434E3,1.6620308E2,8.102412E1,4.3848782E2,1.3740755E1,9.2463806E1,5.0104874E1,9.894582E0,1.0923648E0,2.9745388E0,4.9352436E0,1.052869E4,4.131169E2,5.0767276E2,1.2409208E2,1.44712E3,1.1233838E0,2.3414034E1,1.4278905E2,4.2628598E2,1.2201842E1,3.5171375E0,1.0223618E1,8.768311E1,4.780693E0,3.7874236E0,4.6317448E1,1.0409292E4,1.1939926E2,4.071246E1,3.7240445E2,4.6594208E2,4.17307E1,1.2063739E2,3.4546895E0,4.807374E1,1.3990463E3,7.5479517E0,1.5866083E1,1.7253094E0,4.2456067E2,6.6154227E0,5.58642E0,2.2232478E0,1.2938898E0,4.7488686E1,4.0194427E1,2.3386247E0,1.4487988E0],"tree_param":{"num_deleted":"0","num_feature":"38","num_nodes":"83","size_leaf_vector":"1"}},{"base_weights":[4.279098E-4,-1.2039435E0,1.6704409E0,-1.5282052E0,1.270066E0,1.7520666E0,-5.2329972E-2,-1.6996547E0,-9.59289E-1,-1.7029774E0,1.6379149E0,5.2578878E-2,-3.6225148E-2,-1.7392238E0,6.100367E-1,-1.5864865E0,1.4914131E0,-5.1580485E-2,-5.209325E-1,-5.1666237E-2,1.7351192E0,-1.7410513E0,-3.5456097E-1,1.2516052E0,-5.1405527E-2,-1.6931723E0,1.4731811E0,1.6519877E0,-7.4930704E-1,2.8742308E-2,-3.7911348E-2,1.7530115E0,-9.975547E-1,-5.2257564E-2,-1.4340935E0,7.420711E-2,-4.091448E-2,1.4586098E0,-4.845807E-2,-1.7209659E0,-1.206216E0,5.2037466E-2,-4.6591956E-2,1.2877729E0,5.2638017E-2,-4.9255565E-2,6.8538666E-1,5.260542E-2,1.5028619E-2,-4.8013877E-2,3.708705E-2,-1.0078127E0,-5.0435692E-2,-6.0251254E-1,2.2532182E-2,8.495477E-1,5.130378E-2,-1.7221162E0,-4.7918817E-1,-1.5865684E0,1.6957724E0,1.4379232E0,-4.1724484E-2,1.159779E0,-4.1304518E-2,9.29735E-3,-3.520765E-2,2.1056054E-2,-3.0522486E-2,5.021537E-2,-3.6708254E-2,-4.8476692E-2,-5.2215952E-2,1.7260661E-2,-3.376126E-2,-5.134877E-2,4.2662352E-2,5.223014E-2,1.4450339E-2,3.4787573E-2,5.1883116E-2,1.73726E-2,4.7765773E-2],"categories":[],"categories_nodes":[],"categories_segments":[],"categories_sizes":[],"default_left":[0,0,0,0,0,0,0,0,0,0,0,0,0,0,0,0,0,0,0,0,0,0,0,0,0,0,0,0,0,0,0,0,0,0,0,0,0,0,0,0,0,0,0,0,0,0,0,0,0,0,0,0,0,0,0,0,0,0,0,0,0,0,0,0,0,0,0,0,0,0,0,0,0,0,0,0,0,0,0,0,0,0,0],"id":5,"left_children":[1,3,5,7,9,11,-1,13,15,17,19,-1,-1,21,23,25,27,-1,29,-1,31,33,35,37,-1,39,41,43,45,-1,-1,47,49,-1,51,53,-1,55,-1,57,59,-1,-1,61,-1,-1,63,-1,-1,-1,-1,65,-1,67,-1,69,-1,71,73,75,77,79,-1,81,-1,-1,-1,-1,-1,-1,-1,-1,-1,-1,-1,-1,-1,-1,-1,-1,-1,-1,-1],"loss_changes":[6.174266E4,1.4309885E4,3.5882266E3,1.5364805E3,2.2636377E3,2.303125E1,0E0,1.108375E3,5.618816E3,3.5187988E0,6.040239E2,0E0,0E0,2.9523438E1,3.0746307E2,9.5234863E2,2.693286E2,0E0,6.2103353E0,0E0,8.92168E1,6.6796875E-1,7.438798E0,9.794702E1,0E0,3.598535E1,8.067644E1,2.3736816E1,6.580879E1,0E0,0E0,2.397461E-1,1.8509062E1,0E0,2.4334106E0,6.337947E0,0E0,2.164093E1,0E0,2.9726562E0,1.7398717E2,0E0,0E0,6.500552E1,0E0,0E0,2.1239315E1,0E0,0E0,0E0,0E0,4.0503464E0,0E0,4.4916267E0,0E0,8.07377E1,0E0,2.381836E0,3.2681165E0,5.4253387E1,1.7551804E-1,1.0070709E1,0E0,3.3130417E0,0E0,0E0,0E0,0E0,0E0,0E0,0E0,0E0,0E0,0E0,0E0,0E0,0E0,0E0,0E0,0E0,0E0,0E0,0E0],"parents":[2147483647,0,0,1,1,2,2,3,3,4,4,5,5,7,7,8,8,9,9,10,10,13,13,14,14,15,15,16,16,18,18,20,20,21,21,22,22,23,23,25,25,26,26,27,27,28,28,31,31,32,32,34,34,35,35,37,37,39,39,40,40,43,43,46,46,51,51,53,53,55,55,57,57,58,58,59,59,60,60,61,61,63,63],"right_children":[2,4,6,8,10,12,-1,14,16,18,20,-1,-1,22,24,26,28,-1,30,-1,32,34,36,38,-1,40,42,44,46,-1,-1,48,50,-1,52,54,-1,56,-1,58,60,-1,-1,62,-1,-1,64,-1,-1,-1,-1,66,-1,68,-1,70,-1,72,74,76,78,80,-1,82,-1,-1,-1,-1,-1,-1,-1,-1,-1,-1,-1,-1,-1,-1,-1,-1,-1,-1,-1],"split_conditions":[-5.2742146E-2,1.5728495E-1,-3.9370155E-1,2.1607E0,-1.980374E-1,-2.2683671E-1,-5.2329972E-2,-6.6900754E-1,1.0807884E0,-2.1028669E-1,2.1607E0,5.2578878E-2,-3.6225148E-2,-1.216413E-3,3.0881488E0,1.4458079E0,1.7233512E0,-5.1580485E-2,-2.2186863E-1,-5.1666237E-2,1.8079233E1,-1.0748676E-1,3.0881488E0,-1.7104756E-2,-5.1405527E-2,8.3090293E-1,-2.2186866E-1,-1.2060426E0,-1.8084956E-2,2.8742308E-2,-3.7911348E-2,-2.5228846E-1,-1.2060426E0,-5.2257564E-2,5.9856825E0,-2.6886168E-1,-4.091448E-2,-3.5712412E-1,-4.845807E-2,1.0256874E1,-1.187426E0,5.2037466E-2,-4.6591956E-2,-2.2186866E-1,5.2638017E-2,-4.9255565E-2,3.0881488E0,5.260542E-2,1.5028619E-2,-4.8013877E-2,3.708705E-2,-9.348918E-2,-5.0435692E-2,1.5494482E-2,2.2532182E-2,-4.8475882E-1,5.130378E-2,9.8065734E-2,2.0163774E0,4.667796E-1,-2.2682619E-1,1.0048248E0,-4.1724484E-2,-2.2186866E-1,-4.1304518E-2,9.29735E-3,-3.520765E-2,2.1056054E-2,-3.0522486E-2,5.021537E-2,-3.6708254E-2,-4.8476692E-2,-5.2215952E-2,1.7260661E-2,-3.376126E-2,-5.134877E-2,4.2662352E-2,5.223014E-2,1.4450339E-2,3.4787573E-2,5.1883116E-2,1.73726E-2,4.7765773E-2],"split_indices":[9,27,37,19,37,17,0,9,37,37,19,0,0,1,21,3,37,0,1,0,25,1,21,6,0,37,1,9,6,0,0,11,9,0,23,32,0,9,0,25,9,0,0,1,0,0,21,0,0,0,0,1,0,1,0,15,0,31,0,15,17,15,0,1,0,0,0,0,0,0,0,0,0,0,0,0,0,0,0,0,0,0,0],"split_type":[0,0,0,0,0,0,0,0,0,0,0,0,0,0,0,0,0,0,0,0,0,0,0,0,0,0,0,0,0,0,0,0,0,0,0,0,0,0,0,0,0,0,0,0,0,0,0,0,0,0,0,0,0,0,0,0,0,0,0,0,0,0,0,0,0,0,0,0,0,0,0,0,0,0,0,0,0,0,0,0,0,0,0],"sum_hessian":[3.0695645E4,1.7834285E4,1.2861359E4,1.5767999E4,2.0662866E3,1.2561578E4,2.9978128E2,1.2115012E4,3.6529878E3,2.2710881E2,1.8391779E3,1.2559599E4,1.9798137E0,1.1911198E4,2.0381284E2,2.9088828E3,7.44105E2,2.2355783E2,3.5509787E0,5.1239315E1,1.7879386E3,1.1895242E4,1.5956266E1,1.6007504E2,4.37378E1,2.8113035E3,9.757921E1,6.9459186E2,4.951311E1,1.0902455E0,2.4607332E0,1.7766644E3,1.12741995E1,1.1857055E4,3.818766E1,1.1848899E1,4.1073675E0,1.4975322E2,1.0321814E1,2.6571123E3,1.5419127E2,9.021356E1,7.365651E0,1.5565602E2,5.3893585E2,3.0434776E1,1.9078337E1,1.775551E3,1.1133612E0,9.101259E0,2.172941E0,1.58766E1,2.2311058E1,5.9800186E0,5.86888E0,4.504695E1,1.0470627E2,2.6542666E3,2.8457603E0,1.3672458E2,1.7466677E1,1.4783234E2,7.823674E0,1.5866082E1,3.212254E0,1.6769924E0,1.4199608E1,1.2762094E0,4.7038093E0,3.236934E1,1.2677614E1,4.0527374E2,2.2489927E3,1.1228851E0,1.7228754E0,1.3168219E2,5.042401E0,1.6420906E1,1.0457708E0,7.81718E1,6.966054E1,7.770371E0,8.095711E0],"tree_param":{"num_deleted":"0","num_feature":"38","num_nodes":"83","size_leaf_vector":"1"}},{"base_weights":[-1.6076255E-4,-1.1792172E0,1.6364679E0,-1.4952651E0,1.2463748E0,1.713585E0,-5.1167432E-2,-1.6629773E0,-9.418013E-1,-1.6675785E0,1.6013737E0,5.1422104E-2,-3.3965405E-2,-1.7018971E0,6.0086375E-1,-1.5525478E0,1.4426663E0,-5.052313E-2,-5.0439626E-1,-5.055689E-2,1.6986997E0,-5.111168E-2,-5.9690124E-1,1.2104156E0,-5.028517E-2,-1.6550021E0,1.4692422E0,1.6111488E0,-7.74996E-1,2.8597677E-2,-3.7239473E-2,5.1446635E-2,-9.964194E-1,-1.9120805E-1,-4.4244144E-2,1.4053127E0,-4.7337417E-2,-1.6823863E0,-1.1730789E0,5.089116E-2,-4.4807393E-2,1.242949E0,5.1471796E-2,-1.2920898E0,4.765559E-2,-4.6598937E-2,3.4621775E-2,-5.7179093E-1,2.331676E-1,7.694857E-1,5.0163414E-2,-1.6835288E0,-4.900414E-3,-1.5586319E0,1.6585716E0,1.4038506E0,-4.1678898E-2,-1.4461286E0,3.7887387E-2,-4.4823633E-4,-3.765566E-2,2.0819403E-2,-3.2406926E-2,4.9054436E-2,-3.7402794E-2,-4.7367748E-2,-5.103958E-2,-5.0339803E-2,4.1153427E-2,5.105697E-2,1.4011969E-2,3.407759E-2,5.0741274E-2,-4.93841E-2,-1.832968E-2],"categories":[],"categories_nodes":[],"categories_segments":[],"categories_sizes":[],"default_left":[0,0,0,0,0,0,0,0,0,0,0,0,0,0,0,0,0,0,0,0,0,0,0,0,0,0,0,0,0,0,0,0,0,0,0,0,0,0,0,0,0,0,0,0,0,0,0,0,0,0,0,0,0,0,0,0,0,0,0,0,0,0,0,0,0,0,0,0,0,0,0,0,0,0,0],"id":6,"left_children":[1,3,5,7,9,11,-1,13,15,17,19,-1,-1,21,23,25,27,-1,29,-1,31,-1,33,35,-1,37,39,41,43,-1,-1,-1,45,47,-1,49,-1,51,53,-1,-1,55,-1,57,-1,-1,-1,59,61,63,-1,65,-1,67,69,71,-1,73,-1,-1,-1,-1,-1,-1,-1,-1,-1,-1,-1,-1,-1,-1,-1,-1,-1],"loss_changes":[5.872767E4,1.3562959E4,3.2874414E3,1.4512031E3,2.1127175E3,1.9136719E1,0E0,1.0592031E3,5.306134E3,3.4180298E0,5.846382E2,0E0,0E0,2.2804688E1,2.8479324E2,9.002168E2,2.7891858E2,0E0,6.057335E0,0E0,7.8799805E1,0E0,7.2027164E0,8.986607E1,0E0,3.5047363E1,6.6884674E1,2.4474976E1,6.700822E1,0E0,0E0,0E0,1.5184069E1,2.6402836E0,0E0,2.4375977E1,0E0,4.3276367E0,1.7086127E2,0E0,0E0,6.8224045E1,0E0,1.9206047E1,0E0,0E0,0E0,3.2056043E0,5.621226E0,8.331703E1,0E0,2.2456055E0,0E0,4.993405E1,1.83712E-1,9.477234E0,0E0,6.0287857E0,0E0,0E0,0E0,0E0,0E0,0E0,0E0,0E0,0E0,0E0,0E0,0E0,0E0,0E0,0E0,0E0,0E0],"parents":[2147483647,0,0,1,1,2,2,3,3,4,4,5,5,7,7,8,8,9,9,10,10,13,13,14,14,15,15,16,16,18,18,20,20,22,22,23,23,25,25,26,26,27,27,28,28,32,32,33,33,35,35,37,37,38,38,41,41,43,43,47,47,48,48,49,49,51,51,53,53,54,54,55,55,57,57],"right_children":[2,4,6,8,10,12,-1,14,16,18,20,-1,-1,22,24,26,28,-1,30,-1,32,-1,34,36,-1,38,40,42,44,-1,-1,-1,46,48,-1,50,-1,52,54,-1,-1,56,-1,58,-1,-1,-1,60,62,64,-1,66,-1,68,70,72,-1,74,-1,-1,-1,-1,-1,-1,-1,-1,-1,-1,-1,-1,-1,-1,-1,-1,-1],"split_conditions":[-5.2742146E-2,1.5728495E-1,-3.9370155E-1,2.1607E0,-1.980374E-1,9.366294E-3,-5.1167432E-2,-6.6900754E-1,1.0807884E0,-2.1028669E-1,2.1607E0,5.1422104E-2,-3.3965405E-2,-2.5004216E-2,-3.9370155E-1,1.4458079E0,1.7233512E0,-5.052313E-2,-2.2186863E-1,-5.055689E-2,1.8079233E1,-5.111168E-2,-3.9370155E-1,-1.7167589E-2,-5.028517E-2,8.3090293E-1,-2.2186866E-1,-1.2060426E0,-2.2184384E-1,2.8597677E-2,-3.7239473E-2,5.1446635E-2,-2.611348E-2,-9.9008965E-1,-4.4244144E-2,-3.5712412E-1,-4.7337417E-2,1.0256874E1,-1.187426E0,5.089116E-2,-4.4807393E-2,-2.2186866E-1,5.1471796E-2,-1.7896455E-2,4.765559E-2,-4.6598937E-2,3.4621775E-2,3.328557E-2,-3.9182168E-1,-5.0475407E-1,5.0163414E-2,9.8065734E-2,-4.900414E-3,4.667796E-1,-2.2546668E-1,1.0048248E0,-4.1678898E-2,-1.8084956E-2,3.7887387E-2,-4.4823633E-4,-3.765566E-2,2.0819403E-2,-3.2406926E-2,4.9054436E-2,-3.7402794E-2,-4.7367748E-2,-5.103958E-2,-5.0339803E-2,4.1153427E-2,5.105697E-2,1.4011969E-2,3.407759E-2,5.0741274E-2,-4.93841E-2,-1.832968E-2],"split_indices":[9,27,37,19,37,8,0,9,37,37,19,0,0,1,37,3,37,0,1,0,25,0,37,6,0,37,1,9,1,0,0,0,8,9,0,9,0,25,9,0,0,1,0,6,0,0,0,1,13,4,0,8,0,15,16,15,0,6,0,0,0,0,0,0,0,0,0,0,0,0,0,0,0,0,0],"split_type":[0,0,0,0,0,0,0,0,0,0,0,0,0,0,0,0,0,0,0,0,0,0,0,0,0,0,0,0,0,0,0,0,0,0,0,0,0,0,0,0,0,0,0,0,0,0,0,0,0,0,0,0,0,0,0,0,0,0,0,0,0,0,0,0,0,0,0,0,0,0,0,0,0,0,0],"sum_hessian":[3.0431926E4,1.7688846E4,1.274308E4,1.5650069E4,2.0387771E3,1.2456145E4,2.8693567E2,1.2009048E4,3.6410212E3,2.2100381E2,1.8177732E3,1.2454419E4,1.7254839E0,1.1806323E4,2.027249E2,2.8988677E3,7.421537E2,2.1746634E2,3.5374863E0,5.181221E1,1.765961E3,1.1786308E4,2.001505E1,1.6028561E2,4.243928E1,2.8042417E3,9.46259E1,6.900054E2,5.2148308E1,1.0892816E0,2.4482048E0,1.7557787E3,1.0182338E1,1.4522003E1,5.493047E0,1.502776E2,1.0008017E1,2.6511074E3,1.5313416E2,8.828539E1,6.340509E0,1.554784E2,5.34527E2,4.3159187E1,8.9891205E0,8.308501E0,1.8738366E0,7.472893E0,7.04911E0,4.556753E1,1.0471007E2,2.6490068E3,2.1007652E0,1.3517809E2,1.7956066E1,1.4696172E2,8.516671E0,4.1114437E1,2.044751E0,4.680757E0,2.792136E0,5.5673814E0,1.4817289E0,3.2012276E1,1.3555255E1,3.9809076E2,2.250916E3,1.3029817E2,4.87992E0,1.6912699E1,1.0433662E0,7.863564E1,6.832607E1,3.238697E1,8.727468E0],"tree_param":{"num_deleted":"0","num_feature":"38","num_nodes":"75","size_leaf_vector":"1"}},{"base_weights":[1.9248984E-3,-1.1541097E0,1.6007681E0,-1.4642204E0,1.2136121E0,1.6775861E0,-5.013166E-2,-1.6286899E0,-9.204918E-1,-1.6316541E0,1.5704597E0,5.0348084E-2,-3.7557863E-2,-1.6657083E0,5.5319643E-1,-1.5192941E0,1.4111608E0,-4.952553E-2,-3.1696218E-1,-4.947696E-2,1.6631874E0,-5.002675E-2,-6.3693637E-1,1.1651866E0,-4.9208622E-2,-1.6203212E0,1.4070213E0,1.5819286E0,-7.7587664E-1,3.056778E-2,-3.5449725E-2,1.6786219E0,-7.0410305E-1,-2.4166685E-1,-4.308361E-2,-1.1420988E0,1.3798504E0,-1.6467959E0,-1.1551113E0,4.9834188E-2,-4.4752553E-2,1.2365371E0,5.039569E-2,-1.2830783E0,4.6749707E-2,5.0373E-2,1.4755109E-2,3.811899E-2,-4.5407522E-2,-7.073707E-1,3.3907482E-1,-1.4156202E0,3.1962E-2,7.9374474E-1,1.6312324E0,-1.6480024E0,1.8377585E-2,-1.539019E0,1.5775759E0,1.3704302E0,-3.8358852E-2,-6.854492E-1,-4.934903E-2,1.2256939E-2,-3.5907514E-2,2.4566332E-2,-3.15553E-2,-4.651066E-2,-4.3086684E-3,4.7992285E-2,-3.868953E-2,5.0036285E-2,3.263254E-2,-4.458906E-3,-4.9458507E-2,-4.9265545E-2,3.854399E-2,4.997829E-2,1.3214041E-3,4.9691763E-2,3.3050478E-2,9.280123E-3,-4.504322E-2],"categories":[],"categories_nodes":[],"categories_segments":[],"categories_sizes":[],"default_left":[0,0,0,0,0,0,0,0,0,0,0,0,0,0,0,0,0,0,0,0,0,0,0,0,0,0,0,0,0,0,0,0,0,0,0,0,0,0,0,0,0,0,0,0,0,0,0,0,0,0,0,0,0,0,0,0,0,0,0,0,0,0,0,0,0,0,0,0,0,0,0,0,0,0,0,0,0,0,0,0,0,0,0],"id":7,"left_children":[1,3,5,7,9,11,-1,13,15,17,19,-1,-1,21,23,25,27,-1,29,-1,31,-1,33,35,-1,37,39,41,43,-1,-1,45,47,49,-1,51,53,55,57,-1,-1,59,-1,61,-1,-1,-1,-1,-1,63,65,67,-1,69,71,73,-1,75,77,79,-1,81,-1,-1,-1,-1,-1,-1,-1,-1,-1,-1,-1,-1,-1,-1,-1,-1,-1,-1,-1,-1,-1],"loss_changes":[5.5692504E4,1.2841953E4,3.1807012E3,1.3812734E3,2.0593042E3,2.6839844E1,0E0,9.5969336E2,5.019093E3,5.1865234E0,5.4027783E2,0E0,0E0,2.1152344E1,2.687601E2,8.476616E2,2.7564343E2,0E0,6.394664E0,0E0,6.5143555E1,0E0,6.7827806E0,7.8844925E1,0E0,3.2146973E1,7.316658E1,2.0986084E1,6.5797165E1,0E0,0E0,1.6113281E-1,2.117568E1,4.649255E0,0E0,9.85644E0,1.9801056E1,8.133789E0,1.6210786E2,0E0,0E0,5.375305E1,0E0,8.565193E0,0E0,0E0,0E0,0E0,0E0,5.608986E0,6.154677E0,1.9592686E0,0E0,7.7502335E1,1.6247559E-1,2.161621E0,0E0,4.1136383E1,2.5342941E0,9.479401E0,0E0,1.55767975E1,0E0,0E0,0E0,0E0,0E0,0E0,0E0,0E0,0E0,0E0,0E0,0E0,0E0,0E0,0E0,0E0,0E0,0E0,0E0,0E0,0E0],"parents":[2147483647,0,0,1,1,2,2,3,3,4,4,5,5,7,7,8,8,9,9,10,10,13,13,14,14,15,15,16,16,18,18,20,20,22,22,23,23,25,25,26,26,27,27,28,28,31,31,32,32,33,33,35,35,36,36,37,37,38,38,41,41,43,43,49,49,50,50,51,51,53,53,54,54,55,55,57,57,58,58,59,59,61,61],"right_children":[2,4,6,8,10,12,-1,14,16,18,20,-1,-1,22,24,26,28,-1,30,-1,32,-1,34,36,-1,38,40,42,44,-1,-1,46,48,50,-1,52,54,56,58,-1,-1,60,-1,62,-1,-1,-1,-1,-1,64,66,68,-1,70,72,74,-1,76,78,80,-1,82,-1,-1,-1,-1,-1,-1,-1,-1,-1,-1,-1,-1,-1,-1,-1,-1,-1,-1,-1,-1,-1],"split_conditions":[-5.2742146E-2,1.5728495E-1,-3.9370155E-1,2.1607E0,-1.980374E-1,9.366294E-3,-5.013166E-2,-6.6900754E-1,1.0807884E0,-2.1028669E-1,2.1607E0,5.0348084E-2,-3.7557863E-2,-2.5004216E-2,3.0881488E0,1.4458079E0,1.7233512E0,-4.952553E-2,-2.2186863E-1,-4.947696E-2,-4.4469167E-2,-5.002675E-2,3.0881488E0,-2.2185984E-1,-4.9208622E-2,8.3090293E-1,-2.2186866E-1,-1.2060426E0,-2.2184384E-1,3.056778E-2,-3.5449725E-2,-3.0579957E-1,3.1430953E0,-9.4712824E-1,-4.308361E-2,1.7020503E0,-3.5712412E-1,2.363386E0,-1.187426E0,4.9834188E-2,-4.4752553E-2,-2.2186866E-1,5.039569E-2,3.0881488E0,4.6749707E-2,5.0373E-2,1.4755109E-2,3.811899E-2,-4.5407522E-2,1.5494482E-2,-1.0791393E-1,-2.218678E-1,3.1962E-2,-4.8475882E-1,-4.9808797E-1,-4.9839616E-1,1.8377585E-2,4.3070036E-1,-2.2546625E-1,-3.0580032E-1,-3.8358852E-2,7.6699865E-1,-4.934903E-2,1.2256939E-2,-3.5907514E-2,2.4566332E-2,-3.15553E-2,-4.651066E-2,-4.3086684E-3,4.7992285E-2,-3.868953E-2,5.0036285E-2,3.263254E-2,-4.458906E-3,-4.9458507E-2,-4.9265545E-2,3.854399E-2,4.997829E-2,1.3214041E-3,4.9691763E-2,3.3050478E-2,9.280123E-3,-4.504322E-2],"split_indices":[28,27,37,19,37,8,0,28,37,37,19,0,0,1,21,3,37,0,1,0,36,0,21,1,0,37,1,28,1,0,0,2,24,28,0,5,28,14,28,0,0,1,0,21,0,0,0,0,0,1,7,1,0,15,3,3,0,14,16,2,0,2,0,0,0,0,0,0,0,0,0,0,0,0,0,0,0,0,0,0,0,0,0],"split_type":[0,0,0,0,0,0,0,0,0,0,0,0,0,0,0,0,0,0,0,0,0,0,0,0,0,0,0,0,0,0,0,0,0,0,0,0,0,0,0,0,0,0,0,0,0,0,0,0,0,0,0,0,0,0,0,0,0,0,0,0,0,0,0,0,0,0,0,0,0,0,0,0,0,0,0,0,0,0,0,0,0,0,0],"sum_hessian":[3.0129451E4,1.7486334E4,1.2643117E4,1.5461639E4,2.0246953E3,1.2353561E4,2.895573E2,1.1869349E4,3.59229E3,2.2523648E2,1.7994589E3,1.2351105E4,2.4543903E0,1.16715625E4,1.977863E2,2.8585269E3,7.33763E2,2.2174294E2,3.4935322E0,4.9904034E1,1.7495548E3,1.1649992E4,2.1570438E1,1.5500745E2,4.2778862E1,2.763565E3,9.4962E1,6.808757E2,5.2887287E1,1.3026593E0,2.190873E0,1.7385107E3,1.1044E1,1.5303734E1,6.2667036E0,1.2826207E1,1.4218124E2,2.6123584E3,1.5120665E2,8.7700745E1,7.2612543E0,1.5341348E2,5.274622E2,4.3816624E1,9.070663E0,1.737396E3,1.1147785E0,3.0452929E0,7.998707E0,8.372044E0,6.9316907E0,1.1731349E1,1.0948578E0,4.3925346E1,9.825589E1,2.6112344E3,1.1238748E0,1.3296375E2,1.8242897E1,1.4609154E2,7.321949E0,1.7617283E1,2.6199343E1,2.6032596E0,5.7687836E0,5.4596353E0,1.4720556E0,1.040986E1,1.3214893E0,3.1839735E1,1.2085611E1,9.011131E1,8.144577E0,1.1692111E0,2.6100652E3,1.2868095E2,4.282798E0,1.7167313E1,1.0755849E0,6.827735E1,7.781418E1,8.21868E0,9.398602E0],"tree_param":{"num_deleted":"0","num_feature":"38","num_nodes":"83","size_leaf_vector":"1"}},{"base_weights":[-2.1273051E-3,-1.1310849E0,1.5673238E0,-1.4647963E0,9.606067E-1,1.6445638E0,-4.9173415E-2,-1.5947956E0,-1.015204E0,-4.8816822E-2,1.4202187E0,4.935107E-2,-3.2814283E-2,-1.6319757E0,5.713467E-1,-1.527717E0,1.3702124E0,1.6268682E0,-4.9100105E-2,-1.6335647E0,-4.3126866E-1,1.3293493E0,-4.844834E-2,-1.5609989E0,-4.097343E-1,1.5430259E0,-6.1325157E-1,1.6414218E0,-1.1435275E0,-4.9127012E-2,-1.5729456E0,-6.84859E-1,3.416171E-2,7.870205E-1,1.5529426E0,-1.5741152E0,-5.303393E-1,4.8364144E-2,-4.8508152E-2,9.2843527E-1,4.939019E-2,-1.1085302E0,4.558181E-2,4.9343634E-2,-3.3065297E-2,-4.482045E-2,2.7808208E-2,-1.5959464E0,-6.5500945E-2,-8.7971306E-1,1.04518645E-1,4.7922295E-2,-1.2509838E0,4.777364E-2,-2.872593E-2,-1.432556E0,-1.6298025E0,4.655953E-2,-4.7619425E-2,-3.037604E-1,5.0354913E-2,-1.2908585E0,3.860625E-2,-4.920165E-2,-3.9942704E-2,1.9487785E-2,-3.7496146E-2,6.9543887E-3,-3.084948E-2,-4.4058624E-4,4.6952064E-3,-4.698106E-2,3.2720372E-2,-4.8760086E-2,5.296161E-2,-2.3517631E-2,-4.8919503E-2,-4.9506992E-2,1.19403815E-2,-4.619663E-2,-1.6266856E-2],"categories":[],"categories_nodes":[],"categories_segments":[],"categories_sizes":[],"default_left":[0,0,0,0,0,0,0,0,0,0,0,0,0,0,0,0,0,0,0,0,0,0,0,0,0,0,0,0,0,0,0,0,0,0,0,0,0,0,0,0,0,0,0,0,0,0,0,0,0,0,0,0,0,0,0,0,0,0,0,0,0,0,0,0,0,0,0,0,0,0,0,0,0,0,0,0,0,0,0,0,0],"id":8,"left_children":[1,3,5,7,9,11,-1,13,15,-1,17,-1,-1,19,21,23,25,27,-1,29,31,33,-1,35,37,39,41,43,45,-1,47,49,-1,51,53,55,57,-1,-1,59,-1,61,-1,-1,-1,-1,-1,63,65,67,69,-1,71,-1,-1,73,75,-1,-1,77,-1,79,-1,-1,-1,-1,-1,-1,-1,-1,-1,-1,-1,-1,-1,-1,-1,-1,-1,-1,-1],"loss_changes":[5.3057855E4,1.2158592E4,3.1055312E3,8.76291E2,2.8532551E3,1.7613281E1,0E0,9.391797E2,4.1243223E3,0E0,1.2888057E3,0E0,0E0,2.1148438E1,3.2916058E2,1.02648926E2,2.0552759E2,7.8788574E1,0E0,1.9921875E-1,7.3477745E0,1.6612183E1,0E0,3.5603027E1,2.0179163E2,3.3349487E1,5.296499E1,1.9341797E1,9.046469E0,0E0,2.5337036E1,2.372551E0,0E0,7.62574E1,1.1752899E1,1.8641602E1,8.033E1,0E0,0E0,7.568887E1,0E0,1.9121456E1,0E0,0E0,0E0,0E0,0E0,6.248413E0,1.1034822E1,2.2201376E0,2.6029069E-2,0E0,1.1559134E1,0E0,0E0,4.711128E2,8.59375E-2,0E0,0E0,3.0540741E1,0E0,6.1840096E0,0E0,0E0,0E0,0E0,0E0,0E0,0E0,0E0,0E0,0E0,0E0,0E0,0E0,0E0,0E0,0E0,0E0,0E0,0E0],"parents":[2147483647,0,0,1,1,2,2,3,3,4,4,5,5,7,7,8,8,10,10,13,13,14,14,15,15,16,16,17,17,19,19,20,20,21,21,23,23,24,24,25,25,26,26,27,27,28,28,30,30,31,31,33,33,34,34,35,35,36,36,39,39,41,41,47,47,48,48,49,49,50,50,52,52,55,55,56,56,59,59,61,61],"right_children":[2,4,6,8,10,12,-1,14,16,-1,18,-1,-1,20,22,24,26,28,-1,30,32,34,-1,36,38,40,42,44,46,-1,48,50,-1,52,54,56,58,-1,-1,60,-1,62,-1,-1,-1,-1,-1,64,66,68,70,-1,72,-1,-1,74,76,-1,-1,78,-1,80,-1,-1,-1,-1,-1,-1,-1,-1,-1,-1,-1,-1,-1,-1,-1,-1,-1,-1,-1],"split_conditions":[-5.2742146E-2,9.205021E-1,-3.9370155E-1,2.1607E0,2.1607E0,9.366294E-3,-4.9173415E-2,-6.6900754E-1,1.0807884E0,-4.8816822E-2,-2.2186866E-1,4.935107E-2,-3.2814283E-2,-1.216413E-3,3.0881488E0,8.0931914E-1,1.7233512E0,1.8079233E1,-4.9100105E-2,-1.8084956E-2,-1.8097522E-2,-3.5712412E-1,-4.844834E-2,7.054444E0,-2.2186866E-1,-1.2060426E0,-2.2184384E-1,3.0881488E0,-3.0580088E-1,-4.9127012E-2,-2.1927023E-1,-8.4833735E-1,3.416171E-2,-5.0475407E-1,-1.7104756E-2,-2.6886168E-1,-2.2186863E-1,4.8364144E-2,-4.8508152E-2,-3.053926E-1,4.939019E-2,-1.7896455E-2,4.558181E-2,4.9343634E-2,-3.3065297E-2,-4.482045E-2,2.7808208E-2,-3.0533203E-1,3.0881488E0,7.0201103E-3,-8.1276625E-1,4.7922295E-2,-8.608852E-2,4.777364E-2,-2.872593E-2,-1.187426E0,-4.8844966E-1,4.655953E-2,-4.7619425E-2,-1.0791393E-1,5.0354913E-2,-1.8084956E-2,3.860625E-2,-4.920165E-2,-3.9942704E-2,1.9487785E-2,-3.7496146E-2,6.9543887E-3,-3.084948E-2,-4.4058624E-4,4.6952064E-3,-4.698106E-2,3.2720372E-2,-4.8760086E-2,5.296161E-2,-2.3517631E-2,-4.8919503E-2,-4.9506992E-2,1.19403815E-2,-4.619663E-2,-1.6266856E-2],"split_indices":[28,3,37,19,19,8,0,28,37,0,1,0,0,1,21,3,37,25,0,6,6,28,0,25,1,28,1,21,2,0,1,28,0,4,6,32,1,0,0,2,0,6,0,0,0,0,0,2,21,1,28,0,36,0,0,28,14,0,0,7,0,6,0,0,0,0,0,0,0,0,0,0,0,0,0,0,0,0,0,0,0],"split_type":[0,0,0,0,0,0,0,0,0,0,0,0,0,0,0,0,0,0,0,0,0,0,0,0,0,0,0,0,0,0,0,0,0,0,0,0,0,0,0,0,0,0,0,0,0,0,0,0,0,0,0,0,0,0,0,0,0,0,0,0,0,0,0,0,0,0,0,0,0,0,0,0,0,0,0,0,0,0,0,0,0],"sum_hessian":[2.9942998E4,1.7415639E4,1.2527359E4,1.5019678E4,2.3959607E3,1.2233162E4,2.9419794E2,1.1648868E4,3.3708093E3,3.6097263E2,2.034988E3,1.2231453E4,1.7087891E0,1.1452541E4,1.9632736E2,2.7749612E3,5.958482E2,1.9065693E3,1.2841872E2,1.1437045E4,1.5496695E1,1.4607434E2,5.0253033E1,2.6943552E3,8.0605965E1,5.482986E2,4.7549603E1,1.8970114E3,9.557934E0,1.0704278E4,7.32766E2,1.3827081E1,1.6696141E0,4.396252E1,1.0211182E2,2.6599768E3,3.437837E1,3.0009483E1,5.059648E1,8.034296E1,4.6795563E2,3.897775E1,8.5718565E0,1.8950868E3,1.924621E0,8.412318E0,1.1456152E0,7.2169556E2,1.1070466E1,1.099787E1,2.82921E0,3.1609537E1,1.2352983E1,1.008896E2,1.2222137E0,7.5851886E2,1.9014579E3,1.141722E1,2.296115E1,3.0625933E1,4.9717026E1,3.664927E1,2.328479E0,6.140966E2,1.0759894E2,7.184295E0,3.8861709E0,1.2309103E0,9.76696E0,1.0770743E0,1.7521359E0,1.1180032E1,1.172952E0,7.1585693E2,4.2661938E1,2.8305917E0,1.8986273E3,1.0030045E1,2.059589E1,2.6708002E1,9.941266E0],"tree_param":{"num_deleted":"0","num_feature":"38","num_nodes":"81","size_leaf_vector":"1"}},{"base_weights":[2.940412E-4,-1.1087986E0,1.5392789E0,-1.4055848E0,1.1647351E0,1.6132215E0,-4.8175443E-2,-1.4436536E0,3.5454717E-1,-1.5687953E0,1.5027848E0,4.8416656E-2,-3.634079E-2,-1.5421721E0,-8.700704E-1,1.3647333E0,-1.565115E0,-4.763182E-2,-2.2492912E-1,1.5959795E0,-4.7621414E-2,-1.5899041E0,-1.0622182E0,1.1449796E0,-4.8005335E-2,-4.2188153E-2,1.4816091E0,-4.7944445E-2,-1.6080725E-1,2.9383523E-2,-3.2783117E-2,1.6140178E0,-9.440268E-1,-7.0319325E-1,-1.5919303E0,-3.2006693E-1,-4.8418034E-2,1.5659193E0,-1.4846952E-1,4.8223622E-2,-3.9611146E-2,-3.0448658E-2,3.1260654E-2,4.843462E-2,1.28484955E-2,-4.476883E-2,3.4804117E-2,4.471183E-2,-4.6237208E-2,-1.5942096E0,-1.0662402E0,1.433799E0,-1.5164526E0,1.5866162E0,8.621302E-1,-9.700026E-1,1.387998E0,-4.783512E-2,1.7527547E-2,4.24888E-2,-4.723585E-2,6.7546032E-3,4.821991E-2,-4.7464535E-2,4.205153E-2,4.8143346E-2,2.6337018E-2,-1.8233903E-2,4.3129105E-2,-3.3154745E-2,4.023349E-2,-7.986673E-3,4.4996195E-2],"categories":[],"categories_nodes":[],"categories_segments":[],"categories_sizes":[],"default_left":[0,0,0,0,0,0,0,0,0,0,0,0,0,0,0,0,0,0,0,0,0,0,0,0,0,0,0,0,0,0,0,0,0,0,0,0,0,0,0,0,0,0,0,0,0,0,0,0,0,0,0,0,0,0,0,0,0,0,0,0,0,0,0,0,0,0,0,0,0,0,0,0,0],"id":9,"left_children":[1,3,5,7,9,11,-1,13,15,17,19,-1,-1,21,23,25,27,-1,29,31,-1,33,35,37,-1,-1,39,-1,41,-1,-1,43,45,47,49,51,-1,53,55,-1,-1,-1,-1,-1,-1,-1,-1,-1,-1,57,59,61,63,65,67,69,71,-1,-1,-1,-1,-1,-1,-1,-1,-1,-1,-1,-1,-1,-1,-1,-1],"loss_changes":[5.0476215E4,1.1598311E4,2.883004E3,1.0191738E3,1.8366519E3,2.4753906E1,0E0,8.3955273E2,6.278195E2,5.213562E0,5.1142432E2,0E0,0E0,2.8921875E2,3.2143118E3,7.072174E1,4.9252014E0,0E0,5.4672847E0,8.013916E1,0E0,1.9626953E1,4.7103088E2,3.167459E2,0E0,0E0,7.4001495E1,0E0,4.837658E0,0E0,0E0,2.5683594E-1,1.641755E1,5.3986214E1,1.2107422E1,1.0352036E3,0E0,5.022217E0,1.8266904E2,0E0,0E0,0E0,0E0,0E0,0E0,0E0,0E0,0E0,0E0,8.285156E0,6.87973E1,4.1618927E1,5.842212E1,4.061035E0,1.3328019E1,3.0903458E1,9.737595E0,0E0,0E0,0E0,0E0,0E0,0E0,0E0,0E0,0E0,0E0,0E0,0E0,0E0,0E0,0E0,0E0],"parents":[2147483647,0,0,1,1,2,2,3,3,4,4,5,5,7,7,8,8,9,9,10,10,13,13,14,14,15,15,16,16,18,18,19,19,21,21,22,22,23,23,26,26,28,28,31,31,32,32,33,33,34,34,35,35,37,37,38,38,49,49,50,50,51,51,52,52,53,53,54,54,55,55,56,56],"right_children":[2,4,6,8,10,12,-1,14,16,18,20,-1,-1,22,24,26,28,-1,30,32,-1,34,36,38,-1,-1,40,-1,42,-1,-1,44,46,48,50,52,-1,54,56,-1,-1,-1,-1,-1,-1,-1,-1,-1,-1,58,60,62,64,66,68,70,72,-1,-1,-1,-1,-1,-1,-1,-1,-1,-1,-1,-1,-1,-1,-1,-1],"split_conditions":[-5.2742146E-2,1.5728495E-1,-3.9370155E-1,1.4458079E0,-1.980374E-1,9.366294E-3,-4.8175443E-2,-2.482321E-1,-1.1520544E0,-2.1028669E-1,3.0881488E0,4.8416656E-2,-3.634079E-2,-9.129094E-2,3.0881488E0,-3.9370155E-1,-9.129094E-2,-4.763182E-2,-2.2186863E-1,1.8079233E1,-4.7621414E-2,-4.9864858E-1,3.0881488E0,1.4678611E-1,-4.8005335E-2,-4.2188153E-2,3.0881488E0,-4.7944445E-2,3.8870318E0,2.9383523E-2,-3.2783117E-2,-3.0579957E-1,-2.611348E-2,3.0881488E0,1.1515368E0,-9.770405E-2,-4.8418034E-2,-9.649336E-2,8.598388E-2,4.8223622E-2,-3.9611146E-2,-3.0448658E-2,3.1260654E-2,4.843462E-2,1.28484955E-2,-4.476883E-2,3.4804117E-2,4.471183E-2,-4.6237208E-2,-2.1310326E-1,-2.2186866E-1,-1.2060426E0,-6.6900754E-1,1.7233512E0,-2.2007476E-1,-2.611348E-2,-8.1276625E-1,-4.783512E-2,1.7527547E-2,4.24888E-2,-4.723585E-2,6.7546032E-3,4.821991E-2,-4.7464535E-2,4.205153E-2,4.8143346E-2,2.6337018E-2,-1.8233903E-2,4.3129105E-2,-3.3154745E-2,4.023349E-2,-7.986673E-3,4.4996195E-2],"split_indices":[9,27,37,3,37,8,0,34,9,37,21,0,0,36,21,37,36,0,1,25,0,3,21,34,0,0,21,0,3,0,0,34,8,21,3,7,0,36,1,0,0,0,0,0,0,0,0,0,0,1,1,9,9,37,1,8,9,0,0,0,0,0,0,0,0,0,0,0,0,0,0,0,0],"split_type":[0,0,0,0,0,0,0,0,0,0,0,0,0,0,0,0,0,0,0,0,0,0,0,0,0,0,0,0,0,0,0,0,0,0,0,0,0,0,0,0,0,0,0,0,0,0,0,0,0,0,0,0,0,0,0,0,0,0,0,0,0,0,0,0,0,0,0,0,0,0,0,0,0],"sum_hessian":[2.9570268E4,1.7185533E4,1.2384734E4,1.5201516E4,1.9840182E3,1.210073E4,2.84004E2,1.4879868E4,3.2164767E2,2.1795499E2,1.7660632E3,1.2098303E4,2.4282281E0,1.2697295E4,2.1825732E3,2.1093576E2,1.1071191E2,2.147482E2,3.2067776E0,1.7148301E3,5.1233097E1,1.1546653E4,1.1506415E3,5.803303E2,1.6022429E3,8.09032E0,2.0284543E2,1.08032646E2,2.6792626E0,1.2891312E0,1.9176464E0,1.7030997E3,1.1730333E1,2.7117458E1,1.1519536E4,4.9131726E2,6.593243E2,4.3768094E2,1.4264935E2,1.9453464E2,8.310796E0,1.658049E0,1.0212135E0,1.7020642E3,1.0355433E0,9.536312E0,2.1940205E0,7.2810097E0,1.9836449E1,1.1467781E4,5.175406E1,1.9915843E2,2.921588E2,4.239588E2,1.3722131E1,9.319021E1,4.9459152E1,1.14665E4,1.2819828E0,8.49197E0,4.326209E1,2.5292662E1,1.7386577E2,2.8617383E2,5.984992E0,4.1213284E2,1.1825958E1,3.8450954E0,9.877035E0,8.853447E1,4.65574E0,3.0456474E0,4.6413506E1],"tree_param":{"num_deleted":"0","num_feature":"38","num_nodes":"73","size_leaf_vector":"1"}},{"base_weights":[-1.1064468E-3,-1.0895615E0,1.5122397E0,-1.3808229E0,1.151062E0,1.5821952E0,-1.5744158E0,-1.5366112E0,-8.605536E-1,1.4617293E0,-4.749138E-2,4.7545817E-2,-4.335246E-2,-6.3570687E-3,-4.7378536E-2,-1.5722482E0,5.46115E-1,4.2458123E-1,-1.564106E0,-1.5205443E0,1.5675528E0,-1.5731252E0,-1.1465074E0,1.103699E0,-4.6426173E-2,1.211517E0,-1.0516729E0,4.8173882E-2,-1.5670751E0,6.2123835E-3,-4.688383E-2,4.756032E-2,1.1403277E0,-1.5293127E0,-4.7394656E-2,4.9453482E-1,-4.5413755E-2,1.310818E0,-1.0530545E0,3.4029555E-1,4.7849517E-2,-1.565214E0,4.830618E-2,-4.7048293E-2,3.2478983E-3,4.678618E-2,-4.144673E-2,-5.226901E-1,-4.6899635E-2,3.0394707E-2,-2.0807456E-2,7.5483507E-1,4.6268888E-2,-1.2951515E0,3.1118903E-2,-2.5561062E-1,1.538399E0,-4.70947E-2,-1.2972707E-2,-4.3035153E-2,-5.87818E-3,4.5188528E-2,-3.5581592E-2,-4.3612026E-2,4.3606884E-3,2.0925568E-2,-3.24781E-2,2.1554522E-2,4.7260456E-2],"categories":[],"categories_nodes":[],"categories_segments":[],"categories_sizes":[],"default_left":[0,0,0,0,0,0,0,0,0,0,0,0,0,0,0,0,0,0,0,0,0,0,0,0,0,0,0,0,0,0,0,0,0,0,0,0,0,0,0,0,0,0,0,0,0,0,0,0,0,0,0,0,0,0,0,0,0,0,0,0,0,0,0,0,0,0,0,0,0],"id":10,"left_children":[1,3,5,7,9,11,13,15,17,19,-1,-1,-1,-1,-1,21,23,25,27,29,31,33,35,37,-1,39,41,-1,43,-1,-1,-1,45,47,-1,49,-1,51,53,55,-1,57,-1,-1,-1,-1,-1,59,-1,-1,-1,61,-1,63,-1,65,67,-1,-1,-1,-1,-1,-1,-1,-1,-1,-1,-1,-1],"loss_changes":[4.8098395E4,1.1085625E4,2.640205E3,1.216959E3,1.6623496E3,9.867969E1,1.4645386E0,8.5931055E2,3.13442E3,5.564026E2,0E0,0E0,0E0,0E0,0E0,2.4394531E0,2.2971631E2,1.4266481E3,2.3598145E1,4.7516785E0,1.1082031E1,9.140625E-1,1.7060894E1,7.053999E1,0E0,2.669901E2,5.8644226E2,0E0,4.6757812E0,0E0,0E0,0E0,7.7595665E1,5.174878E1,0E0,4.2169523E0,0E0,1.7072556E1,8.489024E0,1.7603783E2,0E0,1.1934814E0,0E0,0E0,0E0,0E0,0E0,1.51173E1,0E0,0E0,0E0,6.539459E1,0E0,3.2036266E0,0E0,1.3093585E2,1.3481445E0,0E0,0E0,0E0,0E0,0E0,0E0,0E0,0E0,0E0,0E0,0E0,0E0],"parents":[2147483647,0,0,1,1,2,2,3,3,4,4,5,5,6,6,7,7,8,8,9,9,15,15,16,16,17,17,18,18,19,19,20,20,21,21,22,22,23,23,25,25,26,26,28,28,32,32,33,33,35,35,37,37,38,38,39,39,41,41,47,47,51,51,53,53,55,55,56,56],"right_children":[2,4,6,8,10,12,14,16,18,20,-1,-1,-1,-1,-1,22,24,26,28,30,32,34,36,38,-1,40,42,-1,44,-1,-1,-1,46,48,-1,50,-1,52,54,56,-1,58,-1,-1,-1,-1,-1,60,-1,-1,-1,62,-1,64,-1,66,68,-1,-1,-1,-1,-1,-1,-1,-1,-1,-1,-1,-1],"split_conditions":[-5.2742146E-2,1.5728495E-1,2.367045E0,2.1607E0,-2.6886168E-1,3.0881488E0,3.9499495E0,-6.6900754E-1,6.258596E-2,2.1607E0,-4.749138E-2,4.7545817E-2,-4.335246E-2,-6.3570687E-3,-4.7378536E-2,-8.4833735E-1,3.0881488E0,-9.770405E-2,-2.2505283E-1,6.254697E-1,5.7672772E0,-5.0475407E-1,-1.0791393E-1,-3.7812203E-1,-4.6426173E-2,-1.187426E0,7.071098E-1,4.8173882E-2,3.4707036E0,6.2123835E-3,-4.688383E-2,4.756032E-2,-5.686453E-2,3.0881488E0,-4.7394656E-2,3.0881488E0,-4.5413755E-2,-3.5712412E-1,1.0011798E0,5.0203246E-1,4.7849517E-2,-2.1062273E-1,4.830618E-2,-4.7048293E-2,3.2478983E-3,4.678618E-2,-4.144673E-2,-1.2060426E0,-4.6899635E-2,3.0394707E-2,-2.0807456E-2,-5.0475407E-1,4.6268888E-2,-2.5228846E-1,3.1118903E-2,-3.9426035E-1,1.0048248E0,-4.70947E-2,-1.2972707E-2,-4.3035153E-2,-5.87818E-3,4.5188528E-2,-3.5581592E-2,-4.3612026E-2,4.3606884E-3,2.0925568E-2,-3.24781E-2,2.1554522E-2,4.7260456E-2],"split_indices":[9,27,11,19,32,21,11,9,8,19,0,0,0,0,0,9,21,7,16,3,27,4,7,0,0,9,15,0,17,0,0,0,7,21,0,21,0,9,0,26,0,16,0,0,0,0,0,9,0,0,0,4,0,11,0,0,15,0,0,0,0,0,0,0,0,0,0,0,0],"split_type":[0,0,0,0,0,0,0,0,0,0,0,0,0,0,0,0,0,0,0,0,0,0,0,0,0,0,0,0,0,0,0,0,0,0,0,0,0,0,0,0,0,0,0,0,0,0,0,0,0,0,0,0,0,0,0,0,0,0,0,0,0,0,0,0,0,0,0,0,0],"sum_hessian":[2.919793E4,1.6983234E4,1.2214695E4,1.5029867E4,1.9533679E3,1.1944476E4,2.7022006E2,1.1564936E4,3.464932E3,1.754478E3,1.9888995E2,1.1934444E4,1.0031414E1,1.120697E0,2.6909937E2,1.137062E4,1.9431493E2,1.2259543E3,2.2389773E3,5.966463E1,1.6948134E3,1.1344557E4,2.6064001E1,1.538218E2,4.049313E1,7.997937E2,4.261607E2,1.5900584E0,2.2373875E3,1.3311728E0,5.8333458E1,1.6244543E3,7.035903E1,1.5345045E3,9.810052E3,4.7032447E0,2.1360756E1,1.4070201E2,1.31197815E1,2.4501558E2,5.547781E2,3.5758572E2,6.857498E1,2.235848E3,1.5393791E0,6.0657555E1,9.701477E0,5.0683456E1,1.483821E3,3.376594E0,1.326651E0,4.2612602E1,9.808942E1,1.209894E1,1.0208418E0,1.6415547E2,8.086011E1,3.5575235E2,1.8333609E0,1.2476612E1,3.8206844E1,3.0880566E1,1.1732037E1,1.0890809E1,1.2081306E0,7.633457E1,8.782091E1,4.3684754E0,7.649163E1],"tree_param":{"num_deleted":"0","num_feature":"38","num_nodes":"69","size_leaf_vector":"1"}},{"base_weights":[3.139285E-4,-1.0686111E0,1.485337E0,-1.3557762E0,1.1297321E0,1.5571098E0,-4.652882E-2,-1.3917131E0,3.252024E-1,-1.5106251E0,1.4526974E0,4.67309E-2,-3.385585E-2,-1.487169E0,-8.397175E-1,1.3459542E0,-1.5187259E0,-4.5802508E-2,-4.8155054E-1,1.5406393E0,-4.594014E-2,-1.5333517E0,-1.0268432E0,1.1176203E0,-4.632041E-2,-3.534819E-2,1.4510273E0,-4.6385437E-2,-1.0082971E-3,2.6769845E-2,-3.4878075E-2,1.5572692E0,-8.189021E-1,-6.9394743E-1,-1.5352107E0,-3.242E-1,-4.6735544E-2,1.507114E0,-1.1021191E-1,-3.9266385E-2,4.653253E-2,4.673322E-2,1.308023E-2,3.374696E-2,-4.284124E-2,4.295409E-2,-4.454653E-2,-1.5384313E0,-1.1685488E0,1.3538898E0,-1.4647417E0,1.5303801E0,6.7453563E-1,-8.6836684E-1,1.3010206E0,-4.6164427E-2,5.9862603E-3,3.3546858E-2,-4.621052E-2,3.2760007E-3,4.6528388E-2,-4.5771983E-2,4.0254686E-2,4.642877E-2,2.772768E-2,4.546695E-3,3.9773118E-2,-1.0172897E-2,-4.5892797E-2,-7.127955E-3,4.375423E-2],"categories":[],"categories_nodes":[],"categories_segments":[],"categories_sizes":[],"default_left":[0,0,0,0,0,0,0,0,0,0,0,0,0,0,0,0,0,0,0,0,0,0,0,0,0,0,0,0,0,0,0,0,0,0,0,0,0,0,0,0,0,0,0,0,0,0,0,0,0,0,0,0,0,0,0,0,0,0,0,0,0,0,0,0,0,0,0,0,0,0,0],"id":11,"left_children":[1,3,5,7,9,11,-1,13,15,17,19,-1,-1,21,23,25,27,-1,29,31,-1,33,35,37,-1,-1,39,-1,-1,-1,-1,41,43,45,47,49,-1,51,53,-1,-1,-1,-1,-1,-1,-1,-1,55,57,59,61,63,65,67,69,-1,-1,-1,-1,-1,-1,-1,-1,-1,-1,-1,-1,-1,-1,-1,-1],"loss_changes":[4.568699E4,1.0566309E4,2.6275469E3,8.946426E2,1.6514607E3,2.030664E1,0E0,7.6238477E2,5.86723E2,2.7707825E0,4.5471875E2,0E0,0E0,2.6107227E2,2.950415E3,5.488272E1,4.4804077E0,0E0,5.454143E0,6.699805E1,0E0,1.6453125E1,4.209215E2,2.711225E2,0E0,0E0,5.530374E1,0E0,0E0,0E0,0E0,2.626953E-1,1.6262114E1,4.6904797E1,1.1427734E1,9.3491E2,0E0,7.3010254E0,1.481155E2,0E0,0E0,0E0,0E0,0E0,0E0,0E0,0E0,7.6972656E0,8.817569E1,4.8335876E1,5.1804626E1,2.9359741E0,4.3911834E0,3.0974838E1,1.2074684E1,0E0,0E0,0E0,0E0,0E0,0E0,0E0,0E0,0E0,0E0,0E0,0E0,0E0,0E0,0E0,0E0],"parents":[2147483647,0,0,1,1,2,2,3,3,4,4,5,5,7,7,8,8,9,9,10,10,13,13,14,14,15,15,16,16,18,18,19,19,21,21,22,22,23,23,26,26,31,31,32,32,33,33,34,34,35,35,37,37,38,38,47,47,48,48,49,49,50,50,51,51,52,52,53,53,54,54],"right_children":[2,4,6,8,10,12,-1,14,16,18,20,-1,-1,22,24,26,28,-1,30,32,-1,34,36,38,-1,-1,40,-1,-1,-1,-1,42,44,46,48,50,-1,52,54,-1,-1,-1,-1,-1,-1,-1,-1,56,58,60,62,64,66,68,70,-1,-1,-1,-1,-1,-1,-1,-1,-1,-1,-1,-1,-1,-1,-1,-1],"split_conditions":[-5.2742146E-2,1.5728495E-1,-3.9370155E-1,1.4458079E0,-1.980374E-1,9.366294E-3,-4.652882E-2,-2.4822682E-1,-2.7118373E-1,-2.1028669E-1,3.0881488E0,4.67309E-2,-3.385585E-2,-9.129094E-2,3.0881488E0,-4.6707425E-1,-9.129094E-2,-4.5802508E-2,-2.2186863E-1,-4.4469167E-2,-4.594014E-2,-4.9864858E-1,3.0881488E0,1.4678611E-1,-4.632041E-2,-3.534819E-2,-3.9370155E-1,-4.6385437E-2,-1.0082971E-3,2.6769845E-2,-3.4878075E-2,-2.6984856E-1,3.1430953E0,3.0881488E0,1.0391968E0,-9.770405E-2,-4.6735544E-2,1.7233512E0,7.233433E-2,-3.9266385E-2,4.653253E-2,4.673322E-2,1.308023E-2,3.374696E-2,-4.284124E-2,4.295409E-2,-4.454653E-2,-2.143047E-1,-2.2186866E-1,-1.2060426E0,-6.6900754E-1,-9.649336E-2,-2.2186866E-1,-1.0791393E-1,-8.1276625E-1,-4.6164427E-2,5.9862603E-3,3.3546858E-2,-4.621052E-2,3.2760007E-3,4.6528388E-2,-4.5771983E-2,4.0254686E-2,4.642877E-2,2.772768E-2,4.546695E-3,3.9773118E-2,-1.0172897E-2,-4.5892797E-2,-7.127955E-3,4.375423E-2],"split_indices":[9,27,37,3,37,8,0,2,32,37,21,0,0,36,21,15,36,0,1,36,0,3,21,2,0,0,37,0,0,0,0,32,24,21,3,7,0,37,1,0,0,0,0,0,0,0,0,1,1,9,9,36,1,7,9,0,0,0,0,0,0,0,0,0,0,0,0,0,0,0,0],"split_type":[0,0,0,0,0,0,0,0,0,0,0,0,0,0,0,0,0,0,0,0,0,0,0,0,0,0,0,0,0,0,0,0,0,0,0,0,0,0,0,0,0,0,0,0,0,0,0,0,0,0,0,0,0,0,0,0,0,0,0,0,0,0,0,0,0,0,0,0,0,0,0],"sum_hessian":[2.877941E4,1.673429E4,1.2045122E4,1.480122E4,1.9330696E3,1.1767447E4,2.7767444E2,1.4491582E4,3.0963705E2,2.1027979E2,1.7227898E3,1.1765297E4,2.1509786E0,1.2353596E4,2.137986E3,1.9948004E2,1.1015701E2,2.0655948E2,3.7203174E0,1.6739412E3,4.8848625E1,1.1225097E4,1.1284989E3,5.655782E2,1.572408E3,7.563531E0,1.9191652E2,1.0811713E2,2.0398884E0,1.1301857E0,2.5901315E0,1.6625636E3,1.137766E1,2.5632854E1,1.1199464E4,4.8644006E2,6.4205884E2,4.291997E2,1.3637845E2,6.2916117E0,1.8562491E2,1.6614261E3,1.1373765E0,2.512719E0,8.864942E0,6.7313023E0,1.8901552E1,1.1098782E4,1.0068241E2,1.9675925E2,2.8968082E2,4.167166E2,1.248312E1,8.8967316E1,4.7411137E1,1.1096451E4,2.3308768E0,1.3799657E1,8.688276E1,2.710528E1,1.6965396E2,2.8396616E2,5.7146654E0,4.036778E2,1.30388E1,7.606991E0,4.8761296E0,5.0260105E1,3.870721E1,4.354128E0,4.305701E1],"tree_param":{"num_deleted":"0","num_feature":"38","num_nodes":"71","size_leaf_vector":"1"}},{"base_weights":[1.0722115E-3,-1.0494715E0,1.4608364E0,-1.3325657E0,1.1084584E0,1.5317732E0,-4.573524E-2,-1.4844673E0,-8.3190066E-1,-1.4865645E0,1.4325675E0,4.596675E-2,-3.0548317E-2,-1.519338E0,5.1696503E-1,-1.3767962E0,1.3028892E0,-4.506325E-2,-5.234535E-1,-4.515058E-2,1.5159638E0,-1.5210444E0,-6.012995E-1,1.0520264E0,-4.486444E-2,-1.4716033E0,1.2841364E0,1.4505374E0,-6.843091E-1,2.6484998E-2,-3.5162438E-2,1.5323061E0,-8.448871E-1,-1.5251436E0,-1.4580625E0,-2.7703106E-1,-3.879138E-2,1.2192919E0,-4.2236198E-2,-1.498281E0,-9.888761E-1,4.549287E-2,-4.084086E-2,1.1479343E0,4.6073865E-2,-1.1524446E0,4.3668848E-2,4.598453E-2,1.2429525E-2,-4.2423077E-2,3.345573E-2,-4.5756828E-2,-1.501771E-2,-1.4702182E0,2.5774831E-2,-6.962236E-1,3.458116E-1,6.0011405E-1,4.463563E-2,-1.4998336E0,-9.229523E-2,-1.3737229E0,1.5734147E0,1.267475E0,-3.342713E-2,-1.2894799E0,3.439456E-2,-3.5075054E-2,-4.571836E-2,-4.408865E-3,-3.6156617E-2,2.8416524E-2,-3.110416E-2,4.2591125E-2,-3.3493537E-2,-3.6438543E-3,-4.501099E-2,3.128699E-2,-2.9699119E-2,-4.4746708E-2,3.973232E-2,4.838322E-2,1.3508028E-2,3.1067437E-2,4.534938E-2,-4.4599924E-2,-1.6441194E-2],"categories":[],"categories_nodes":[],"categories_segments":[],"categories_sizes":[],"default_left":[0,0,0,0,0,0,0,0,0,0,0,0,0,0,0,0,0,0,0,0,0,0,0,0,0,0,0,0,0,0,0,0,0,0,0,0,0,0,0,0,0,0,0,0,0,0,0,0,0,0,0,0,0,0,0,0,0,0,0,0,0,0,0,0,0,0,0,0,0,0,0,0,0,0,0,0,0,0,0,0,0,0,0,0,0,0,0],"id":12,"left_children":[1,3,5,7,9,11,-1,13,15,17,19,-1,-1,21,23,25,27,-1,29,-1,31,33,35,37,-1,39,41,43,45,-1,-1,47,49,51,53,55,-1,57,-1,59,61,-1,-1,63,-1,65,-1,-1,-1,-1,-1,-1,-1,67,-1,69,71,73,-1,75,77,79,81,83,-1,85,-1,-1,-1,-1,-1,-1,-1,-1,-1,-1,-1,-1,-1,-1,-1,-1,-1,-1,-1,-1,-1],"loss_changes":[4.362265E4,1.0106539E4,2.5233086E3,1.1109043E3,1.6160623E3,1.4958984E1,0E0,7.837207E2,3.9640786E3,2.410614E0,4.203125E2,0E0,0E0,1.6357422E1,2.0923367E2,6.8659033E2,2.0436768E2,0E0,5.528572E0,0E0,6.533008E1,6.191406E-1,4.601541E0,6.4642395E1,0E0,3.2274414E1,5.9774017E1,1.48914795E1,5.038269E1,0E0,0E0,3.0859375E-1,1.5026484E1,1.23046875E-1,2.084607E1,4.5035396E0,0E0,2.300821E1,0E0,5.2788086E0,1.4042552E2,0E0,0E0,4.0855515E1,0E0,1.4221493E1,0E0,0E0,0E0,0E0,0E0,0E0,0E0,9.410767E0,0E0,2.6439505E0,6.999015E0,6.5117874E1,0E0,1.6386719E0,4.908065E0,4.0902664E1,1.03824615E-1,6.305313E0,0E0,4.835167E0,0E0,0E0,0E0,0E0,0E0,0E0,0E0,0E0,0E0,0E0,0E0,0E0,0E0,0E0,0E0,0E0,0E0,0E0,0E0,0E0,0E0],"parents":[2147483647,0,0,1,1,2,2,3,3,4,4,5,5,7,7,8,8,9,9,10,10,13,13,14,14,15,15,16,16,18,18,20,20,21,21,22,22,23,23,25,25,26,26,27,27,28,28,31,31,32,32,33,33,34,34,35,35,37,37,39,39,40,40,43,43,45,45,53,53,55,55,56,56,57,57,59,59,60,60,61,61,62,62,63,63,65,65],"right_children":[2,4,6,8,10,12,-1,14,16,18,20,-1,-1,22,24,26,28,-1,30,-1,32,34,36,38,-1,40,42,44,46,-1,-1,48,50,52,54,56,-1,58,-1,60,62,-1,-1,64,-1,66,-1,-1,-1,-1,-1,-1,-1,68,-1,70,72,74,-1,76,78,80,82,84,-1,86,-1,-1,-1,-1,-1,-1,-1,-1,-1,-1,-1,-1,-1,-1,-1,-1,-1,-1,-1,-1,-1],"split_conditions":[-5.2742146E-2,1.5728495E-1,-3.9370155E-1,2.1607E0,-1.980374E-1,-2.2546895E-1,-4.573524E-2,-6.6900754E-1,1.0807884E0,-2.1028669E-1,2.1607E0,4.596675E-2,-3.0548317E-2,-2.5004216E-2,-3.9370155E-1,1.4458079E0,1.7233512E0,-4.506325E-2,-2.2186863E-1,-4.515058E-2,1.8079233E1,-1.8084956E-2,-3.9370155E-1,-1.7167589E-2,-4.486444E-2,8.3090293E-1,-2.2186866E-1,-1.2060426E0,-2.2186866E-1,2.6484998E-2,-3.5162438E-2,-1.8097522E-2,-1.2060426E0,8.926544E-1,-2.6958734E-1,-2.6886168E-1,-3.879138E-2,-3.5712412E-1,-4.2236198E-2,1.0256874E1,-1.187426E0,4.549287E-2,-4.084086E-2,-2.2186866E-1,4.6073865E-2,-1.7896455E-2,4.3668848E-2,4.598453E-2,1.2429525E-2,-4.2423077E-2,3.345573E-2,-4.5756828E-2,-1.501771E-2,-3.951036E-1,2.5774831E-2,3.328557E-2,-1.0791393E-1,-4.8475882E-1,4.463563E-2,-3.9396632E-1,-2.2186863E-1,4.667796E-1,-2.2546631E-1,1.0048248E0,-3.342713E-2,-1.8080767E-2,3.439456E-2,-3.5075054E-2,-4.571836E-2,-4.408865E-3,-3.6156617E-2,2.8416524E-2,-3.110416E-2,4.2591125E-2,-3.3493537E-2,-3.6438543E-3,-4.501099E-2,3.128699E-2,-2.9699119E-2,-4.4746708E-2,3.973232E-2,4.838322E-2,1.3508028E-2,3.1067437E-2,4.534938E-2,-4.4599924E-2,-1.6441194E-2],"split_indices":[9,27,37,19,37,16,0,9,37,37,19,0,0,1,37,3,37,0,1,0,25,6,37,6,0,37,1,9,1,0,0,6,9,7,32,32,0,9,0,25,9,0,0,1,0,6,0,0,0,0,0,0,0,0,0,1,7,15,0,0,1,15,16,15,0,6,0,0,0,0,0,0,0,0,0,0,0,0,0,0,0,0,0,0,0,0,0],"split_type":[0,0,0,0,0,0,0,0,0,0,0,0,0,0,0,0,0,0,0,0,0,0,0,0,0,0,0,0,0,0,0,0,0,0,0,0,0,0,0,0,0,0,0,0,0,0,0,0,0,0,0,0,0,0,0,0,0,0,0,0,0,0,0,0,0,0,0,0,0,0,0,0,0,0,0,0,0,0,0,0,0,0,0,0,0,0,0],"sum_hessian":[2.8443602E4,1.6540346E4,1.1903256E4,1.4622442E4,1.9179039E3,1.1627455E4,2.758007E2,1.12171875E4,3.4052556E3,2.1254517E2,1.7053588E3,1.1625794E4,1.660689E0,1.1025334E4,1.9185269E2,2.713103E3,6.9215234E2,2.0861858E2,3.9265888E0,4.6607067E1,1.6587517E3,1.1004224E4,2.111101E1,1.5193425E2,3.991844E1,2.6201946E3,9.290859E1,6.445338E2,4.7618587E1,1.1254427E0,2.801146E0,1.647697E3,1.1054681E1,1.0309987E4,6.9423566E2,1.5326787E1,5.784223E0,1.4273317E2,9.201079E0,2.48098E3,1.3921455E2,8.580144E1,7.107155E0,1.4485835E2,4.9967545E2,3.944993E1,8.168659E0,1.6465723E3,1.12465E0,8.782695E0,2.2719862E0,1.0308653E4,1.3349097E0,6.909765E2,3.2592082E0,9.090667E0,6.2361197E0,4.4158684E1,9.8574486E1,2.4781768E3,2.8032246E0,1.2143877E2,1.7775793E1,1.380054E2,6.852954E0,3.7645065E1,1.8048607E0,1.0808794E2,5.8288855E2,4.992241E0,4.0984263E0,4.565252E0,1.6708677E0,3.000531E1,1.4153376E1,1.0460935E0,2.4771306E3,1.1664107E0,1.6368139E0,1.1678564E2,4.65313E0,1.6752771E1,1.0230212E0,7.34704E1,6.4534996E1,2.894271E1,8.702355E0],"tree_param":{"num_deleted":"0","num_feature":"38","num_nodes":"87","size_leaf_vector":"1"}},{"base_weights":[7.419996E-5,-1.0352129E0,1.440169E0,-1.3122407E0,1.090837E0,1.5078758E0,-4.5007113E-2,-1.4620644E0,-8.1682926E-1,-1.4673002E0,1.4062508E0,4.5251682E-2,-3.1603023E-2,-1.4959166E0,4.8040077E-1,-1.3572756E0,1.2728009E0,-4.456903E-2,-2.0173183E-1,-4.448569E-2,1.4928621E0,-1.4976754E0,-4.1674197E-1,1.0296094E0,-4.4210367E-2,-1.448346E0,1.2919413E0,1.4186646E0,-6.5516806E-1,2.7571857E-2,-3.0577937E-2,1.5082515E0,-8.17231E-1,-1.4584888E0,-4.5108326E-2,-8.377192E-1,2.6371256E-1,1.2016896E0,-1.0138943E0,-1.4751366E0,-9.7952133E-1,4.4767234E-2,-3.9297648E-2,1.0903267E0,4.535095E-2,-1.0733564E0,4.2593274E-2,4.5262862E-2,1.1176616E-2,-4.150913E-2,3.249436E-2,-3.76081E-1,-4.45809E-2,-8.185481E-2,-3.907711E-2,7.479313E-1,-3.0223377E-2,6.1347735E-1,1.458835E0,3.2474242E-2,-4.054249E-2,-1.476532E0,2.0502832E-2,-1.35387E0,1.5426013E0,1.2109332E0,-3.488234E-2,-5.129265E-1,-4.4904105E-2,-4.179307E-2,3.960323E-3,-1.3005742E-2,5.145664E-3,1.21302E-2,3.296294E-2,4.186377E-2,-3.4013275E-2,4.481526E-2,2.9477842E-2,-4.4340536E-2,-3.0610536E-3,-4.4059064E-2,3.882042E-2,4.746026E-2,1.288851E-2,2.8892105E-2,4.4628926E-2,-3.9396722E-2,1.4996299E-2],"categories":[],"categories_nodes":[],"categories_segments":[],"categories_sizes":[],"default_left":[0,0,0,0,0,0,0,0,0,0,0,0,0,0,0,0,0,0,0,0,0,0,0,0,0,0,0,0,0,0,0,0,0,0,0,0,0,0,0,0,0,0,0,0,0,0,0,0,0,0,0,0,0,0,0,0,0,0,0,0,0,0,0,0,0,0,0,0,0,0,0,0,0,0,0,0,0,0,0,0,0,0,0,0,0,0,0,0,0],"id":13,"left_children":[1,3,5,7,9,11,-1,13,15,17,19,-1,-1,21,23,25,27,-1,29,-1,31,33,35,37,-1,39,41,43,45,-1,-1,47,49,51,-1,53,55,57,59,61,63,-1,-1,65,-1,67,-1,-1,-1,-1,-1,69,-1,71,-1,73,-1,75,77,-1,-1,79,-1,81,83,85,-1,87,-1,-1,-1,-1,-1,-1,-1,-1,-1,-1,-1,-1,-1,-1,-1,-1,-1,-1,-1,-1,-1],"loss_changes":[4.175506E4,9.597711E3,2.3341914E3,1.0687793E3,1.5180393E3,1.6652344E1,0E0,7.2843945E2,3.7844434E3,4.496826E0,4.208755E2,0E0,0E0,2.0021484E1,2.0576831E2,6.440503E2,1.9463354E2,0E0,4.701853E0,0E0,5.900049E1,3.3398438E-1,5.688016E0,5.366774E1,0E0,3.0881348E1,4.8330887E1,1.7921875E1,4.4155613E1,0E0,0E0,3.737793E-1,1.3771494E1,4.3018066E1,0E0,4.120346E0,5.711598E0,1.9982376E1,1.0043476E1,8.3359375E0,1.3625255E2,0E0,0E0,4.082019E1,0E0,9.071056E0,0E0,0E0,0E0,0E0,0E0,1.9618685E1,0E0,5.7763904E-1,0E0,3.2805395E-1,0E0,6.1305878E1,1.212616E-1,0E0,0E0,4.8154297E0,0E0,3.9663483E1,1.4635086E-1,8.042694E0,0E0,1.635251E1,0E0,0E0,0E0,0E0,0E0,0E0,0E0,0E0,0E0,0E0,0E0,0E0,0E0,0E0,0E0,0E0,0E0,0E0,0E0,0E0,0E0],"parents":[2147483647,0,0,1,1,2,2,3,3,4,4,5,5,7,7,8,8,9,9,10,10,13,13,14,14,15,15,16,16,18,18,20,20,21,21,22,22,23,23,25,25,26,26,27,27,28,28,31,31,32,32,33,33,35,35,36,36,37,37,38,38,39,39,40,40,43,43,45,45,51,51,53,53,55,55,57,57,58,58,61,61,63,63,64,64,65,65,67,67],"right_children":[2,4,6,8,10,12,-1,14,16,18,20,-1,-1,22,24,26,28,-1,30,-1,32,34,36,38,-1,40,42,44,46,-1,-1,48,50,52,-1,54,56,58,60,62,64,-1,-1,66,-1,68,-1,-1,-1,-1,-1,70,-1,72,-1,74,-1,76,78,-1,-1,80,-1,82,84,86,-1,88,-1,-1,-1,-1,-1,-1,-1,-1,-1,-1,-1,-1,-1,-1,-1,-1,-1,-1,-1,-1,-1],"split_conditions":[-5.2742146E-2,1.5728495E-1,-3.9370155E-1,2.1607E0,-1.980374E-1,-2.2546895E-1,-4.5007113E-2,-6.6900754E-1,1.0807884E0,-2.1028669E-1,2.1607E0,4.5251682E-2,-3.1603023E-2,-9.703036E-3,3.0881488E0,1.4458079E0,1.7233512E0,-4.456903E-2,-2.2186863E-1,-4.448569E-2,1.8079233E1,-5.0475407E-1,-2.6886168E-1,-1.5122487E-1,-4.4210367E-2,8.3090293E-1,-2.2186866E-1,-1.2060426E0,-2.2184384E-1,2.7571857E-2,-3.0577937E-2,-2.5228846E-1,-1.2060426E0,-3.9370155E-1,-4.5108326E-2,3.328557E-2,-1.0791393E-1,-3.5712412E-1,-2.4170099E-1,2.363386E0,-1.187426E0,4.4767234E-2,-3.9297648E-2,-2.2186866E-1,4.535095E-2,3.0881488E0,4.2593274E-2,4.5262862E-2,1.1176616E-2,-4.150913E-2,3.249436E-2,-2.2186866E-1,-4.45809E-2,-1.0720029E0,-3.907711E-2,-3.9522615E-1,-3.0223377E-2,-5.0475407E-1,-4.9808797E-1,3.2474242E-2,-4.054249E-2,9.830534E0,2.0502832E-2,4.3070036E-1,-2.2546637E-1,1.0048248E0,-3.488234E-2,-3.9522603E-1,-4.4904105E-2,-4.179307E-2,3.960323E-3,-1.3005742E-2,5.145664E-3,1.21302E-2,3.296294E-2,4.186377E-2,-3.4013275E-2,4.481526E-2,2.9477842E-2,-4.4340536E-2,-3.0610536E-3,-4.4059064E-2,3.882042E-2,4.746026E-2,1.288851E-2,2.8892105E-2,4.4628926E-2,-3.9396722E-2,1.4996299E-2],"split_indices":[9,27,37,19,37,16,0,9,37,37,19,0,0,1,21,3,37,0,1,0,25,4,32,14,0,37,1,9,1,0,0,11,9,37,0,1,7,9,9,14,9,0,0,1,0,21,0,0,0,0,0,1,0,9,0,0,0,4,3,0,0,25,0,14,16,15,0,0,0,0,0,0,0,0,0,0,0,0,0,0,0,0,0,0,0,0,0,0,0],"split_type":[0,0,0,0,0,0,0,0,0,0,0,0,0,0,0,0,0,0,0,0,0,0,0,0,0,0,0,0,0,0,0,0,0,0,0,0,0,0,0,0,0,0,0,0,0,0,0,0,0,0,0,0,0,0,0,0,0,0,0,0,0,0,0,0,0,0,0,0,0,0,0,0,0,0,0,0,0,0,0,0,0,0,0,0,0,0,0,0,0],"sum_hessian":[2.8004396E4,1.6292188E4,1.1712207E4,1.4414357E4,1.8778318E3,1.1449064E4,2.6314316E2,1.1065844E4,3.3485134E3,2.0571832E2,1.6721135E3,1.144718E4,1.8844613E0,1.0876523E4,1.8932007E2,2.660716E3,6.877973E2,2.0260925E2,3.1090748E0,4.8199333E1,1.6239142E3,1.0858438E4,1.8085306E1,1.4815352E2,4.1166553E1,2.5727285E3,8.798766E1,6.3966644E2,4.8130856E1,1.2589424E0,1.8501325E0,1.6135123E3,1.0401872E1,1.4607975E3,9.397641E3,1.1030155E1,7.0551515E0,1.3702666E2,1.1126851E1,2.4316287E3,1.4109988E2,8.209425E1,5.8934093E0,1.4403896E2,4.9562747E2,4.0459312E1,7.6715436E0,1.612459E3,1.0533407E0,8.22294E0,2.1789315E0,3.6610348E1,1.4241871E3,4.6481643E0,6.3819914E0,5.4070673E0,1.6480842E0,4.271138E1,9.4315285E1,1.2369509E0,9.8899E0,2.4303735E3,1.2551076E0,1.23267044E2,1.7832836E1,1.3715938E2,6.879576E0,1.8364851E1,2.2094461E1,1.1616453E1,2.4993896E1,1.6487812E0,2.999383E0,3.8192086E0,1.5878586E0,2.9645088E1,1.3066293E1,8.5866714E1,8.448566E0,2.4276736E3,2.699927E0,1.1857315E2,4.693889E0,1.6816021E1,1.0168154E0,7.471289E1,6.2446484E1,1.0092963E1,8.271888E0],"tree_param":{"num_deleted":"0","num_feature":"38","num_nodes":"89","size_leaf_vector":"1"}},{"base_weights":[-8.9788757E-4,-1.0197716E0,1.4171982E0,-1.2942427E0,1.0663438E0,1.4853816E0,-4.4337627E-2,-1.4401021E0,-8.11403E-1,-1.4450151E0,1.3827001E0,4.4576734E-2,-3.1144723E-2,-1.4735167E0,4.788448E-1,-1.3448199E0,1.2487316E0,-4.374459E-2,-5.6399655E-1,-4.3840293E-2,1.4696124E0,-1.4262561E0,-4.4424005E-2,1.017922E0,-4.3737713E-2,1.1988828E0,-1.4212829E0,1.388609E0,-6.24011E-1,1.6746772E-2,-3.3205915E-2,1.4836022E0,-1.1129344E0,-3.209086E-1,-1.4660223E0,1.2136736E0,-4.1630935E-2,4.4005338E-2,-3.962482E-2,-1.4498016E0,-9.3308634E-1,1.0429829E0,4.4670116E-2,-1.0643332E0,4.2074945E-2,4.4595495E-2,3.2765263E-1,1.1162864E-2,-4.0416352E-2,-4.1137226E-2,3.2444283E-2,-4.400412E-2,-1.86597E-2,6.6680205E-1,4.3206893E-2,-1.4519143E0,2.4559986E-2,-1.3069295E0,1.46907E0,1.1583377E0,-3.4256067E-2,-1.2242466E0,3.573138E-2,3.310757E-2,-2.7869258E-2,5.578385E-2,-4.5443075E-3,4.115438E-2,-3.0633112E-2,-3.99824E-2,-4.4180073E-2,-4.352522E-2,3.964941E-2,4.6445083E-2,7.1504014E-4,2.6579041E-2,4.3972988E-2,-4.3081302E-2,-1.8378284E-2],"categories":[],"categories_nodes":[],"categories_segments":[],"categories_sizes":[],"default_left":[0,0,0,0,0,0,0,0,0,0,0,0,0,0,0,0,0,0,0,0,0,0,0,0,0,0,0,0,0,0,0,0,0,0,0,0,0,0,0,0,0,0,0,0,0,0,0,0,0,0,0,0,0,0,0,0,0,0,0,0,0,0,0,0,0,0,0,0,0,0,0,0,0,0,0,0,0,0,0],"id":14,"left_children":[1,3,5,7,9,11,-1,13,15,17,19,-1,-1,21,23,25,27,-1,29,-1,31,33,-1,35,-1,37,39,41,43,-1,-1,45,47,49,51,53,-1,-1,-1,55,57,59,-1,61,-1,-1,63,-1,-1,-1,65,-1,-1,67,-1,69,-1,71,73,75,-1,77,-1,-1,-1,-1,-1,-1,-1,-1,-1,-1,-1,-1,-1,-1,-1,-1,-1],"loss_changes":[3.996654E4,9.217777E3,2.2850938E3,1.00066406E3,1.489355E3,1.6072266E1,0E0,7.011367E2,3.6309014E3,1.607544E0,4.1325366E2,0E0,0E0,1.5839844E0,1.9746829E2,5.120322E2,1.7893213E2,0E0,3.490552E0,0E0,5.9976562E1,6.3743164E1,0E0,7.1109375E1,0E0,5.400219E1,3.4117676E1,2.0405518E1,4.4264404E1,0E0,0E0,4.92334E0,3.7261562E0,1.934811E1,1.7822266E-2,1.599733E1,0E0,0E0,0E0,1.2716797E1,1.3071417E2,3.80643E1,0E0,1.5865219E1,0E0,0E0,6.2141533E0,0E0,0E0,0E0,1.368773E1,0E0,0E0,5.1326263E1,0E0,3.9814453E0,0E0,4.9064133E1,2.224865E0,1.0337631E1,0E0,4.0162354E0,0E0,0E0,0E0,0E0,0E0,0E0,0E0,0E0,0E0,0E0,0E0,0E0,0E0,0E0,0E0,0E0,0E0],"parents":[2147483647,0,0,1,1,2,2,3,3,4,4,5,5,7,7,8,8,9,9,10,10,13,13,14,14,15,15,16,16,18,18,20,20,21,21,23,23,25,25,26,26,27,27,28,28,31,31,32,32,33,33,34,34,35,35,39,39,40,40,41,41,43,43,46,46,50,50,53,53,55,55,57,57,58,58,59,59,61,61],"right_children":[2,4,6,8,10,12,-1,14,16,18,20,-1,-1,22,24,26,28,-1,30,-1,32,34,-1,36,-1,38,40,42,44,-1,-1,46,48,50,52,54,-1,-1,-1,56,58,60,-1,62,-1,-1,64,-1,-1,-1,66,-1,-1,68,-1,70,-1,72,74,76,-1,78,-1,-1,-1,-1,-1,-1,-1,-1,-1,-1,-1,-1,-1,-1,-1,-1,-1],"split_conditions":[-5.2742146E-2,1.338186E-1,-3.9370155E-1,2.1607E0,-1.980374E-1,9.366294E-3,-4.4337627E-2,-6.6900754E-1,1.0807884E0,-2.1028669E-1,2.1607E0,4.4576734E-2,-3.1144723E-2,-5.0475407E-1,3.0881488E0,-3.0580062E-1,1.7233512E0,-4.374459E-2,1.2633392E-1,-4.3840293E-2,-1.8097522E-2,-3.9370155E-1,-4.4424005E-2,-1.7167589E-2,-4.3737713E-2,-1.1520544E0,8.3090293E-1,-1.2060426E0,-1.2060426E0,1.6746772E-2,-3.3205915E-2,-4.4469167E-2,-5.686453E-2,-1.2060426E0,9.7212516E-2,-3.5712412E-1,-4.1630935E-2,4.4005338E-2,-3.962482E-2,2.363386E0,-1.187426E0,-1.588398E-1,4.4670116E-2,-1.7896455E-2,4.2074945E-2,4.4595495E-2,3.1430953E0,1.1162864E-2,-4.0416352E-2,-4.1137226E-2,-1.1166828E0,-4.400412E-2,-1.86597E-2,-5.0475407E-1,4.3206893E-2,9.8065734E-2,2.4559986E-2,4.3070036E-1,-2.2681305E-1,1.0048248E0,-3.4256067E-2,-1.8089145E-2,3.573138E-2,3.310757E-2,-2.7869258E-2,5.578385E-2,-4.5443075E-3,4.115438E-2,-3.0633112E-2,-3.99824E-2,-4.4180073E-2,-4.352522E-2,3.964941E-2,4.6445083E-2,7.1504014E-4,2.6579041E-2,4.3972988E-2,-4.3081302E-2,-1.8378284E-2],"split_indices":[9,27,37,19,37,8,0,9,37,37,19,0,0,4,21,2,37,0,12,0,6,37,0,6,0,9,37,9,9,0,0,36,7,9,0,9,0,0,0,14,9,29,0,6,0,0,24,0,0,0,9,0,0,4,0,8,0,14,17,15,0,6,0,0,0,0,0,0,0,0,0,0,0,0,0,0,0,0,0],"split_type":[0,0,0,0,0,0,0,0,0,0,0,0,0,0,0,0,0,0,0,0,0,0,0,0,0,0,0,0,0,0,0,0,0,0,0,0,0,0,0,0,0,0,0,0,0,0,0,0,0,0,0,0,0,0,0,0,0,0,0,0,0,0,0,0,0,0,0,0,0,0,0,0,0,0,0,0,0,0,0],"sum_hessian":[2.7659172E4,1.6095301E4,1.1563871E4,1.4224196E4,1.8711041E3,1.12982705E4,2.656009E2,1.0922633E4,3.3015637E3,2.0893434E2,1.6621697E3,1.1296401E4,1.8697627E0,1.0735921E4,1.8671217E2,2.6228054E3,6.787583E2,2.05219E2,3.715345E0,4.8819786E1,1.61335E3,1.4598759E3,9.276045E3,1.4642961E2,4.0282574E1,7.6111694E1,2.5466936E3,6.31825E2,4.6933273E1,1.2020859E0,2.5132592E0,1.6050807E3,8.269274E0,5.101198E1,1.4088639E3,1.3586906E2,1.0560534E1,6.917323E1,6.938465E0,2.4042751E3,1.4241867E2,1.4478099E2,4.87044E2,3.8945866E1,7.987407E0,1.600759E3,4.3216763E0,1.0466349E0,7.2226386E0,1.2116208E1,3.889577E1,1.4068231E3,2.0407686E0,4.0954494E1,9.491457E1,2.4023975E3,1.8774855E0,1.2363371E2,1.878495E1,1.3796652E2,6.8144584E0,3.679423E1,2.1516368E0,2.7471654E0,1.5745109E0,2.7242088E0,3.6171562E1,2.9020412E1,1.1934082E1,3.6602353E2,2.036374E3,1.1764107E2,5.992649E0,1.774265E1,1.0423005E0,7.52128E1,6.275373E1,2.6329147E1,1.0465083E1],"tree_param":{"num_deleted":"0","num_feature":"38","num_nodes":"79","size_leaf_vector":"1"}},{"base_weights":[-1.2664256E-3,-1.0050597E0,1.3962935E0,-1.2739438E0,1.0466654E0,1.464041E0,-4.3735377E-2,-1.4196008E0,-7.9410744E-1,-1.4289807E0,1.3659273E0,4.3938357E-2,-3.194468E-2,-1.4518462E0,4.994261E-1,-1.3166884E0,1.2275531E0,-4.3322526E-2,-4.426909E-1,-4.316739E-2,1.4483316E0,-1.4534419E0,-5.760359E-1,1.0492125E0,-4.3103475E-2,-1.4057832E0,1.2155248E0,1.3735875E0,-6.524563E-1,2.5646718E-2,-3.294728E-2,1.4612874E0,-9.6628153E-1,-4.371979E-2,-1.3931712E0,-3.1106478E-1,-3.5748035E-2,1.22245E0,-4.0409222E-2,-1.4318227E0,-9.651554E-1,4.3501854E-2,-3.919274E-2,1.0500762E0,4.401821E-2,-1.0709624E0,4.127298E-2,4.3949515E-2,8.554613E-1,2.423672E-2,-3.9623566E-2,-1.4212767E0,-1.7023142E-1,-7.092062E-1,2.491708E-1,7.221175E-1,4.307429E-2,-1.4331154E0,1.870527E-2,-1.3108759E0,1.4430096E0,1.1705521E0,-3.488987E-2,-1.234742E0,3.5884496E-2,-2.5709024E-2,3.9892226E-2,-3.5368226E-2,-4.36911E-2,2.8592112E-2,-3.809855E-2,-6.12017E-3,-3.5518356E-2,2.3318177E-2,-2.9784592E-2,4.148867E-2,-2.8421625E-2,-3.9851703E-2,-4.3535143E-2,-4.27029E-2,3.72912E-2,4.568942E-2,3.5880774E-3,2.765757E-2,4.3341808E-2,-4.266832E-2,-1.707395E-2],"categories":[],"categories_nodes":[],"categories_segments":[],"categories_sizes":[],"default_left":[0,0,0,0,0,0,0,0,0,0,0,0,0,0,0,0,0,0,0,0,0,0,0,0,0,0,0,0,0,0,0,0,0,0,0,0,0,0,0,0,0,0,0,0,0,0,0,0,0,0,0,0,0,0,0,0,0,0,0,0,0,0,0,0,0,0,0,0,0,0,0,0,0,0,0,0,0,0,0,0,0,0,0,0,0,0,0],"id":15,"left_children":[1,3,5,7,9,11,-1,13,15,17,19,-1,-1,21,23,25,27,-1,29,-1,31,33,35,37,-1,39,41,43,45,-1,-1,47,49,-1,51,53,-1,55,-1,57,59,-1,-1,61,-1,63,-1,-1,65,-1,-1,67,69,71,73,75,-1,77,-1,79,81,83,-1,85,-1,-1,-1,-1,-1,-1,-1,-1,-1,-1,-1,-1,-1,-1,-1,-1,-1,-1,-1,-1,-1,-1,-1],"loss_changes":[3.8159145E4,8.734719E3,2.200705E3,9.771328E2,1.4521494E3,1.7597656E1,0E0,6.650762E2,3.4475127E3,2.4901733E0,3.7784082E2,0E0,0E0,1.3919922E1,1.9116188E2,5.8653076E2,1.8496759E2,0E0,4.8608036E0,0E0,5.0833984E1,4.3554688E-1,3.0314145E0,5.94877E1,0E0,2.7355469E1,5.43255E1,1.7324951E1,4.3068794E1,0E0,0E0,2.2668457E0,6.7486153E0,0E0,2.24729E1,3.7309837E0,0E0,1.2890839E1,0E0,7.1708984E0,1.20796844E2,0E0,0E0,3.9567093E1,0E0,1.6768826E1,0E0,0E0,1.083334E1,0E0,0E0,3.775879E0,2.0954239E1,2.0548878E0,5.598955E0,4.6561783E1,0E0,2.538086E0,0E0,3.7820282E1,1.7657928E0,7.966034E0,0E0,4.046402E0,0E0,0E0,0E0,0E0,0E0,0E0,0E0,0E0,0E0,0E0,0E0,0E0,0E0,0E0,0E0,0E0,0E0,0E0,0E0,0E0,0E0,0E0,0E0],"parents":[2147483647,0,0,1,1,2,2,3,3,4,4,5,5,7,7,8,8,9,9,10,10,13,13,14,14,15,15,16,16,18,18,20,20,21,21,22,22,23,23,25,25,26,26,27,27,28,28,31,31,32,32,34,34,35,35,37,37,39,39,40,40,43,43,45,45,48,48,51,51,52,52,53,53,54,54,55,55,57,57,59,59,60,60,61,61,63,63],"right_children":[2,4,6,8,10,12,-1,14,16,18,20,-1,-1,22,24,26,28,-1,30,-1,32,34,36,38,-1,40,42,44,46,-1,-1,48,50,-1,52,54,-1,56,-1,58,60,-1,-1,62,-1,64,-1,-1,66,-1,-1,68,70,72,74,76,-1,78,-1,80,82,84,-1,86,-1,-1,-1,-1,-1,-1,-1,-1,-1,-1,-1,-1,-1,-1,-1,-1,-1,-1,-1,-1,-1,-1,-1],"split_conditions":[-5.2742146E-2,1.5728495E-1,-3.9370155E-1,2.1607E0,-1.980374E-1,9.366294E-3,-4.3735377E-2,-6.6900754E-1,1.0807884E0,-2.1028669E-1,2.1607E0,4.3938357E-2,-3.194468E-2,-2.5004216E-2,3.0881488E0,1.4458079E0,1.7233512E0,-4.3322526E-2,-2.2186863E-1,-4.316739E-2,-1.8097522E-2,-1.8080767E-2,3.0881488E0,-1.7104756E-2,-4.3103475E-2,8.3090293E-1,-2.2186866E-1,-1.2060426E0,-2.2186866E-1,2.5646718E-2,-3.294728E-2,6.632809E0,-6.196947E-2,-4.371979E-2,-2.21009E-1,-2.6886168E-1,-3.5748035E-2,-3.5712412E-1,-4.0409222E-2,2.363386E0,-1.187426E0,4.3501854E-2,-3.919274E-2,-2.2186866E-1,4.401821E-2,-1.7896455E-2,4.127298E-2,4.3949515E-2,-1.2060426E0,2.423672E-2,-3.9623566E-2,-3.951036E-1,3.0881488E0,3.328557E-2,-1.0791393E-1,-5.0475407E-1,4.307429E-2,9.8065734E-2,1.870527E-2,4.3070036E-1,-2.218675E-1,1.0048248E0,-3.488987E-2,-1.8084956E-2,3.5884496E-2,-2.5709024E-2,3.9892226E-2,-3.5368226E-2,-4.36911E-2,2.8592112E-2,-3.809855E-2,-6.12017E-3,-3.5518356E-2,2.3318177E-2,-2.9784592E-2,4.148867E-2,-2.8421625E-2,-3.9851703E-2,-4.3535143E-2,-4.27029E-2,3.72912E-2,4.568942E-2,3.5880774E-3,2.765757E-2,4.3341808E-2,-4.266832E-2,-1.707395E-2],"split_indices":[28,27,37,19,37,8,0,28,37,37,19,0,0,1,21,3,37,0,1,0,6,6,21,6,0,37,1,28,1,0,0,24,7,0,1,32,0,28,0,14,28,0,0,1,0,6,0,0,28,0,0,0,21,1,7,4,0,8,0,14,1,15,0,6,0,0,0,0,0,0,0,0,0,0,0,0,0,0,0,0,0,0,0,0,0,0,0],"split_type":[0,0,0,0,0,0,0,0,0,0,0,0,0,0,0,0,0,0,0,0,0,0,0,0,0,0,0,0,0,0,0,0,0,0,0,0,0,0,0,0,0,0,0,0,0,0,0,0,0,0,0,0,0,0,0,0,0,0,0,0,0,0,0,0,0,0,0,0,0,0,0,0,0,0,0,0,0,0,0,0,0,0,0,0,0,0,0],"sum_hessian":[2.7198941E4,1.5829635E4,1.1369307E4,1.3995823E4,1.8338113E3,1.1106171E4,2.631353E2,1.0735149E4,3.2606733E3,2.0907896E2,1.6247323E3,1.1104085E4,2.0863597E0,1.0557987E4,1.7716272E2,2.591216E3,6.694572E2,2.0546835E2,3.6106043E0,4.5901333E1,1.578831E3,1.0538129E4,1.9857958E1,1.3833937E2,3.8823353E1,2.503574E3,8.764231E1,6.214536E2,4.8003593E1,1.109806E0,2.5007982E0,1.5707976E3,8.033399E0,9.878263E3,6.598666E2,1.4934646E1,4.9233127E0,1.2946896E2,8.870405E0,2.3617537E3,1.418202E2,8.057408E1,7.068229E0,1.4229564E2,4.7915796E2,4.0183952E1,7.819641E0,1.5598619E3,1.0935673E1,1.1248704E0,6.908529E0,6.448837E2,1.498284E1,8.574861E0,6.359785E0,4.001578E1,8.9453186E1,2.3605718E3,1.1819842E0,1.2441467E2,1.7405539E1,1.3539598E2,6.899651E0,3.790127E1,2.2826781E0,2.1968536E0,8.738819E0,8.595038E1,5.5893335E2,7.4779205E0,7.504919E0,4.846794E0,3.7280667E0,4.724901E0,1.6348841E0,2.879108E1,1.1224702E1,3.5811005E2,2.0024615E3,1.1958698E2,4.8276906E0,1.6271479E1,1.1340593E0,7.3293205E1,6.2102776E1,2.8683046E1,9.218227E0],"tree_param":{"num_deleted":"0","num_feature":"38","num_nodes":"87","size_leaf_vector":"1"}},{"base_weights":[-1.2650178E-3,-9.916035E-1,1.3781714E0,-1.2565085E0,1.0473467E0,1.4420805E0,-1.4357033E0,-1.2896501E0,3.0533734E-1,1.3393027E0,-4.329945E-2,4.3338727E-2,-3.8619503E-2,-1.3739497E-2,-4.3183215E-2,-7.611088E-1,-1.3767973E0,1.2374334E0,-1.3968468E0,1.4063765E0,-8.067029E-1,1.0202792E0,-4.305588E-2,-1.4218045E0,-9.811747E-1,1.3574862E0,-6.7620784E-1,-4.2945478E-2,2.5504015E-2,1.4257094E0,-1.125645E0,7.0687324E-1,-1.177328E0,1.3896096E0,-9.0060495E-2,-1.4238656E0,-9.179372E-1,-2.6651934E-1,-4.3293756E-2,1.3991898E0,-6.137911E-1,-9.552301E-1,4.0822718E-1,2.2565616E-2,-2.3474766E-2,1.4333398E0,-3.5010803E-2,5.277376E-3,-3.9940726E-2,3.8187087E-2,-2.9656887E-2,-3.956706E-2,7.494282E-1,1.0503561E0,4.3649163E-2,-7.977691E-1,1.2126997E0,-1.3863592E0,-4.324685E-2,1.3486325E0,-4.231015E-2,1.2139522E0,-1.3537171E0,4.2494178E-2,6.1304194E-1,6.3660718E-3,-2.9733734E-2,-1.0576133E0,-5.1407693E-3,-4.165515E-3,2.2367796E-2,1.4394907E0,-9.1036993E-1,3.2198295E-2,2.5695574E-4,-1.16167385E-2,3.9272245E-2,-8.925911E-3,-4.2765968E-2,-1.3706594E-2,3.99748E-2,-4.1901466E-2,3.8559318E-2,4.5380984E-2,3.5012737E-3,4.0335204E-3,4.159517E-2,-4.2370126E-2,3.79425E-2,2.8752547E-2,-9.448825E-3,-9.442174E-3,-3.4097172E-2,4.3233063E-2,-2.9266204E-3,-9.267136E-3,-3.1185228E-2],"categories":[],"categories_nodes":[],"categories_segments":[],"categories_sizes":[],"default_left":[0,0,0,0,0,0,0,0,0,0,0,0,0,0,0,0,0,0,0,0,0,0,0,0,0,0,0,0,0,0,0,0,0,0,0,0,0,0,0,0,0,0,0,0,0,0,0,0,0,0,0,0,0,0,0,0,0,0,0,0,0,0,0,0,0,0,0,0,0,0,0,0,0,0,0,0,0,0,0,0,0,0,0,0,0,0,0,0,0,0,0,0,0,0,0,0,0],"id":16,"left_children":[1,3,5,7,9,11,13,15,17,19,-1,-1,-1,-1,-1,21,23,25,27,29,31,33,-1,35,37,39,41,-1,43,45,47,49,51,53,55,57,59,61,-1,63,65,67,69,-1,-1,71,-1,-1,-1,-1,-1,-1,73,75,-1,77,79,81,-1,83,-1,85,87,-1,89,-1,-1,91,-1,-1,-1,93,95,-1,-1,-1,-1,-1,-1,-1,-1,-1,-1,-1,-1,-1,-1,-1,-1,-1,-1,-1,-1,-1,-1,-1,-1],"loss_changes":[3.6506293E4,8.403143E3,2.0103574E3,7.1300586E2,1.3029298E3,7.7677734E1,2.487793E-1,6.1991016E2,4.5687555E2,2.3171924E2,0E0,0E0,0E0,0E0,0E0,2.2955303E3,2.0465039E2,4.3625275E1,5.065033E0,7.76626E1,2.842458E1,2.1543622E2,0E0,9.480469E0,3.908932E2,1.5266357E1,3.9123888E0,0E0,2.5901554E0,3.218799E1,3.53615E0,1.11429E1,1.1868736E1,7.209656E0,1.2266048E2,4.8652344E0,5.2271473E1,7.525905E2,0E0,1.4676208E0,1.5585881E0,5.858784E-1,6.725235E-1,0E0,0E0,2.3486572E1,0E0,0E0,0E0,0E0,0E0,0E0,7.988502E-1,2.5519875E1,0E0,2.6624111E1,9.98098E0,9.426172E1,0E0,1.55478E0,0E0,3.6709198E1,4.3150116E1,0E0,2.0523133E0,0E0,0E0,1.2682915E-1,0E0,0E0,0E0,3.9416504E0,3.922534E-2,0E0,0E0,0E0,0E0,0E0,0E0,0E0,0E0,0E0,0E0,0E0,0E0,0E0,0E0,0E0,0E0,0E0,0E0,0E0,0E0,0E0,0E0,0E0,0E0],"parents":[2147483647,0,0,1,1,2,2,3,3,4,4,5,5,6,6,7,7,8,8,9,9,15,15,16,16,17,17,18,18,19,19,20,20,21,21,23,23,24,24,25,25,26,26,28,28,29,29,30,30,31,31,32,32,33,33,34,34,35,35,36,36,37,37,39,39,40,40,41,41,42,42,45,45,52,52,53,53,55,55,56,56,57,57,59,59,61,61,62,62,64,64,67,67,71,71,72,72],"right_children":[2,4,6,8,10,12,14,16,18,20,-1,-1,-1,-1,-1,22,24,26,28,30,32,34,-1,36,38,40,42,-1,44,46,48,50,52,54,56,58,60,62,-1,64,66,68,70,-1,-1,72,-1,-1,-1,-1,-1,-1,74,76,-1,78,80,82,-1,84,-1,86,88,-1,90,-1,-1,92,-1,-1,-1,94,96,-1,-1,-1,-1,-1,-1,-1,-1,-1,-1,-1,-1,-1,-1,-1,-1,-1,-1,-1,-1,-1,-1,-1,-1],"split_conditions":[-5.2742146E-2,1.5728495E-1,2.367045E0,1.4458079E0,-2.6886168E-1,3.0881488E0,4.4633703E0,-4.9865052E-1,-2.7118373E-1,3.531697E0,-4.329945E-2,4.3338727E-2,-3.8619503E-2,-1.3739497E-2,-4.3183215E-2,3.0881488E0,-1.1210058E-1,-1.8097522E-2,-9.129094E-2,-1.8097522E-2,-1.810171E-2,1.4678611E-1,-4.305588E-2,1.1515368E0,3.0881488E0,7.008671E0,-1.0457601E-1,-4.2945478E-2,-3.058011E-1,3.0881488E0,2.207339E0,-3.0580083E-1,-2.611348E-2,-2.611348E-2,7.233433E-2,-1.1520544E0,-2.2186866E-1,-8.608852E-2,-4.3293756E-2,-1.0410131E-1,-1.0443794E-1,-2.7280915E-1,-1.8093333E-2,2.2565616E-2,-2.3474766E-2,-4.4469167E-2,-3.5010803E-2,5.277376E-3,-3.9940726E-2,3.8187087E-2,-2.9656887E-2,-3.956706E-2,1.2404684E0,-2.2186866E-1,4.3649163E-2,-1.0791393E-1,-8.4833735E-1,9.8939544E-1,-4.324685E-2,-3.0580038E-1,-4.231015E-2,-1.2060426E0,-2.5228846E-1,4.2494178E-2,3.416552E0,6.3660718E-3,-2.9733734E-2,4.3081813E0,-5.1407693E-3,-4.165515E-3,2.2367796E-2,3.885518E0,2.12673E0,3.2198295E-2,2.5695574E-4,-1.16167385E-2,3.9272245E-2,-8.925911E-3,-4.2765968E-2,-1.3706594E-2,3.99748E-2,-4.1901466E-2,3.8559318E-2,4.5380984E-2,3.5012737E-3,4.0335204E-3,4.159517E-2,-4.2370126E-2,3.79425E-2,2.8752547E-2,-9.448825E-3,-9.442174E-3,-3.4097172E-2,4.3233063E-2,-2.9266204E-3,-9.267136E-3,-3.1185228E-2],"split_indices":[9,27,11,3,32,21,11,3,32,0,0,0,0,0,0,21,36,6,36,6,6,2,0,3,21,26,24,0,2,21,0,2,8,8,1,9,1,36,0,24,24,32,6,0,0,36,0,0,0,0,0,0,17,1,0,7,9,26,0,2,0,9,11,0,26,0,0,3,0,0,0,26,4,0,0,0,0,0,0,0,0,0,0,0,0,0,0,0,0,0,0,0,0,0,0,0,0],"split_type":[0,0,0,0,0,0,0,0,0,0,0,0,0,0,0,0,0,0,0,0,0,0,0,0,0,0,0,0,0,0,0,0,0,0,0,0,0,0,0,0,0,0,0,0,0,0,0,0,0,0,0,0,0,0,0,0,0,0,0,0,0,0,0,0,0,0,0,0,0,0,0,0,0,0,0,0,0,0,0,0,0,0,0,0,0,0,0,0,0,0,0,0,0,0,0,0,0],"sum_hessian":[2.6720826E4,1.5554248E4,1.1166577E4,1.3766108E4,1.7881398E3,1.0919069E4,2.475078E2,1.3480239E4,2.8586963E2,1.6009396E3,1.8720021E2,1.0909373E4,9.696799E0,1.4129089E0,2.460949E2,1.9094305E3,1.1570809E4,1.8489584E2,1.0097377E2,1.5527526E3,4.8186928E1,5.240438E2,1.3853867E3,1.03866045E4,1.1842041E3,1.7425456E2,1.0641285E1,9.856484E1,2.408924E0,1.5414203E3,1.1332358E1,9.29998E0,3.8886948E1,3.9305206E2,1.3099173E2,1.0342473E4,4.4131428E1,4.655528E2,7.186513E2,1.7092868E2,3.3258824E0,8.558381E0,2.082904E0,1.3046441E0,1.10428E0,1.537343E3,4.0772843E0,1.5664138E0,9.765945E0,7.159098E0,2.1408823E0,3.651908E1,2.3678663E0,6.625198E1,3.2680008E2,8.5132286E1,4.585945E1,3.3408896E3,7.0015835E3,7.5659122E0,3.6565514E1,1.9707414E2,2.6847867E2,1.6646724E2,4.4614444E0,1.1801429E0,2.1457396E0,7.260812E0,1.297569E0,1.0189643E0,1.0639398E0,1.5337037E3,3.6391869E0,1.3354332E0,1.032433E0,1.0028962E1,5.6223022E1,4.819868E1,3.6933605E1,2.881773E0,4.2977676E1,3.3284646E3,1.2425159E1,6.47558E0,1.0903318E0,2.7405207E1,1.6966893E2,2.630503E2,5.4283667E0,3.227489E0,1.2339551E0,1.1766454E0,6.0841665E0,1.5321599E3,1.5439134E0,1.2428067E0,2.3963802E0],"tree_param":{"num_deleted":"0","num_feature":"38","num_nodes":"97","size_leaf_vector":"1"}},{"base_weights":[-9.3399745E-4,-9.736015E-1,1.3579696E0,-1.2374138E0,1.0292746E0,1.4252871E0,-4.2575374E-2,-1.3795472E0,-7.721706E-1,-1.387486E0,1.3290563E0,4.2775545E-2,-3.0882357E-2,-1.4123367E0,4.8823273E-1,-1.2806542E0,1.2065526E0,-4.205914E-2,-3.4232062E-1,-4.201316E-2,1.40898E0,-1.4140399E0,-5.254179E-1,1.010632E0,-4.1724525E-2,1.1849439E0,-1.3600917E0,1.2872901E0,-4.2069133E-2,2.3996241E-2,-2.9958947E-2,1.4256477E0,-8.506033E-1,-1.3939348E0,-4.2799484E-2,-2.7211195E-1,-3.441858E-2,1.1823192E0,-3.980154E-2,4.2287525E-2,-3.754655E-2,-1.3889033E0,-8.6425436E-1,-3.1653605E-2,1.316394E0,4.278374E-2,1.109704E-2,-3.9786622E-2,2.9926008E-2,-4.200219E-2,-9.652863E-1,-6.123571E-1,2.0052642E-1,6.9069505E-1,1.3894837E0,-1.3905902E0,2.9446498E-2,-1.2381107E0,1.4217206E0,9.4905347E-1,4.2940784E-2,-3.4046263E-2,1.5703337E-2,-3.7140865E-3,-3.293498E-2,2.2635227E-2,-3.0018872E-2,4.1361157E-2,-2.9370068E-2,4.1879833E-2,1.2497196E-2,-3.8080256E-2,-4.23534E-2,-4.12058E-2,4.098452E-2,4.494709E-2,6.059687E-4,3.2273326E-2,-3.3764515E-2],"categories":[],"categories_nodes":[],"categories_segments":[],"categories_sizes":[],"default_left":[0,0,0,0,0,0,0,0,0,0,0,0,0,0,0,0,0,0,0,0,0,0,0,0,0,0,0,0,0,0,0,0,0,0,0,0,0,0,0,0,0,0,0,0,0,0,0,0,0,0,0,0,0,0,0,0,0,0,0,0,0,0,0,0,0,0,0,0,0,0,0,0,0,0,0,0,0,0,0],"id":17,"left_children":[1,3,5,7,9,11,-1,13,15,17,19,-1,-1,21,23,25,27,-1,29,-1,31,33,35,37,-1,39,41,43,-1,-1,-1,45,47,49,-1,51,-1,53,-1,-1,-1,55,57,-1,59,-1,-1,-1,-1,-1,61,63,65,67,69,71,-1,73,75,77,-1,-1,-1,-1,-1,-1,-1,-1,-1,-1,-1,-1,-1,-1,-1,-1,-1,-1,-1],"loss_changes":[3.4739074E4,8.0951055E3,2.0518066E3,8.940078E2,1.293896E3,1.6300781E1,0E0,6.3559766E2,3.1908337E3,2.507019E0,3.4819653E2,0E0,0E0,1.4646484E1,1.7770178E2,4.9562256E2,1.384104E2,0E0,3.8123302E0,0E0,5.9303955E1,5.8984375E-1,3.0143776E0,5.8194427E1,0E0,4.5146347E1,3.3713867E1,4.431079E1,0E0,0E0,0E0,2.434082E-1,1.1801286E1,9.076172E0,0E0,2.7467184E0,0E0,1.2482193E1,0E0,0E0,0E0,1.059375E1,1.18725586E2,0E0,2.4922974E1,0E0,0E0,0E0,0E0,0E0,1.5532047E1,2.1727436E0,5.8007755E0,4.8582474E1,3.8146973E-4,4.135254E0,0E0,4.354628E1,2.0825768E0,4.0988632E1,0E0,0E0,0E0,0E0,0E0,0E0,0E0,0E0,0E0,0E0,0E0,0E0,0E0,0E0,0E0,0E0,0E0,0E0,0E0],"parents":[2147483647,0,0,1,1,2,2,3,3,4,4,5,5,7,7,8,8,9,9,10,10,13,13,14,14,15,15,16,16,18,18,20,20,21,21,22,22,23,23,25,25,26,26,27,27,31,31,32,32,33,33,35,35,37,37,41,41,42,42,44,44,50,50,51,51,52,52,53,53,54,54,55,55,57,57,58,58,59,59],"right_children":[2,4,6,8,10,12,-1,14,16,18,20,-1,-1,22,24,26,28,-1,30,-1,32,34,36,38,-1,40,42,44,-1,-1,-1,46,48,50,-1,52,-1,54,-1,-1,-1,56,58,-1,60,-1,-1,-1,-1,-1,62,64,66,68,70,72,-1,74,76,78,-1,-1,-1,-1,-1,-1,-1,-1,-1,-1,-1,-1,-1,-1,-1,-1,-1,-1,-1],"split_conditions":[-5.2742146E-2,1.5728495E-1,-3.9370155E-1,2.1607E0,-1.980374E-1,9.366294E-3,-4.2575374E-2,-6.6900754E-1,1.0807884E0,-2.1028669E-1,2.1607E0,4.2775545E-2,-3.0882357E-2,-2.5004216E-2,3.0881488E0,-3.0580062E-1,3.0881488E0,-4.205914E-2,-2.2186863E-1,-4.201316E-2,1.8079233E1,-1.52895795E-2,3.0881488E0,-1.7104756E-2,-4.1724525E-2,-2.2186866E-1,8.3090293E-1,-3.9522612E-1,-4.2069133E-2,2.3996241E-2,-2.9958947E-2,-3.0579957E-1,-2.611348E-2,-1.0868962E0,-4.2799484E-2,-2.6886168E-1,-3.441858E-2,-3.5712412E-1,-3.980154E-2,4.2287525E-2,-3.754655E-2,3.4707036E0,-1.187426E0,-3.1653605E-2,-1.2060426E0,4.278374E-2,1.109704E-2,-3.9786622E-2,2.9926008E-2,-4.200219E-2,-1.8026311E-2,3.328557E-2,-1.0791393E-1,-5.0475407E-1,-2.547856E-1,9.8065734E-2,2.9446498E-2,4.667796E-1,-2.2546625E-1,-2.2186866E-1,4.2940784E-2,-3.4046263E-2,1.5703337E-2,-3.7140865E-3,-3.293498E-2,2.2635227E-2,-3.0018872E-2,4.1361157E-2,-2.9370068E-2,4.1879833E-2,1.2497196E-2,-3.8080256E-2,-4.23534E-2,-4.12058E-2,4.098452E-2,4.494709E-2,6.059687E-4,3.2273326E-2,-3.3764515E-2],"split_indices":[9,27,37,19,37,8,0,9,37,37,19,0,0,1,21,2,21,0,1,0,25,33,21,6,0,1,37,0,0,0,0,2,8,9,0,32,0,9,0,0,0,17,9,0,9,0,0,0,0,0,6,1,7,4,0,8,0,15,16,1,0,0,0,0,0,0,0,0,0,0,0,0,0,0,0,0,0,0,0],"split_type":[0,0,0,0,0,0,0,0,0,0,0,0,0,0,0,0,0,0,0,0,0,0,0,0,0,0,0,0,0,0,0,0,0,0,0,0,0,0,0,0,0,0,0,0,0,0,0,0,0,0,0,0,0,0,0,0,0,0,0,0,0,0,0,0,0,0,0,0,0,0,0,0,0,0,0,0,0,0,0],"sum_hessian":[2.628041E4,1.5317109E4,1.09633E4,1.353474E4,1.7823693E3,1.0704316E4,2.5898346E2,1.036594E4,3.1687996E3,1.9629141E2,1.5860778E3,1.0702274E4,2.0418591E0,1.0187343E4,1.7859814E2,2.521252E3,6.475475E2,1.932714E2,3.0200214E0,4.4651516E1,1.5414263E3,1.0167225E4,2.0117994E1,1.4010841E2,3.8489727E1,7.826074E1,2.4429912E3,6.2860046E2,1.8947018E1,1.0222425E0,1.997779E0,1.5305056E3,1.0920661E1,3.9618716E3,6.205353E3,1.5316632E1,4.801362E0,1.3098149E2,9.12692E0,7.204024E1,6.2205024E0,2.30713E3,1.358614E2,7.2817044E0,6.213188E2,1.529464E3,1.0417035E0,8.910061E0,2.0106003E0,3.9037046E3,5.81668E1,8.733735E0,6.5828967E0,4.0115948E1,9.0865555E1,2.3059023E3,1.2275692E0,1.1715918E2,1.870223E1,1.5030766E2,4.710111E2,5.2431717E1,5.7350817E0,4.9785886E0,3.7551463E0,4.7595897E0,1.823307E0,2.8533005E1,1.1582942E1,8.9829544E1,1.0360106E0,3.5209915E2,1.9538031E3,1.118175E2,5.341685E0,1.766861E1,1.0336204E0,1.4210834E2,8.199319E0],"tree_param":{"num_deleted":"0","num_feature":"38","num_nodes":"79","size_leaf_vector":"1"}},{"base_weights":[-1.6021462E-3,-9.6430206E-1,1.3422086E0,-1.2220622E0,1.0147035E0,1.4055247E0,-1.398096E0,-1.3624752E0,-7.6209944E-1,1.2930952E0,-4.2204637E-2,1.407899E0,-3.7317805E-2,-1.5610746E-2,-4.205174E-2,-1.3944424E0,5.009094E-1,3.6180025E-1,-1.3831608E0,-1.3427356E0,1.3921734E0,4.2240303E-2,7.071076E-3,-1.3959762E0,-4.182029E-1,9.314521E-1,-4.094478E-2,1.0595167E0,-9.301063E-1,5.4790825E-2,-1.3864388E0,-4.177755E-2,1.9320361E-2,4.2249538E-2,-7.039124E-1,-1.4001025E0,-1.3335953E0,-8.3275557E-1,3.4622574E-1,-1.0632563E0,1.1710513E0,2.602962E-1,4.2689215E-2,-1.3894749E0,1.4869324E0,-1.2376902E0,-4.1788775E-2,3.1318083E-2,-3.8815252E-2,-4.202757E-2,-1.1392651E0,-1.3514698E0,3.67831E-1,-1.0279862E-1,-3.671085E-2,1.364945E-1,1.7303927E-2,-4.029681E-2,2.717475E-1,6.9088954E-1,4.097301E-2,-2.206878E-1,4.224959E-2,-4.1809812E-2,-7.0732185E-3,6.009296E-2,4.1649867E-2,-4.1962627E-2,9.6766025E-1,-5.2012056E-3,-3.6532342E-2,-3.191595E-2,-4.2016756E-2,1.9844426E-2,-2.1943295E-2,1.0627913E-2,-1.0555313E-2,-4.6845507E-3,1.015362E-2,3.1050103E-2,-2.2839103E-2,3.9651137E-2,-2.9667461E-2,1.8785682E-2,-2.7667442E-2,4.3658614E-3,4.9412556E-2],"categories":[],"categories_nodes":[],"categories_segments":[],"categories_sizes":[],"default_left":[0,0,0,0,0,0,0,0,0,0,0,0,0,0,0,0,0,0,0,0,0,0,0,0,0,0,0,0,0,0,0,0,0,0,0,0,0,0,0,0,0,0,0,0,0,0,0,0,0,0,0,0,0,0,0,0,0,0,0,0,