{"learner":{"attributes":{"scikit_learn":"{\"_estimator_type\": \"classifier\"}"},"feature_names":[],"feature_types":[],"gradient_booster":{"model":{"cats":{"enc":[],"feature_segments":[],"sorted_idx":[]},"gbtree_model_param":{"num_parallel_tree":"1","num_trees":"700"},"iteration_indptr":[0,1,2,3,4,5,6,7,8,9,10,11,12,13,14,15,16,17,18,19,20,21,22,23,24,25,26,27,28,29,30,31,32,33,34,35,36,37,38,39,40,41,42,43,44,45,46,47,48,49,50,51,52,53,54,55,56,57,58,59,60,61,62,63,64,65,66,67,68,69,70,71,72,73,74,75,76,77,78,79,80,81,82,83,84,85,86,87,88,89,90,91,92,93,94,95,96,97,98,99,100,101,102,103,104,105,106,107,108,109,110,111,112,113,114,115,116,117,118,119,120,121,122,123,124,125,126,127,128,129,130,131,132,133,134,135,136,137,138,139,140,141,142,143,144,145,146,147,148,149,150,151,152,153,154,155,156,157,158,159,160,161,162,163,164,165,166,167,168,169,170,171,172,173,174,175,176,177,178,179,180,181,182,183,184,185,186,187,188,189,190,191,192,193,194,195,196,197,198,199,200,201,202,203,204,205,206,207,208,209,210,211,212,213,214,215,216,217,218,219,220,221,222,223,224,225,226,227,228,229,230,231,232,233,234,235,236,237,238,239,240,241,242,243,244,245,246,247,248,249,250,251,252,253,254,255,256,257,258,259,260,261,262,263,264,265,266,267,268,269,270,271,272,273,274,275,276,277,278,279,280,281,282,283,284,285,286,287,288,289,290,291,292,293,294,295,296,297,298,299,300,301,302,303,304,305,306,307,308,309,310,311,312,313,314,315,316,317,318,319,320,321,322,323,324,325,326,327,328,329,330,331,332,333,334,335,336,337,338,339,340,341,342,343,344,345,346,347,348,349,350,351,352,353,354,355,356,357,358,359,360,361,362,363,364,365,366,367,368,369,370,371,372,373,374,375,376,377,378,379,380,381,382,383,384,385,386,387,388,389,390,391,392,393,394,395,396,397,398,399,400,401,402,403,404,405,406,407,408,409,410,411,412,413,414,415,416,417,418,419,420,421,422,423,424,425,426,427,428,429,430,431,432,433,434,435,436,437,438,439,440,441,442,443,444,445,446,447,448,449,450,451,452,453,454,455,456,457,458,459,460,461,462,463,464,465,466,467,468,469,470,471,472,473,474,475,476,477,478,479,480,481,482,483,484,485,486,487,488,489,490,491,492,493,494,495,496,497,498,499,500,501,502,503,504,505,506,507,508,509,510,511,512,513,514,515,516,517,518,519,520,521,522,523,524,525,526,527,528,529,530,531,532,533,534,535,536,537,538,539,540,541,542,543,544,545,546,547,548,549,550,551,552,553,554,555,556,557,558,559,560,561,562,563,564,565,566,567,568,569,570,571,572,573,574,575,576,577,578,579,580,581,582,583,584,585,586,587,588,589,590,591,592,593,594,595,596,597,598,599,600,601,602,603,604,605,606,607,608,609,610,611,612,613,614,615,616,617,618,619,620,621,622,623,624,625,626,627,628,629,630,631,632,633,634,635,636,637,638,639,640,641,642,643,644,645,646,647,648,649,650,651,652,653,654,655,656,657,658,659,660,661,662,663,664,665,666,667,668,669,670,671,672,673,674,675,676,677,678,679,680,681,682,683,684,685,686,687,688,689,690,691,692,693,694,695,696,697,698,699,700],"tree_info":[0,0,0,0,0,0,0,0,0,0,0,0,0,0,0,0,0,0,0,0,0,0,0,0,0,0,0,0,0,0,0,0,0,0,0,0,0,0,0,0,0,0,0,0,0,0,0,0,0,0,0,0,0,0,0,0,0,0,0,0,0,0,0,0,0,0,0,0,0,0,0,0,0,0,0,0,0,0,0,0,0,0,0,0,0,0,0,0,0,0,0,0,0,0,0,0,0,0,0,0,0,0,0,0,0,0,0,0,0,0,0,0,0,0,0,0,0,0,0,0,0,0,0,0,0,0,0,0,0,0,0,0,0,0,0,0,0,0,0,0,0,0,0,0,0,0,0,0,0,0,0,0,0,0,0,0,0,0,0,0,0,0,0,0,0,0,0,0,0,0,0,0,0,0,0,0,0,0,0,0,0,0,0,0,0,0,0,0,0,0,0,0,0,0,0,0,0,0,0,0,0,0,0,0,0,0,0,0,0,0,0,0,0,0,0,0,0,0,0,0,0,0,0,0,0,0,0,0,0,0,0,0,0,0,0,0,0,0,0,0,0,0,0,0,0,0,0,0,0,0,0,0,0,0,0,0,0,0,0,0,0,0,0,0,0,0,0,0,0,0,0,0,0,0,0,0,0,0,0,0,0,0,0,0,0,0,0,0,0,0,0,0,0,0,0,0,0,0,0,0,0,0,0,0,0,0,0,0,0,0,0,0,0,0,0,0,0,0,0,0,0,0,0,0,0,0,0,0,0,0,0,0,0,0,0,0,0,0,0,0,0,0,0,0,0,0,0,0,0,0,0,0,0,0,0,0,0,0,0,0,0,0,0,0,0,0,0,0,0,0,0,0,0,0,0,0,0,0,0,0,0,0,0,0,0,0,0,0,0,0,0,0,0,0,0,0,0,0,0,0,0,0,0,0,0,0,0,0,0,0,0,0,0,0,0,0,0,0,0,0,0,0,0,0,0,0,0,0,0,0,0,0,0,0,0,0,0,0,0,0,0,0,0,0,0,0,0,0,0,0,0,0,0,0,0,0,0,0,0,0,0,0,0,0,0,0,0,0,0,0,0,0,0,0,0,0,0,0,0,0,0,0,0,0,0,0,0,0,0,0,0,0,0,0,0,0,0,0,0,0,0,0,0,0,0,0,0,0,0,0,0,0,0,0,0,0,0,0,0,0,0,0,0,0,0,0,0,0,0,0,0,0,0,0,0,0,0,0,0,0,0,0,0,0,0,0,0,0,0,0,0,0,0,0,0,0,0,0,0,0,0,0,0,0,0,0,0,0,0,0,0,0,0,0,0,0,0,0,0,0,0,0,0,0,0,0,0,0,0,0,0,0,0,0,0,0,0,0,0,0,0,0,0,0,0,0,0,0,0,0,0,0,0,0,0,0,0,0,0,0,0,0,0,0,0,0,0,0,0,0,0,0,0,0,0,0,0,0,0,0,0,0,0,0,0,0,0,0,0,0,0,0,0,0,0,0,0,0,0,0,0,0,0,0,0,0,0,0,0,0,0,0,0,0,0,0,0,0,0,0,0,0,0,0,0,0,0,0,0,0,0,0,0,0,0,0,0,0,0,0],"trees":[{"base_weights":[-3.4517138E-3,-1.376667E0,1.908654E0,-1.7454853E0,1.4535369E0,1.9991661E0,-5.9689205E-2,-1.9408181E0,-1.0996237E0,-1.9448904E0,1.8722372E0,5.9993744E-2,-4.1538462E-2,-1.9852891E0,6.8486416E-1,-1.812394E0,1.699701E0,-5.8937613E-2,-6.930436E-1,-5.8938053E-2,1.9770728E0,-5.9618484E-2,-6.645179E-1,1.4621637E0,-5.8709767E-2,-1.9339007E0,1.6906923E0,1.8738575E0,-8.147844E-1,3.4136884E-2,-4.588235E-2,1.9950976E0,-1.5040629E0,-1.1306075E0,9.225871E-3,1.6653992E0,-5.4545455E-2,-1.9641702E0,-1.3807608E0,5.942806E-2,-5.3513512E-2,1.4380742E0,5.9903525E-2,-5.601276E-2,8.7500054E-1,5.99705E-2,5.162619E-1,1.7745238E-2,-5.3999998E-2,-5.974554E-1,-4.786886E-2,7.6650536E-1,-4.4E-2,9.588354E-1,1.9423432E0,-1.9654907E0,2.0467252E-2,-1.8093061E0,1.8082328E0,1.6395347E0,-4.9438678E-2,1.239437E0,-4.2857144E-2,4.734106E-2,-4E-2,-3.3333335E-2,-9.769135E-3,3.3292715E-2,1.5370168E-2,5.6656532E-2,-3.964667E-2,5.925254E-2,-3E-2,3.9626958E-4,-5.8984414E-2,-5.803757E-2,4.972542E-2,5.6976616E-2,3.9626958E-4,3.9805338E-2,5.92463E-2,1.6770514E-2,5.418191E-2],"categories":[],"categories_nodes":[],"categories_segments":[],"categories_sizes":[],"default_left":[0,0,0,0,0,0,0,0,0,0,0,0,0,0,0,0,0,0,0,0,0,0,0,0,0,0,0,0,0,0,0,0,0,0,0,0,0,0,0,0,0,0,0,0,0,0,0,0,0,0,0,0,0,0,0,0,0,0,0,0,0,0,0,0,0,0,0,0,0,0,0,0,0,0,0,0,0,0,0,0,0,0,0],"id":0,"left_children":[1,3,5,7,9,11,-1,13,15,17,19,-1,-1,21,23,25,27,-1,29,-1,31,-1,33,35,-1,37,39,41,43,-1,-1,45,47,49,51,53,-1,55,57,-1,-1,59,-1,-1,61,-1,63,-1,-1,65,-1,67,-1,69,71,73,-1,75,77,79,-1,81,-1,-1,-1,-1,-1,-1,-1,-1,-1,-1,-1,-1,-1,-1,-1,-1,-1,-1,-1,-1,-1],"loss_changes":[9.2495914E4,2.1403648E4,5.1993203E3,2.2862695E3,3.3678496E3,3.3222656E1,0E0,1.6274219E3,8.411934E3,5.045105E0,8.507798E2,0E0,0E0,3.4742188E1,4.8066388E2,1.4332656E3,3.7629956E2,0E0,1.026973E1,0E0,1.3163037E2,0E0,6.9638357E0,1.2326581E2,0E0,5.1660156E1,1.17644806E2,4.0020508E1,1.0144647E2,0E0,0E0,1.0790039E1,7.9670258E0,2.2936592E0,1.2352635E1,3.1471893E1,0E0,1.2092773E1,2.3813327E2,0E0,0E0,1.1444803E2,0E0,0E0,2.0426315E1,0E0,1.5339881E1,0E0,0E0,7.132373E-1,0E0,6.7984104E-2,0E0,1.0838304E2,1.3671143E1,4.020508E0,0E0,6.9221924E1,3.3816528E0,1.5124329E1,0E0,6.5941734E0,0E0,0E0,0E0,0E0,0E0,0E0,0E0,0E0,0E0,0E0,0E0,0E0,0E0,0E0,0E0,0E0,0E0,0E0,0E0,0E0,0E0],"parents":[2147483647,0,0,1,1,2,2,3,3,4,4,5,5,7,7,8,8,9,9,10,10,13,13,14,14,15,15,16,16,18,18,20,20,22,22,23,23,25,25,26,26,27,27,28,28,31,31,32,32,33,33,34,34,35,35,37,37,38,38,41,41,44,44,46,46,49,49,51,51,53,53,54,54,55,55,57,57,58,58,59,59,61,61],"right_children":[2,4,6,8,10,12,-1,14,16,18,20,-1,-1,22,24,26,28,-1,30,-1,32,-1,34,36,-1,38,40,42,44,-1,-1,46,48,50,52,54,-1,56,58,-1,-1,60,-1,-1,62,-1,64,-1,-1,66,-1,68,-1,70,72,74,-1,76,78,80,-1,82,-1,-1,-1,-1,-1,-1,-1,-1,-1,-1,-1,-1,-1,-1,-1,-1,-1,-1,-1,-1,-1],"split_conditions":[-5.2742146E-2,1.5565194E-1,-3.9410585E-1,2.1607E0,-1.980374E-1,9.366294E-3,-5.9689205E-2,-6.6961765E-1,1.0807884E0,-2.1028669E-1,2.1607E0,5.9993744E-2,-4.1538462E-2,-2.5020115E-2,3.0881488E0,1.44232E0,1.7233512E0,-5.8937613E-2,-2.2186863E-1,-5.8938053E-2,-1.8097522E-2,-5.9618484E-2,-2.6886168E-1,-1.7096378E-2,-5.8709767E-2,8.3090293E-1,-2.2186866E-1,-1.2060426E0,-1.8084956E-2,3.4136884E-2,-4.588235E-2,-4.4469167E-2,-5.686453E-2,-1.049663E0,-1.0791393E-1,-3.5712412E-1,-5.4545455E-2,2.3609116E0,-1.187426E0,5.942806E-2,-5.3513512E-2,-2.2186866E-1,5.9903525E-2,-5.601276E-2,3.0881488E0,5.99705E-2,6.641847E0,1.7745238E-2,-5.3999998E-2,-4.8935065E-1,-4.786886E-2,8.562093E-2,-4.4E-2,-5.0475407E-1,-2.611348E-2,-5.038669E-1,2.0467252E-2,6.9001925E-1,-2.2546631E-1,7.303396E-1,-4.9438678E-2,-2.2186866E-1,-4.2857144E-2,4.734106E-2,-4E-2,-3.3333335E-2,-9.769135E-3,3.3292715E-2,1.5370168E-2,5.6656532E-2,-3.964667E-2,5.925254E-2,-3E-2,3.9626958E-4,-5.8984414E-2,-5.803757E-2,4.972542E-2,5.6976616E-2,3.9626958E-4,3.9805338E-2,5.92463E-2,1.6770514E-2,5.418191E-2],"split_indices":[9,27,37,19,37,8,0,9,37,37,19,0,0,1,21,3,37,0,1,0,6,0,32,6,0,37,1,9,6,0,0,36,30,9,30,9,0,14,9,0,0,1,0,0,21,0,24,0,0,14,0,1,0,4,8,4,0,15,16,26,0,1,0,0,0,0,0,0,0,0,0,0,0,0,0,0,0,0,0,0,0,0,0],"split_type":[0,0,0,0,0,0,0,0,0,0,0,0,0,0,0,0,0,0,0,0,0,0,0,0,0,0,0,0,0,0,0,0,0,0,0,0,0,0,0,0,0,0,0,0,0,0,0,0,0,0,0,0,0,0,0,0,0,0,0,0,0,0,0,0,0,0,0,0,0,0,0,0,0,0,0,0,0,0,0,0,0,0,0],"sum_hessian":[3.5224707E4,2.0501467E4,1.4723239E4,1.8138172E4,2.3632947E3,1.4389623E4,3.3361664E2,1.3924789E4,4.2133823E3,2.5882977E2,2.104465E3,1.4387373E4,2.25E0,1.3693113E4,2.3167558E2,3.3585688E3,8.548137E2,2.5425987E2,4.569906E0,5.55E1,2.048965E3,1.3671971E4,2.1142843E1,1.7935226E2,5.232333E1,3.2464128E3,1.1215594E2,7.996815E2,5.5132187E1,1.3199061E0,3.25E0,2.0388351E3,1.0129937E1,1.2096499E1,9.046343E0,1.6935226E2,1E1,3.075558E3,1.7085481E2,1.0390594E2,8.25E0,1.7873904E2,6.209425E2,3.3909954E1,2.1222233E1,2.0330953E3,5.7397337E0,1.1299374E0,9E0,6.6998434E0,5.396656E0,6.2963433E0,2.75E0,4.8944073E1,1.2040819E2,3.0742815E3,1.2765936E0,1.5099619E2,1.9858622E1,1.6822574E2,1.0513297E1,1.8722233E1,2.5E0,3.739734E0,2E0,1.25E0,5.4498434E0,1.246578E0,5.049765E0,3.4890884E1,1.4053187E1,1.1940819E2,1E0,1.0132968E0,3.073268E3,1.4615652E2,4.8396554E0,1.8845325E1,1.0132968E0,8.9618004E1,7.860774E1,9.409562E0,9.312671E0],"tree_param":{"num_deleted":"0","num_feature":"38","num_nodes":"83","size_leaf_vector":"1"}},{"base_weights":[-1.6979402E-3,-1.3374689E0,1.8530362E0,-1.7186205E0,1.2080833E0,1.9409574E0,-1.9301476E0,-1.8832482E0,-1.1647494E0,-5.7567295E-2,1.740368E0,5.824698E-2,-4.0688008E-2,-5.8008183E-2,-2.1494811E-2,-1.9272041E0,6.493238E-1,-1.7534157E0,1.618603E0,1.9184859E0,-5.775074E-2,-1.9290956E0,-7.311078E-1,1.6130037E0,-5.711769E-2,-1.845419E0,-2.4347568E-1,1.7520117E0,-5.622448E-2,1.9363422E0,-1.4149913E0,-5.7896618E-2,-1.616969E0,-3.0209184E-1,-4.949264E-2,1.0183933E0,1.8391687E0,-1.8601551E0,-6.0538435E-1,5.7689026E-2,-5.7754274E-2,8.092388E-1,5.8160316E-2,5.8197927E-2,-3.8900368E-2,-5.3211305E-2,3.1556252E-2,-1.0243698E0,-5.4957584E-2,-8.0002123E-1,3.5889217E-1,5.5152018E-2,-1.3312612E0,1.8938061E0,-3.0092381E-2,-1.6695256E0,-1.923473E0,5.4346226E-2,-5.603863E-2,1.0519755E0,-4.763744E-2,-2.6710387E-3,-3.9688766E-2,-6.705557E-3,-4.219225E-2,3.419085E-2,-3.9132763E-2,-5.3716045E-2,2.9348234E-2,5.704641E-2,1.565689E-2,-5.7256684E-2,5.7552565E-2,1.8503249E-2,-5.7748694E-2,-4.464284E-2,4.079854E-2],"categories":[],"categories_nodes":[],"categories_segments":[],"categories_sizes":[],"default_left":[0,0,0,0,0,0,0,0,0,0,0,0,0,0,0,0,0,0,0,0,0,0,0,0,0,0,0,0,0,0,0,0,0,0,0,0,0,0,0,0,0,0,0,0,0,0,0,0,0,0,0,0,0,0,0,0,0,0,0,0,0,0,0,0,0,0,0,0,0,0,0,0,0,0,0,0,0],"id":1,"left_children":[1,3,5,7,9,11,13,15,17,-1,19,-1,-1,-1,-1,21,23,25,27,29,-1,31,33,35,-1,37,39,41,-1,43,45,-1,47,49,-1,51,53,55,57,-1,-1,59,-1,-1,-1,-1,-1,61,-1,63,65,-1,67,69,-1,71,73,-1,-1,75,-1,-1,-1,-1,-1,-1,-1,-1,-1,-1,-1,-1,-1,-1,-1,-1,-1],"loss_changes":[8.727301E4,1.9870727E4,4.909324E3,1.6219023E3,4.443248E3,3.15625E1,2.2827148E-2,1.5295703E3,6.6938955E3,0E0,1.4922407E3,0E0,0E0,0E0,0E0,2.9121094E1,5.812025E2,4.6789062E2,3.3571704E2,1.3219434E2,0E0,2.0703125E-1,8.533531E0,2.1139526E1,0E0,5.6938477E1,7.1330884E2,1.1945557E2,0E0,2.7618652E1,1.2631174E1,0E0,3.2506714E0,5.8314466E0,0E0,9.761566E1,2.0958527E1,3.4685547E1,1.217819E2,0E0,0E0,6.880458E1,0E0,0E0,0E0,0E0,0E0,3.5079784E0,0E0,3.1526794E0,1.1783084E1,0E0,1.5920969E1,2.9003906E-1,0E0,6.815454E2,1.0043945E1,0E0,0E0,8.445097E1,0E0,0E0,0E0,0E0,0E0,0E0,0E0,0E0,0E0,0E0,0E0,0E0,0E0,0E0,0E0,0E0,0E0],"parents":[2147483647,0,0,1,1,2,2,3,3,4,4,5,5,6,6,7,7,8,8,10,10,15,15,16,16,17,17,18,18,19,19,21,21,22,22,23,23,25,25,26,26,27,27,29,29,30,30,32,32,33,33,35,35,36,36,37,37,38,38,41,41,47,47,49,49,50,50,52,52,53,53,55,55,56,56,59,59],"right_children":[2,4,6,8,10,12,14,16,18,-1,20,-1,-1,-1,-1,22,24,26,28,30,-1,32,34,36,-1,38,40,42,-1,44,46,-1,48,50,-1,52,54,56,58,-1,-1,60,-1,-1,-1,-1,-1,62,-1,64,66,-1,68,70,-1,72,74,-1,-1,76,-1,-1,-1,-1,-1,-1,-1,-1,-1,-1,-1,-1,-1,-1,-1,-1,-1],"split_conditions":[-5.2742146E-2,1.0311204E0,-3.9410585E-1,2.1607E0,2.1607E0,-1.3689944E-1,2.132919E0,-6.6961765E-1,1.0807884E0,-5.7567295E-2,-2.2186866E-1,5.824698E-2,-4.0688008E-2,-5.8008183E-2,-2.1494811E-2,-2.5020115E-2,3.0881488E0,8.00323E-1,3.0881488E0,1.8190586E1,-5.775074E-2,-1.077382E-1,3.0881488E0,-3.5712412E-1,-5.711769E-2,7.364679E0,-2.2186866E-1,-1.2060426E0,-5.622448E-2,3.0881488E0,-1.2060426E0,-5.7896618E-2,3.0881488E0,-2.6886168E-1,-4.949264E-2,-5.0475407E-1,-3.5731066E-2,-2.5228846E-1,-2.2186863E-1,5.7689026E-2,-5.7754274E-2,-2.2186866E-1,5.8160316E-2,5.8197927E-2,-3.8900368E-2,-5.3211305E-2,3.1556252E-2,-9.381013E-2,-5.4957584E-2,3.2762E-2,-3.9182168E-1,5.5152018E-2,-3.9522418E-1,-3.0111885E-1,-3.0092381E-2,-1.2060426E0,-3.9111298E-1,5.4346226E-2,-5.603863E-2,-4.9868345E-1,-4.763744E-2,-2.6710387E-3,-3.9688766E-2,-6.705557E-3,-4.219225E-2,3.419085E-2,-3.9132763E-2,-5.3716045E-2,2.9348234E-2,5.704641E-2,1.565689E-2,-5.7256684E-2,5.7552565E-2,1.8503249E-2,-5.7748694E-2,-4.464284E-2,4.079854E-2],"split_indices":[9,3,37,19,19,12,14,9,37,0,1,0,0,0,0,1,21,3,21,25,0,1,21,9,0,25,1,9,0,21,9,0,21,32,0,4,3,11,1,0,0,1,0,0,0,0,0,1,0,1,13,0,0,0,0,9,13,0,0,3,0,0,0,0,0,0,0,0,0,0,0,0,0,0,0,0,0],"split_type":[0,0,0,0,0,0,0,0,0,0,0,0,0,0,0,0,0,0,0,0,0,0,0,0,0,0,0,0,0,0,0,0,0,0,0,0,0,0,0,0,0,0,0,0,0,0,0,0,0,0,0,0,0,0,0,0,0,0,0,0,0,0,0,0,0,0,0,0,0,0,0,0,0,0,0,0,0],"sum_hessian":[3.522424E4,2.0477045E4,1.4747194E4,1.7810553E4,2.666492E3,1.44127295E4,3.344653E2,1.3727819E4,4.0827341E3,3.8749347E2,2.2789985E3,1.441048E4,2.2490296E0,3.3292334E2,1.5419387E0,1.3493855E4,2.3396382E2,3.370301E3,7.1243317E2,2.1738386E3,1.0516001E2,1.3471938E4,2.1916988E1,1.7012228E2,6.3841534E1,3.1765273E3,1.9377379E2,6.867024E2,2.573079E1,2.1626729E3,1.1165566E1,1.3432687E4,3.9251583E1,1.5845737E1,6.071251E0,4.839357E1,1.21728714E2,3.1387278E3,3.779947E1,8.461859E1,1.091552E2,1.143751E2,5.723273E2,2.1606746E3,1.9984322E0,9.993369E0,1.1721977E0,1.1982506E1,2.7269075E1,8.917614E0,6.928124E0,3.603521E1,1.2358361E1,1.1976022E2,1.9684904E0,7.894173E2,2.3493105E3,1.2821189E1,2.497828E1,1.0436791E2,1.000718E1,3.213706E0,8.7688E0,5.2730455E0,3.644568E0,4.929092E0,1.9990323E0,1.0495875E1,1.8624866E0,1.1870438E2,1.0558455E0,7.405496E2,4.88677E1,1.1291533E0,2.3481814E3,1.0871551E1,9.349637E1],"tree_param":{"num_deleted":"0","num_feature":"38","num_nodes":"77","size_leaf_vector":"1"}},{"base_weights":[1.1076684E-3,-1.2986785E0,1.8027846E0,-1.6484735E0,1.3577516E0,1.8876204E0,-1.8781717E0,-1.8324906E0,-1.0378468E0,-1.8411392E0,1.7587742E0,5.664844E-2,-4.1145757E-2,-5.6449644E-2,-1.6634459E-2,-1.8743823E0,6.70746E-1,-1.7165929E0,1.6095054E0,-5.5815615E-2,-4.9758592E-1,-5.576929E-2,1.8656377E0,-1.8761296E0,-4.9606672E-1,1.3703516E0,-5.541179E-2,-1.8249114E0,1.5949851E0,1.7713134E0,-7.5210243E-1,3.3395067E-2,-4.1802645E-2,1.8868161E0,-1.157607E0,-1.8763605E0,-1.0891668E0,-1.1748707E0,5.8099324E-1,1.5932425E0,-5.2350156E-2,-1.8533862E0,-1.3354921E0,5.6093264E-2,-5.032713E-2,1.3636383E0,5.6567855E-2,-5.139043E-2,8.950855E-1,1.5300969E-2,5.6618337E-2,-5.247609E-2,4.0287267E-2,-5.6411084E-2,-1.813367E0,-1.5422451E-2,-4.0186014E-2,-1.9687742E-3,-4.138471E-2,3.1559158E-2,-3.1913485E-2,9.502109E-1,1.8507013E0,-1.854588E0,1.9410085E-2,-1.7226863E0,1.7109663E0,1.5456874E0,-4.7146287E-2,1.188118E0,-3.8082194E-2,-5.505186E-2,2.8656304E-3,5.363964E-2,-3.720955E-2,5.5735756E-2,1.6212704E-2,-5.568139E-2,-1.7295752E-2,-5.518969E-2,4.841967E-2,5.391662E-2,5.5325576E-3,3.694666E-2,5.6005612E-2,1.5250691E-2,5.132647E-2],"categories":[],"categories_nodes":[],"categories_segments":[],"categories_sizes":[],"default_left":[0,0,0,0,0,0,0,0,0,0,0,0,0,0,0,0,0,0,0,0,0,0,0,0,0,0,0,0,0,0,0,0,0,0,0,0,0,0,0,0,0,0,0,0,0,0,0,0,0,0,0,0,0,0,0,0,0,0,0,0,0,0,0,0,0,0,0,0,0,0,0,0,0,0,0,0,0,0,0,0,0,0,0,0,0,0,0],"id":2,"left_children":[1,3,5,7,9,11,13,15,17,19,21,-1,-1,-1,-1,23,25,27,29,-1,31,-1,33,35,37,39,-1,41,43,45,47,-1,-1,49,51,53,55,57,59,61,-1,63,65,-1,-1,67,-1,-1,69,-1,-1,-1,-1,-1,71,-1,-1,-1,-1,-1,-1,73,75,77,-1,79,81,83,-1,85,-1,-1,-1,-1,-1,-1,-1,-1,-1,-1,-1,-1,-1,-1,-1,-1,-1],"loss_changes":[8.223602E4,1.8957746E4,4.599324E3,2.0236602E3,3.0489165E3,3.3570312E1,4.876709E-1,1.4537148E3,7.507856E3,5.973999E0,8.192925E2,0E0,0E0,0E0,0E0,3.1878906E1,4.0540308E2,1.1955645E3,3.2722852E2,0E0,8.95792E0,0E0,1.3345264E2,4.296875E-1,1.4287961E1,1.274606E2,0E0,4.2399414E1,9.831766E1,3.4628906E1,8.920289E1,0E0,0E0,3.3203125E-1,2.4363647E1,2.34375E-2,2.290883E-1,2.575468E0,7.2103825E0,2.6069305E1,0E0,1.0337891E1,2.160047E2,0E0,0E0,9.7775024E1,0E0,0E0,1.4868338E1,0E0,0E0,0E0,0E0,0E0,3.5037598E1,0E0,0E0,0E0,0E0,0E0,0E0,9.41848E1,1.1172485E-1,4.59375E0,0E0,6.570975E1,2.4164848E0,1.4702393E1,0E0,5.9064674E0,0E0,0E0,0E0,0E0,0E0,0E0,0E0,0E0,0E0,0E0,0E0,0E0,0E0,0E0,0E0,0E0,0E0],"parents":[2147483647,0,0,1,1,2,2,3,3,4,4,5,5,6,6,7,7,8,8,9,9,10,10,15,15,16,16,17,17,18,18,20,20,22,22,23,23,24,24,25,25,27,27,28,28,29,29,30,30,33,33,34,34,35,35,36,36,37,37,38,38,39,39,41,41,42,42,45,45,48,48,54,54,61,61,62,62,63,63,65,65,66,66,67,67,69,69],"right_children":[2,4,6,8,10,12,14,16,18,20,22,-1,-1,-1,-1,24,26,28,30,-1,32,-1,34,36,38,40,-1,42,44,46,48,-1,-1,50,52,54,56,58,60,62,-1,64,66,-1,-1,68,-1,-1,70,-1,-1,-1,-1,-1,72,-1,-1,-1,-1,-1,-1,74,76,78,-1,80,82,84,-1,86,-1,-1,-1,-1,-1,-1,-1,-1,-1,-1,-1,-1,-1,-1,-1,-1,-1],"split_conditions":[-5.2742146E-2,1.3294165E-1,-3.9410585E-1,2.1607E0,-1.980374E-1,9.366294E-3,-1.792159E-2,-6.6961765E-1,1.0807884E0,-2.1028669E-1,2.1607E0,5.664844E-2,-4.1145757E-2,-5.6449644E-2,-1.6634459E-2,-1.216413E-3,3.0881488E0,1.44232E0,1.7233512E0,-5.5815615E-2,-2.2186863E-1,-5.576929E-2,1.8190586E1,-2.5020115E-2,-2.6886168E-1,-1.7096378E-2,-5.541179E-2,8.3090293E-1,-2.2186866E-1,-1.2060426E0,-1.8084956E-2,3.3395067E-2,-4.1802645E-2,3.3383182E-1,-2.611348E-2,-1.8080767E-2,-1.0720029E0,1.5250159E-2,-1.0791393E-1,-3.5712412E-1,-5.2350156E-2,3.4690447E0,-1.187426E0,5.6093264E-2,-5.032713E-2,-2.2186866E-1,5.6567855E-2,-5.139043E-2,3.0881488E0,1.5300969E-2,5.6618337E-2,-5.247609E-2,4.0287267E-2,-5.6411084E-2,-2.1853808E-1,-1.5422451E-2,-4.0186014E-2,-1.9687742E-3,-4.138471E-2,3.1559158E-2,-3.1913485E-2,-4.8475882E-1,-2.5161418E-1,9.836616E0,1.9410085E-2,6.9001925E-1,-2.218675E-1,8.00323E-1,-4.7146287E-2,-2.2186866E-1,-3.8082194E-2,-5.505186E-2,2.8656304E-3,5.363964E-2,-3.720955E-2,5.5735756E-2,1.6212704E-2,-5.568139E-2,-1.7295752E-2,-5.518969E-2,4.841967E-2,5.391662E-2,5.5325576E-3,3.694666E-2,5.6005612E-2,1.5250691E-2,5.132647E-2],"split_indices":[9,27,37,19,37,8,6,9,37,37,19,0,0,0,0,1,21,3,37,0,1,0,25,1,32,6,0,37,1,9,6,0,0,3,8,6,9,1,30,9,0,17,9,0,0,1,0,0,21,0,0,0,0,0,1,0,0,0,0,0,0,15,13,25,0,15,1,3,0,1,0,0,0,0,0,0,0,0,0,0,0,0,0,0,0,0,0],"split_type":[0,0,0,0,0,0,0,0,0,0,0,0,0,0,0,0,0,0,0,0,0,0,0,0,0,0,0,0,0,0,0,0,0,0,0,0,0,0,0,0,0,0,0,0,0,0,0,0,0,0,0,0,0,0,0,0,0,0,0,0,0,0,0,0,0,0,0,0,0,0,0,0,0,0,0,0,0,0,0,0,0,0,0,0,0,0,0],"sum_hessian":[3.5114664E4,2.039869E4,1.4715976E4,1.8025498E4,2.3731924E3,1.438493E4,3.3104578E2,1.3849763E4,4.1757354E3,2.639684E2,2.1092239E3,1.4382435E4,2.495779E0,3.2975653E2,1.2892419E0,1.3622049E4,2.2771336E2,3.3238865E3,8.5184894E2,2.598354E2,4.1330233E0,6.004566E1,2.0491782E3,1.3604439E4,1.7609129E1,1.7855518E2,4.915818E1,3.2190437E3,1.0484282E2,7.9746014E2,5.4388824E1,1.3904052E0,2.7426183E0,2.0352964E3,1.3881833E1,1.3599066E4,5.3738184E0,1.0745865E1,6.863264E0,1.6708922E2,1.146596E1,3.039421E3,1.7962268E2,9.711676E1,7.7260633E0,1.7743433E2,6.200258E2,3.4324905E1,2.0063917E1,1.0530924E0,2.0342433E3,1.1468879E1,2.412954E0,1.275825E4,8.408162E2,2.5560246E0,2.8177936E0,1.8792353E0,8.86663E0,5.6156497E0,1.2476146E0,4.9113533E1,1.1797569E2,3.0382188E3,1.2021888E0,1.5975314E2,1.9869534E1,1.6751775E2,9.916588E0,1.8068819E1,1.9950994E0,8.3140576E2,9.410474E0,3.565926E1,1.345427E1,1.1691913E2,1.0565648E0,3.0343047E3,3.914158E0,1.5477599E2,4.9771543E0,1.8639061E1,1.2304709E0,8.713038E1,8.038737E1,8.712373E0,9.356446E0],"tree_param":{"num_deleted":"0","num_feature":"38","num_nodes":"87","size_leaf_vector":"1"}},{"base_weights":[-9.443742E-4,-1.2652915E0,1.7534858E0,-1.6273218E0,1.1390792E0,1.835714E0,-1.8259972E0,-1.7841972E0,-1.0982299E0,-5.465191E-2,1.643423E0,5.518054E-2,-5.0563794E-2,-5.499873E-2,4.067126E-3,-1.8232969E0,7.8913885E-1,1.661615E0,-1.4804631E0,1.8130579E0,-5.4762185E-2,-1.8259703E0,5.5539846E-1,1.5346683E0,-5.3890105E-2,-1.26365E0,1.7913736E0,-1.6591171E0,3.871917E-1,1.8354664E0,-1.5310438E0,-1.8269867E0,-8.77883E-1,1.0113643E0,-4.0419087E-2,8.7191045E-1,1.7265006E0,-4.5905504E-2,3.5443723E-2,1.8166728E0,-4.2894375E-2,-1.7511051E0,-1.934478E-1,-1.3854073E0,5.48741E-2,5.514093E-2,-3.347833E-2,-5.1651E-2,1.5226432E-2,-5.4825842E-2,-1.3143086E0,-1.1008681E0,2.6641452E-1,-2.821394E-2,1.303517E0,5.226498E-2,-1.204287E0,1.7783953E0,-3.5676856E-2,5.5276E-2,1.1720537E0,-1.7612947E0,-9.910812E-2,5.474955E-2,-5.4735407E-2,4.46928E-2,-1.6380621E0,3.718858E-2,-5.179372E-2,-1.842946E-2,-4.6405807E-2,3.337568E-2,-2.5188088E-2,1.23605095E-2,4.201774E-2,-5.003757E-2,3.6534157E-2,5.4557342E-2,-3.4468915E-2,1.6733415E-2,5.036943E-2,-4.667712E-2,-5.4673307E-2,5.019574E-2,-5.0436676E-2,7.678414E-3,-5.163702E-2],"categories":[],"categories_nodes":[],"categories_segments":[],"categories_sizes":[],"default_left":[0,0,0,0,0,0,0,0,0,0,0,0,0,0,0,0,0,0,0,0,0,0,0,0,0,0,0,0,0,0,0,0,0,0,0,0,0,0,0,0,0,0,0,0,0,0,0,0,0,0,0,0,0,0,0,0,0,0,0,0,0,0,0,0,0,0,0,0,0,0,0,0,0,0,0,0,0,0,0,0,0,0,0,0,0,0,0],"id":3,"left_children":[1,3,5,7,9,11,13,15,17,-1,19,-1,-1,-1,-1,21,23,25,27,29,-1,31,33,35,-1,37,39,41,43,45,47,49,51,53,-1,55,57,-1,-1,59,-1,61,63,65,-1,-1,-1,-1,-1,-1,67,69,71,-1,73,-1,75,77,-1,-1,79,81,83,-1,-1,-1,85,-1,-1,-1,-1,-1,-1,-1,-1,-1,-1,-1,-1,-1,-1,-1,-1,-1,-1,-1,-1],"loss_changes":[7.755239E4,1.7688445E4,4.3132656E3,1.4638594E3,3.974551E3,1.864375E2,4.960449E0,1.3718164E3,4.265686E3,0E0,1.3408604E3,0E0,0E0,0E0,0E0,8.6328125E1,3.970224E2,1.8905371E2,1.185229E3,1.6524121E2,0E0,1.13125E1,1.5094652E1,1.8748047E1,0E0,1.5811459E1,4.103076E1,4.365547E2,7.9684924E2,1.835254E1,6.6935196E0,1.3164062E0,4.4462423E0,8.83258E0,0E0,7.035849E1,2.0653961E1,0E0,0E0,5.6484375E0,0E0,5.1149414E1,6.370496E2,1.0411734E2,0E0,0E0,0E0,0E0,0E0,0E0,2.0753288E1,2.0478573E0,4.171524E0,0E0,4.6333504E-1,0E0,1.5225578E1,1.6296875E1,0E0,0E0,5.54463E0,3.5222656E1,5.819301E1,0E0,0E0,0E0,2.078363E1,0E0,0E0,0E0,0E0,0E0,0E0,0E0,0E0,0E0,0E0,0E0,0E0,0E0,0E0,0E0,0E0,0E0,0E0,0E0,0E0],"parents":[2147483647,0,0,1,1,2,2,3,3,4,4,5,5,6,6,7,7,8,8,10,10,15,15,16,16,17,17,18,18,19,19,21,21,22,22,23,23,25,25,26,26,27,27,28,28,29,29,30,30,31,31,32,32,33,33,35,35,36,36,39,39,41,41,42,42,43,43,50,50,51,51,52,52,54,54,56,56,57,57,60,60,61,61,62,62,66,66],"right_children":[2,4,6,8,10,12,14,16,18,-1,20,-1,-1,-1,-1,22,24,26,28,30,-1,32,34,36,-1,38,40,42,44,46,48,50,52,54,-1,56,58,-1,-1,60,-1,62,64,66,-1,-1,-1,-1,-1,-1,68,70,72,-1,74,-1,76,78,-1,-1,80,82,84,-1,-1,-1,86,-1,-1,-1,-1,-1,-1,-1,-1,-1,-1,-1,-1,-1,-1,-1,-1,-1,-1,-1,-1],"split_conditions":[-5.2742146E-2,1.0311204E0,2.3631003E0,2.1607E0,2.1607E0,3.0881488E0,-9.129094E-2,-5.166066E-1,-3.9466676E-1,-5.465191E-2,-2.2186866E-1,5.518054E-2,-5.0563794E-2,-5.499873E-2,4.067126E-3,7.233433E-2,3.0881488E0,-3.9522597E-1,-1.1210058E-1,1.8190586E1,-5.4762185E-2,-2.5020115E-2,3.0881488E0,-3.5712412E-1,-5.3890105E-2,-2.2186866E-1,3.0881488E0,8.00323E-1,-1.2060426E0,3.0881488E0,-3.0580088E-1,-6.6961765E-1,-1.8097522E-2,-2.6886168E-1,-4.0419087E-2,-4.8475882E-1,-1.7096378E-2,-4.5905504E-2,3.5443723E-2,-1.121006E-1,-4.2894375E-2,9.049647E0,-2.2186866E-1,-2.5480333E-1,5.48741E-2,5.514093E-2,-3.347833E-2,-5.1651E-2,1.5226432E-2,-5.4825842E-2,-3.9522305E-1,-1.049663E0,-8.12999E-1,-2.821394E-2,-8.483964E-1,5.226498E-2,-3.9522418E-1,-1.588398E-1,-3.5676856E-2,5.5276E-2,-2.2186866E-1,-2.5228846E-1,-2.2186863E-1,5.474955E-2,-5.4735407E-2,4.46928E-2,-1.810171E-2,3.718858E-2,-5.179372E-2,-1.842946E-2,-4.6405807E-2,3.337568E-2,-2.5188088E-2,1.23605095E-2,4.201774E-2,-5.003757E-2,3.6534157E-2,5.4557342E-2,-3.4468915E-2,1.6733415E-2,5.036943E-2,-4.667712E-2,-5.4673307E-2,5.019574E-2,-5.0436676E-2,7.678414E-3,-5.163702E-2],"split_indices":[9,3,11,19,19,21,36,9,0,0,1,0,0,0,0,1,21,0,36,25,0,1,21,9,0,1,21,3,9,21,2,9,6,32,0,15,6,0,0,36,0,25,1,0,0,0,0,0,0,0,0,9,9,0,9,0,0,10,0,0,1,11,1,0,0,0,6,0,0,0,0,0,0,0,0,0,0,0,0,0,0,0,0,0,0,0,0],"split_type":[0,0,0,0,0,0,0,0,0,0,0,0,0,0,0,0,0,0,0,0,0,0,0,0,0,0,0,0,0,0,0,0,0,0,0,0,0,0,0,0,0,0,0,0,0,0,0,0,0,0,0,0,0,0,0,0,0,0,0,0,0,0,0,0,0,0,0,0,0,0,0,0,0,0,0,0,0,0,0,0,0,0,0,0,0,0,0],"sum_hessian":[3.495972E4,2.0317787E4,1.4641931E4,1.7659143E4,2.658645E3,1.4313605E4,3.283258E2,1.3618804E4,4.0403384E3,3.865785E2,2.2720667E3,1.4299312E4,1.4293379E1,3.2717462E2,1.1511605E0,1.3415262E4,2.0354253E2,4.910993E2,3.549239E3,2.1665918E3,1.0547473E2,1.3400434E4,1.4828218E1,1.5830208E2,4.524044E1,2.0487713E1,4.706116E2,3.239473E3,3.0976605E2,2.1526184E3,1.3973307E1,1.3385157E4,1.5275804E1,1.23396E1,2.4886193E0,3.6779266E1,1.2152282E2,1.8811333E1,1.6763797E0,4.6737683E2,3.2347615E0,3.0479814E3,1.9149149E2,1.3896906E2,1.70797E2,2.1511265E3,1.4920018E0,1.2920392E1,1.0529139E0,1.3368475E4,1.6683044E1,1.2816293E1,2.459511E0,1.3176285E0,1.1021971E1,2.6029617E1,1.0749647E1,1.19781006E2,1.7418154E0,4.475634E2,1.9813444E1,3.029231E3,1.8750494E1,8.5529915E1,1.0596158E2,1.0829932E1,1.2813913E2,2.0392005E0,1.4643844E1,7.266431E0,5.549862E0,1.3901547E0,1.0693562E0,1.5972927E0,9.424678E0,9.283912E0,1.4657352E0,1.18532715E2,1.2482885E0,9.907848E0,9.905597E0,7.0102704E2,2.3282039E3,8.816548E0,9.933946E0,5.302904E0,1.2283623E2],"tree_param":{"num_deleted":"0","num_feature":"38","num_nodes":"87","size_leaf_vector":"1"}},{"base_weights":[-3.0937188E-4,-1.2344747E0,1.7117028E0,1.0875663E0,-1.5841428E0,1.7937852E0,-5.358035E-2,1.5324593E0,-5.3371385E-2,-1.6887197E0,-9.738699E-1,5.3830627E-2,-3.805206E-2,-5.3454027E-2,1.7537673E0,-1.7390013E0,-1.1538088E0,1.277867E0,-5.3407148E-2,1.7758709E0,-4.8370168E-2,-5.2249724E-1,-1.7598724E0,-1.8275136E-1,-5.379877E-2,1.7374254E0,-1.4696743E-1,5.3813547E-2,-1.3525951E0,4.8364246E-1,-5.338204E-2,-1.7616509E0,3.699468E-1,1.5834746E0,-1.6534959E0,1.7577914E0,9.6173584E-1,-1.08056E0,1.5658741E0,-4.968452E-2,2.938335E-2,1.7583725E0,-5.2736755E-2,-1.7650313E0,-7.630856E-1,1.2386924E0,-4.1806232E-2,2.4439472E-1,5.3607162E-2,-5.242875E-2,4.7597963E-2,1.7759733E0,1.102556E0,3.2427076E-1,4.7082577E-2,-1.2142086E0,4.5011025E-2,-7.2560705E-2,5.0476156E-2,5.3380556E-2,5.011176E-4,-4.7671083E-2,-5.3236768E-2,5.2074574E-2,-5.248543E-2,-2.392147E-2,4.8887964E-2,3.3966187E-2,-9.744745E-3,1.3695861E-2,5.33806E-2,-2.5093727E-2,5.0425336E-2,-4.1841893E-3,3.8131732E-2,-2.2137353E-2,-5.2119657E-2,-9.386117E-3,8.857112E-3],"categories":[],"categories_nodes":[],"categories_segments":[],"categories_sizes":[],"default_left":[0,0,0,0,0,0,0,0,0,0,0,0,0,0,0,0,0,0,0,0,0,0,0,0,0,0,0,0,0,0,0,0,0,0,0,0,0,0,0,0,0,0,0,0,0,0,0,0,0,0,0,0,0,0,0,0,0,0,0,0,0,0,0,0,0,0,0,0,0,0,0,0,0,0,0,0,0,0,0],"id":4,"left_children":[1,3,5,7,9,11,-1,13,-1,15,17,-1,-1,-1,19,21,23,25,-1,27,-1,29,31,33,-1,35,37,-1,39,41,-1,43,45,47,49,51,53,55,57,-1,-1,59,-1,61,63,65,-1,67,-1,-1,-1,69,71,73,-1,75,-1,77,-1,-1,-1,-1,-1,-1,-1,-1,-1,-1,-1,-1,-1,-1,-1,-1,-1,-1,-1,-1,-1],"loss_changes":[7.352441E4,1.6419912E4,4.188246E3,3.3786143E3,1.1199805E3,2.7097656E1,0E0,1.6842207E3,0E0,4.015039E2,4.6749004E3,0E0,0E0,0E0,1.6275684E2,3.4720703E2,8.0198584E2,4.4495667E2,0E0,1.2210498E2,0E0,2.9513153E2,5.1714844E1,1.338145E3,0E0,6.4230957E0,2.6802078E2,0E0,1.0632597E1,3.7462115E2,0E0,4.411328E1,2.0222683E1,6.333667E1,8.847943E1,3.989624E0,5.4364653E0,3.9208496E1,1.1430847E1,0E0,0E0,3.017212E0,0E0,1.9683594E1,1.1938985E2,8.158609E0,0E0,1.65561E1,0E0,0E0,0E0,1.3469238E0,1.9477798E1,4.0194516E0,0E0,2.453154E1,0E0,5.246906E-1,0E0,0E0,0E0,0E0,0E0,0E0,0E0,0E0,0E0,0E0,0E0,0E0,0E0,0E0,0E0,0E0,0E0,0E0,0E0,0E0,0E0],"parents":[2147483647,0,0,1,1,2,2,3,3,4,4,5,5,7,7,9,9,10,10,14,14,15,15,16,16,17,17,19,19,21,21,22,22,23,23,25,25,26,26,28,28,29,29,31,31,32,32,33,33,34,34,35,35,36,36,37,37,38,38,41,41,43,43,44,44,45,45,47,47,51,51,52,52,53,53,55,55,57,57],"right_children":[2,4,6,8,10,12,-1,14,-1,16,18,-1,-1,-1,20,22,24,26,-1,28,-1,30,32,34,-1,36,38,-1,40,42,-1,44,46,48,50,52,54,56,58,-1,-1,60,-1,62,64,66,-1,68,-1,-1,-1,70,72,74,-1,76,-1,78,-1,-1,-1,-1,-1,-1,-1,-1,-1,-1,-1,-1,-1,-1,-1,-1,-1,-1,-1,-1,-1],"split_conditions":[-5.2742146E-2,-3.0580038E-1,-3.9410585E-1,-1.1520544E0,-2.4810104E-1,9.366294E-3,-5.358035E-2,-2.3111048E-1,-5.3371385E-2,-9.129094E-2,3.0881488E0,5.3830627E-2,-3.805206E-2,-5.3454027E-2,3.0881488E0,-3.058002E-1,3.0881488E0,1.4678611E-1,-5.3407148E-2,1.8190586E1,-4.8370168E-2,-2.5228846E-1,2.175402E0,-9.770405E-2,-5.379877E-2,1.7233512E0,7.233433E-2,5.3813547E-2,-3.0580088E-1,3.0881488E0,-5.338204E-2,7.364679E0,2.583098E0,-1.2060426E0,-6.6961765E-1,-9.649336E-2,-2.2186866E-1,-2.611348E-2,-8.12999E-1,-4.968452E-2,2.938335E-2,-2.6984856E-1,-5.2736755E-2,-3.0579957E-1,-2.2186863E-1,-1.588398E-1,-4.1806232E-2,-2.5480333E-1,5.3607162E-2,-5.242875E-2,4.7597963E-2,-3.9522532E-1,-2.2008689E-1,-3.9522392E-1,4.7082577E-2,-1.0791393E-1,4.5011025E-2,-8.483964E-1,5.0476156E-2,5.3380556E-2,5.011176E-4,-4.7671083E-2,-5.3236768E-2,5.2074574E-2,-5.248543E-2,-2.392147E-2,4.8887964E-2,3.3966187E-2,-9.744745E-3,1.3695861E-2,5.33806E-2,-2.5093727E-2,5.0425336E-2,-4.1841893E-3,3.8131732E-2,-2.2137353E-2,-5.2119657E-2,-9.386117E-3,8.857112E-3],"split_indices":[28,2,37,28,2,8,0,37,0,36,21,0,0,0,21,34,21,2,0,25,0,11,17,7,0,37,1,0,2,21,0,25,0,28,28,36,1,8,28,0,0,32,0,2,1,10,0,0,0,0,0,0,1,0,0,7,0,28,0,0,0,0,0,0,0,0,0,0,0,0,0,0,0,0,0,0,0,0,0],"split_type":[0,0,0,0,0,0,0,0,0,0,0,0,0,0,0,0,0,0,0,0,0,0,0,0,0,0,0,0,0,0,0,0,0,0,0,0,0,0,0,0,0,0,0,0,0,0,0,0,0,0,0,0,0,0,0,0,0,0,0,0,0,0,0,0,0,0,0,0,0,0,0,0,0,0,0,0,0,0,0],"sum_hessian":[3.479576E4,2.0219844E4,1.4575919E4,2.6460583E3,1.7573785E4,1.4242179E4,3.3374048E2,2.2909695E3,3.5508887E2,1.500137E4,2.5724153E3,1.4239946E4,2.2321978E0,1.4296129E2,2.1480083E3,1.3710348E4,1.291022E3,6.7814636E2,1.894269E3,2.1344646E3,1.3543661E1,2.3169496E2,1.3478652E4,5.1312537E2,7.778966E2,5.1259674E2,1.6554959E2,2.122736E3,1.1728404E1,1.2902605E2,1.02668915E2,1.3467579E4,1.1073268E1,2.3310797E2,2.800174E2,4.9824896E2,1.4347791E1,1.07386955E2,5.8162632E1,1.06340275E1,1.0943767E0,8.238843E1,4.6637627E1,1.3421377E4,4.6202187E1,7.6180058E0,3.4552622E0,3.1033285E1,2.0207469E2,2.725598E2,7.4576025E0,4.8313223E2,1.5116732E1,7.7507772E0,6.5970135E0,1.0260337E2,4.7835865E0,3.8912995E0,5.4271336E1,8.1386444E1,1.0019828E0,6.978865E2,1.2723491E4,1.28612585E1,3.3340927E1,1.0595269E0,6.558479E0,1.1737406E1,1.929588E1,1.5821801E0,4.8155005E2,3.370142E0,1.174659E1,5.7748823E0,1.9758949E0,5.4966637E1,4.7636734E1,2.4438744E0,1.4474252E0],"tree_param":{"num_deleted":"0","num_feature":"38","num_nodes":"79","size_leaf_vector":"1"}},{"base_weights":[1.709926E-5,-1.2051625E0,1.673147E0,-1.5288627E0,1.2761753E0,1.7520894E0,-5.2304856E-2,-1.7008054E0,-9.622219E-1,-1.7079972E0,1.6384792E0,5.2579466E-2,-3.7361514E-2,-1.7397586E0,5.806623E-1,-1.5871747E0,1.4829801E0,-5.1789925E-2,-5.7715535E-1,-5.1764727E-2,1.7332461E0,-5.224556E-2,-7.0002955E-1,1.2648717E0,-5.1419597E-2,-1.6926754E0,1.4719486E0,1.6455917E0,-7.448682E-1,3.251463E-2,-4.064765E-2,1.7539145E0,-1.0836111E0,-3.4825224E-1,-4.5561798E-2,1.4907337E0,-4.909862E-2,-1.721229E0,-1.2105099E0,5.2096777E-2,-4.724745E-2,1.2635727E0,5.2596524E-2,-1.2938129E0,4.9360134E-2,5.263026E-2,1.6850201E-2,-4.913959E-2,3.8417894E-2,-8.058519E-1,2.9302463E-1,9.3197244E-1,5.1196307E-2,-1.7225115E0,-3.5198307E-1,-1.5998327E0,1.6564481E0,1.4181912E0,-4.2354994E-2,-1.4854872E0,4.157724E-2,-4.981584E-3,-3.6317807E-2,2.5299612E-2,-3.447186E-2,4.987304E-2,-3.3505127E-2,2.4915002E-3,-5.1694285E-2,3.0022409E-2,-3.5642482E-2,-5.1471513E-2,4.7411654E-2,5.334126E-2,-1.265555E-2,3.373703E-2,5.1720936E-2,-5.0239325E-2,-2.1256367E-2],"categories":[],"categories_nodes":[],"categories_segments":[],"categories_sizes":[],"default_left":[0,0,0,0,0,0,0,0,0,0,0,0,0,0,0,0,0,0,0,0,0,0,0,0,0,0,0,0,0,0,0,0,0,0,0,0,0,0,0,0,0,0,0,0,0,0,0,0,0,0,0,0,0,0,0,0,0,0,0,0,0,0,0,0,0,0,0,0,0,0,0,0,0,0,0,0,0,0,0],"id":5,"left_children":[1,3,5,7,9,11,-1,13,15,17,19,-1,-1,21,23,25,27,-1,29,-1,31,-1,33,35,-1,37,39,41,43,-1,-1,45,47,49,-1,51,-1,53,55,-1,-1,57,-1,59,-1,-1,-1,-1,-1,61,63,65,-1,67,69,71,73,75,-1,77,-1,-1,-1,-1,-1,-1,-1,-1,-1,-1,-1,-1,-1,-1,-1,-1,-1,-1,-1],"loss_changes":[6.965752E4,1.6130951E4,3.9043633E3,1.7290977E3,2.5088037E3,2.5898438E1,0E0,1.2120547E3,6.325376E3,4.2164307E0,6.6206885E2,0E0,0E0,2.3300781E1,3.6250327E2,1.0662266E3,3.0654443E2,0E0,8.591084E0,0E0,1.1899707E2,0E0,6.474208E0,1.18676636E2,0E0,4.1786133E1,9.175406E1,3.0091553E1,7.82549E1,0E0,0E0,3.2714844E-2,2.2108906E1,5.6079464E0,0E0,1.8316284E1,0E0,4.673828E0,2.0526297E2,0E0,0E0,7.492969E1,0E0,2.6580956E1,0E0,0E0,0E0,0E0,0E0,2.6343837E0,7.60041E0,7.398932E1,0E0,3.5644531E0,5.7923126E0,6.1799286E1,6.3588142E0,1.3072632E1,0E0,5.4324417E0,0E0,0E0,0E0,0E0,0E0,0E0,0E0,0E0,0E0,0E0,0E0,0E0,0E0,0E0,0E0,0E0,0E0,0E0,0E0],"parents":[2147483647,0,0,1,1,2,2,3,3,4,4,5,5,7,7,8,8,9,9,10,10,13,13,14,14,15,15,16,16,18,18,20,20,22,22,23,23,25,25,26,26,27,27,28,28,31,31,32,32,33,33,35,35,37,37,38,38,41,41,43,43,49,49,50,50,51,51,53,53,54,54,55,55,56,56,57,57,59,59],"right_children":[2,4,6,8,10,12,-1,14,16,18,20,-1,-1,22,24,26,28,-1,30,-1,32,-1,34,36,-1,38,40,42,44,-1,-1,46,48,50,-1,52,-1,54,56,-1,-1,58,-1,60,-1,-1,-1,-1,-1,62,64,66,-1,68,70,72,74,76,-1,78,-1,-1,-1,-1,-1,-1,-1,-1,-1,-1,-1,-1,-1,-1,-1,-1,-1,-1,-1],"split_conditions":[-5.2742146E-2,1.5565194E-1,-3.9410585E-1,2.1607E0,-1.980374E-1,-2.268304E-1,-5.2304856E-2,-6.6961765E-1,1.0807884E0,-2.1028669E-1,2.1607E0,5.2579466E-2,-3.7361514E-2,-2.5020115E-2,3.0881488E0,1.44232E0,1.7233512E0,-5.1789925E-2,-2.2186863E-1,-5.1764727E-2,1.8190586E1,-5.224556E-2,3.0881488E0,-1.7096378E-2,-5.1419597E-2,8.3090293E-1,-2.2186866E-1,-1.2060426E0,-2.2184387E-1,3.251463E-2,-4.064765E-2,-1.8097522E-2,-1.2060426E0,-2.6886168E-1,-4.5561798E-2,-3.5712412E-1,-4.909862E-2,1.0257025E1,-1.187426E0,5.2096777E-2,-4.724745E-2,-2.2186866E-1,5.2596524E-2,-1.7896455E-2,4.9360134E-2,5.263026E-2,1.6850201E-2,-4.913959E-2,3.8417894E-2,1.5250159E-2,-1.0791393E-1,-4.8475882E-1,5.1196307E-2,-3.9406112E-1,-2.2186863E-1,6.9001925E-1,-2.2681251E-1,-1.1064714E-1,-4.2354994E-2,-1.8084956E-2,4.157724E-2,-4.981584E-3,-3.6317807E-2,2.5299612E-2,-3.447186E-2,4.987304E-2,-3.3505127E-2,2.4915002E-3,-5.1694285E-2,3.0022409E-2,-3.5642482E-2,-5.1471513E-2,4.7411654E-2,5.334126E-2,-1.265555E-2,3.373703E-2,5.1720936E-2,-5.0239325E-2,-2.1256367E-2],"split_indices":[9,27,37,19,37,17,0,9,37,37,19,0,0,1,21,3,37,0,1,0,25,0,21,6,0,37,1,9,1,0,0,6,9,32,0,9,0,25,9,0,0,1,0,6,0,0,0,0,0,1,7,15,0,0,1,15,17,0,0,6,0,0,0,0,0,0,0,0,0,0,0,0,0,0,0,0,0,0,0],"split_type":[0,0,0,0,0,0,0,0,0,0,0,0,0,0,0,0,0,0,0,0,0,0,0,0,0,0,0,0,0,0,0,0,0,0,0,0,0,0,0,0,0,0,0,0,0,0,0,0,0,0,0,0,0,0,0,0,0,0,0,0,0,0,0,0,0,0,0,0,0,0,0,0,0,0,0,0,0,0,0],"sum_hessian":[3.4543105E4,2.0079693E4,1.4463414E4,1.7762846E4,2.3168484E3,1.4137256E4,3.2615768E2,1.3626108E4,4.1367363E3,2.5042986E2,2.0664185E3,1.4135032E4,2.2238574E0,1.3397599E4,2.2850996E2,3.2949524E3,8.417838E2,2.4591638E2,4.5134735E0,5.614685E1,2.0102716E3,1.3374282E4,2.3316425E1,1.7636955E2,5.2140408E1,3.1855386E3,1.09413734E2,7.8476483E2,5.7018963E1,1.3139448E0,3.199529E0,1.9960034E3,1.4268139E1,1.7305836E1,6.010589E0,1.64083E2,1.2286565E1,3.005014E3,1.8052483E2,1.01066475E2,8.347259E0,1.7529482E2,6.0947003E2,4.6742573E1,1.027639E1,1.9948165E3,1.1869065E0,1.180678E1,2.461359E0,9.949488E0,7.3563495E0,4.7198376E1,1.1688462E2,3.0019436E3,3.0700905E0,1.593303E2,2.1194513E1,1.661618E2,9.132999E0,4.403827E1,2.704303E0,4.401711E0,5.547776E0,5.6250544E0,1.731295E0,3.493248E1,1.2265894E1,1.0035727E0,3.0009402E3,1.0975064E0,1.972584E0,1.541729E2,5.157417E0,2.0159525E1,1.0349885E0,8.7160164E1,7.900164E1,3.4486607E1,9.551662E0],"tree_param":{"num_deleted":"0","num_feature":"38","num_nodes":"79","size_leaf_vector":"1"}},{"base_weights":[7.4551377E-4,-1.1784618E0,1.6354928E0,-1.4945439E0,1.2382091E0,1.7134763E0,-1.7069651E0,-1.662883E0,-9.391976E-1,-1.6657336E0,1.6043826E0,5.142266E-2,-3.7878916E-2,-1.6510861E-2,-5.128535E-2,-1.7013276E0,5.707335E-1,-1.5498686E0,1.461992E0,-5.0435152E-2,-6.22284E-1,-5.0627124E-2,1.6970626E0,-1.7031072E0,-4.0827733E-1,1.2479054E0,-5.0307877E-2,-1.6541789E0,1.4840758E0,1.6176962E0,-7.002982E-1,3.0849036E-2,-3.988717E-2,1.7152224E0,-1.0102038E0,-5.1115934E-2,-1.4506766E0,-9.02381E-1,2.4605624E-1,1.436268E0,-4.749221E-2,-1.6815052E0,-1.1605873E0,5.0960697E-2,-4.522602E-2,1.2699744E0,5.143589E-2,-4.7452446E-2,7.311627E-1,5.146963E-2,1.6078291E-2,-4.753755E-2,3.734608E-2,-9.977585E-1,-4.938781E-2,-2.4704951E-1,-4.1163526E-2,2.1520898E-2,-3.4090605E-2,8.334877E-1,5.0529357E-2,-1.6826434E0,1.8933905E-2,-1.5328519E0,1.5965203E0,1.4399222E0,-4.2168345E-2,1.1152822E0,-3.977362E-2,-6.3332957E-3,-3.4965627E-2,1.6087652E-3,-1.4356151E-2,4.882771E-2,-3.4016352E-2,-5.0522216E-2,-1.2472013E-2,-4.997766E-2,4.7146168E-2,5.1713146E-2,-1.0089018E-2,3.5519127E-2,5.060484E-2,1.5096211E-2,4.760449E-2],"categories":[],"categories_nodes":[],"categories_segments":[],"categories_sizes":[],"default_left":[0,0,0,0,0,0,0,0,0,0,0,0,0,0,0,0,0,0,0,0,0,0,0,0,0,0,0,0,0,0,0,0,0,0,0,0,0,0,0,0,0,0,0,0,0,0,0,0,0,0,0,0,0,0,0,0,0,0,0,0,0,0,0,0,0,0,0,0,0,0,0,0,0,0,0,0,0,0,0,0,0,0,0,0,0],"id":6,"left_children":[1,3,5,7,9,11,13,15,17,19,21,-1,-1,-1,-1,23,25,27,29,-1,31,-1,33,35,37,39,-1,41,43,45,47,-1,-1,49,51,-1,53,55,57,59,-1,61,63,-1,-1,65,-1,-1,67,-1,-1,-1,-1,69,-1,71,-1,-1,-1,73,-1,75,-1,77,79,81,-1,83,-1,-1,-1,-1,-1,-1,-1,-1,-1,-1,-1,-1,-1,-1,-1,-1,-1],"loss_changes":[6.599268E4,1.5193531E4,3.7422852E3,1.6426836E3,2.4492905E3,2.7714844E1,2.3986816E-2,1.159832E3,6.0047334E3,3.1120605E0,6.2640283E2,0E0,0E0,0E0,0E0,2.9832031E1,3.5079507E2,1.0354219E3,2.8074243E2,0E0,7.614337E0,0E0,9.948291E1,6.25E-2,6.5429363E0,9.646231E1,0E0,4.0617188E1,7.2554565E1,2.391809E1,7.2425735E1,0E0,0E0,8.691406E-2,1.9947498E1,0E0,2.4640045E0,3.155984E0,6.8075337E0,2.3436127E1,0E0,8.927734E0,1.7568459E2,0E0,0E0,8.053912E1,0E0,0E0,1.9026985E1,0E0,0E0,0E0,0E0,1.9340744E0,0E0,4.4048533E-1,0E0,0E0,0E0,8.060666E1,0E0,4.711914E0,0E0,6.426007E1,5.6385612E0,8.294403E0,0E0,4.759674E0,0E0,0E0,0E0,0E0,0E0,0E0,0E0,0E0,0E0,0E0,0E0,0E0,0E0,0E0,0E0,0E0,0E0],"parents":[2147483647,0,0,1,1,2,2,3,3,4,4,5,5,6,6,7,7,8,8,9,9,10,10,15,15,16,16,17,17,18,18,20,20,22,22,23,23,24,24,25,25,27,27,28,28,29,29,30,30,33,33,34,34,36,36,37,37,38,38,39,39,41,41,42,42,45,45,48,48,53,53,55,55,59,59,61,61,63,63,64,64,65,65,67,67],"right_children":[2,4,6,8,10,12,14,16,18,20,22,-1,-1,-1,-1,24,26,28,30,-1,32,-1,34,36,38,40,-1,42,44,46,48,-1,-1,50,52,-1,54,56,58,60,-1,62,64,-1,-1,66,-1,-1,68,-1,-1,-1,-1,70,-1,72,-1,-1,-1,74,-1,76,-1,78,80,82,-1,84,-1,-1,-1,-1,-1,-1,-1,-1,-1,-1,-1,-1,-1,-1,-1,-1,-1],"split_conditions":[-5.2742146E-2,1.5565194E-1,-3.9410585E-1,2.1607E0,-1.980374E-1,9.366294E-3,-3.0580065E-1,-6.6961765E-1,1.0807884E0,-2.1028669E-1,2.1607E0,5.142266E-2,-3.7878916E-2,-1.6510861E-2,-5.128535E-2,-1.216413E-3,-3.9410585E-1,1.44232E0,1.7233512E0,-5.0435152E-2,-2.2186863E-1,-5.0627124E-2,1.8190586E1,-1.077382E-1,-9.4712824E-1,-1.7096378E-2,-5.0307877E-2,8.3090293E-1,-2.2186866E-1,-1.2060426E0,-1.8084956E-2,3.0849036E-2,-3.988717E-2,-2.5228846E-1,-3.0580088E-1,-5.1115934E-2,-3.9410585E-1,3.2762E-2,5.9856825E0,-3.5712412E-1,-4.749221E-2,3.4690447E0,-1.187426E0,5.0960697E-2,-4.522602E-2,-2.2186866E-1,5.143589E-2,-4.7452446E-2,4.5791855E0,5.146963E-2,1.6078291E-2,-4.753755E-2,3.734608E-2,-9.381013E-2,-4.938781E-2,1.5250159E-2,-4.1163526E-2,2.1520898E-2,-3.4090605E-2,-5.0475407E-1,5.0529357E-2,9.836616E0,1.8933905E-2,6.9001925E-1,-2.2546619E-1,-1.1064714E-1,-4.2168345E-2,-2.2186866E-1,-3.977362E-2,-6.3332957E-3,-3.4965627E-2,1.6087652E-3,-1.4356151E-2,4.882771E-2,-3.4016352E-2,-5.0522216E-2,-1.2472013E-2,-4.997766E-2,4.7146168E-2,5.1713146E-2,-1.0089018E-2,3.5519127E-2,5.060484E-2,1.5096211E-2,4.760449E-2],"split_indices":[9,27,37,19,37,8,2,9,37,37,19,0,0,0,0,1,37,3,37,0,1,0,25,1,9,6,0,37,1,9,6,0,0,11,2,0,37,1,23,9,0,17,9,0,0,1,0,0,37,0,0,0,0,1,0,1,0,0,0,4,0,25,0,15,16,0,0,1,0,0,0,0,0,0,0,0,0,0,0,0,0,0,0,0,0],"split_type":[0,0,0,0,0,0,0,0,0,0,0,0,0,0,0,0,0,0,0,0,0,0,0,0,0,0,0,0,0,0,0,0,0,0,0,0,0,0,0,0,0,0,0,0,0,0,0,0,0,0,0,0,0,0,0,0,0,0,0,0,0,0,0,0,0,0,0,0,0,0,0,0,0,0,0,0,0,0,0,0,0,0,0,0,0],"sum_hessian":[3.423179E4,1.988688E4,1.4344909E4,1.7587016E4,2.2998652E3,1.4018332E4,3.2657697E2,1.3494504E4,4.0925117E3,2.5713156E2,2.0427336E3,1.4015872E4,2.460174E0,1.1944745E0,3.2538248E2,1.3266404E4,2.2809991E2,3.2630154E3,8.294962E2,2.5278043E2,4.351141E0,5.5464123E1,1.9872695E3,1.3247854E4,1.8550667E1,1.7563094E2,5.2468975E1,3.154998E3,1.08017365E2,7.740123E2,5.5483913E1,1.1690615E0,3.1820796E0,1.9743922E3,1.2877317E1,1.3202495E4,4.5358166E1,1.035344E1,8.197226E0,1.6513606E2,1.049487E1,2.9872122E3,1.6778589E2,1.01190285E2,6.827077E0,1.7167076E2,6.0234155E2,3.4274025E1,2.120989E1,1.9732145E3,1.1777396E0,1.050018E1,2.377137E0,1.5519873E1,2.9838291E1,4.959857E0,5.393584E0,6.471847E0,1.7253789E0,4.94139E1,1.1572217E2,2.986015E3,1.1971413E0,1.4821759E2,1.95683E1,1.6185208E2,9.818692E0,1.8258125E1,2.9517646E0,3.1249886E0,1.2394884E1,2.491742E0,2.4681149E0,3.5327217E1,1.4086683E1,2.9823184E3,3.696666E0,1.4256969E2,5.647901E0,1.8461037E1,1.107263E0,8.231579E1,7.9536285E1,8.844583E0,9.413543E0],"tree_param":{"num_deleted":"0","num_feature":"38","num_nodes":"85","size_leaf_vector":"1"}},{"base_weights":[1.485993E-3,-1.1531061E0,1.60425E0,-1.4642373E0,1.2158544E0,1.6776838E0,-1.6691126E0,-1.6281521E0,-9.2036176E-1,-1.6264904E0,1.5649372E0,5.034863E-2,-3.7208445E-2,-1.6157733E-2,-5.0151262E-2,-1.6657311E0,5.6995475E-1,-1.517605E0,1.4251796E0,-4.93437E-2,-5.20149E-1,-4.963892E-2,1.6618524E0,-1.6675574E0,-6.092618E-1,1.1863469E0,-4.934439E-2,-1.6191561E0,1.4362642E0,1.5811044E0,-7.05901E-1,3.2139786E-2,-3.9161965E-2,1.678803E0,-7.9146624E-1,-5.004922E-2,-1.4042588E0,-2.2395936E-1,-4.3206852E-2,-1.18318E0,1.4023466E0,-1.6468116E0,-1.123151E0,4.989499E-2,-4.4723477E-2,1.2384126E0,5.0364967E-2,-1.2136133E0,4.7361013E-2,5.0375763E-2,1.4510995E-2,3.8919453E-2,-4.6375323E-2,-9.210279E-1,-4.8456684E-2,-5.749536E-1,1.8455882E-1,-1.4339923E0,3.269077E-2,8.34992E-1,4.888871E-2,-1.6482348E0,2.3067502E-2,-1.509386E0,1.5723708E0,1.3977256E0,-4.02944E-2,-6.2833536E-1,-4.9229942E-2,-2.2467196E-3,-3.4355458E-2,2.6625264E-3,-3.832847E-2,1.9525455E-2,-3.3748537E-2,-3.3049465E-3,-4.7032572E-2,4.776455E-2,-3.5355862E-2,5.6038965E-3,-4.9468976E-2,-4.901687E-2,4.6340007E-2,5.0782904E-2,-1.2313204E-2,3.4312468E-2,4.9778916E-2,-4.3241516E-2,1.8229956E-2],"categories":[],"categories_nodes":[],"categories_segments":[],"categories_sizes":[],"default_left":[0,0,0,0,0,0,0,0,0,0,0,0,0,0,0,0,0,0,0,0,0,0,0,0,0,0,0,0,0,0,0,0,0,0,0,0,0,0,0,0,0,0,0,0,0,0,0,0,0,0,0,0,0,0,0,0,0,0,0,0,0,0,0,0,0,0,0,0,0,0,0,0,0,0,0,0,0,0,0,0,0,0,0,0,0,0,0,0,0],"id":7,"left_children":[1,3,5,7,9,11,13,15,17,19,21,-1,-1,-1,-1,23,25,27,29,-1,31,-1,33,35,37,39,-1,41,43,45,47,-1,-1,49,51,-1,53,55,-1,57,59,61,63,-1,-1,65,-1,67,-1,-1,-1,-1,-1,69,-1,71,73,75,-1,77,-1,79,-1,81,83,85,-1,87,-1,-1,-1,-1,-1,-1,-1,-1,-1,-1,-1,-1,-1,-1,-1,-1,-1,-1,-1,-1,-1],"loss_changes":[6.273894E4,1.45268125E4,3.415246E3,1.5514375E3,2.2730303E3,2.6546875E1,1.5319824E-2,1.1065078E3,5.6566143E3,4.2218018E0,6.388174E2,0E0,0E0,0E0,0E0,2.4375E1,3.100879E2,9.6753613E2,2.7349744E2,0E0,8.325907E0,0E0,8.364404E1,2.5E-1,7.452711E0,9.232913E1,0E0,4.0828125E1,7.3859116E1,2.3512085E1,6.754221E1,0E0,0E0,1.0253906E-1,2.4478855E1,0E0,2.9601364E0,2.6549072E0,0E0,1.0308577E1,1.963321E1,1.1392578E1,1.767108E2,0E0,0E0,7.3180786E1,0E0,1.0689499E1,0E0,0E0,0E0,0E0,0E0,2.870304E0,0E0,4.685546E0,6.2103577E0,2.3504562E0,0E0,7.5996124E1,0E0,4.2563477E0,0E0,5.8413452E1,5.821621E0,8.982849E0,0E0,2.2377079E1,0E0,0E0,0E0,0E0,0E0,0E0,0E0,0E0,0E0,0E0,0E0,0E0,0E0,0E0,0E0,0E0,0E0,0E0,0E0,0E0,0E0],"parents":[2147483647,0,0,1,1,2,2,3,3,4,4,5,5,6,6,7,7,8,8,9,9,10,10,15,15,16,16,17,17,18,18,20,20,22,22,23,23,24,24,25,25,27,27,28,28,29,29,30,30,33,33,34,34,36,36,37,37,39,39,40,40,41,41,42,42,45,45,47,47,53,53,55,55,56,56,57,57,59,59,61,61,63,63,64,64,65,65,67,67],"right_children":[2,4,6,8,10,12,14,16,18,20,22,-1,-1,-1,-1,24,26,28,30,-1,32,-1,34,36,38,40,-1,42,44,46,48,-1,-1,50,52,-1,54,56,-1,58,60,62,64,-1,-1,66,-1,68,-1,-1,-1,-1,-1,70,-1,72,74,76,-1,78,-1,80,-1,82,84,86,-1,88,-1,-1,-1,-1,-1,-1,-1,-1,-1,-1,-1,-1,-1,-1,-1,-1,-1,-1,-1,-1,-1],"split_conditions":[-5.2742146E-2,1.5565194E-1,-3.9410585E-1,2.1607E0,-1.980374E-1,9.366294E-3,-3.058006E-1,-6.6961765E-1,1.0807884E0,-2.1028669E-1,2.1607E0,5.034863E-2,-3.7208445E-2,-1.6157733E-2,-5.0151262E-2,-2.5020115E-2,3.0881488E0,1.44232E0,1.7233512E0,-4.93437E-2,-2.2186863E-1,-4.963892E-2,-4.4469167E-2,-1.077382E-1,3.0881488E0,-2.2185987E-1,-4.934439E-2,8.3090293E-1,-2.2186866E-1,-1.2060426E0,-2.2186866E-1,3.2139786E-2,-3.9161965E-2,-3.0579957E-1,6.641847E0,-5.004922E-2,5.9856825E0,-9.4712824E-1,-4.3206852E-2,1.3041321E0,-3.5712412E-1,2.3609116E0,-1.187426E0,4.989499E-2,-4.4723477E-2,-2.2186866E-1,5.0364967E-2,3.0881488E0,4.7361013E-2,5.0375763E-2,1.4510995E-2,3.8919453E-2,-4.6375323E-2,-9.381013E-2,-4.8456684E-2,3.2762E-2,-1.0791393E-1,8.00323E-1,3.269077E-2,-4.8475882E-1,4.888871E-2,-4.983969E-1,2.3067502E-2,4.2066136E-1,-2.2546613E-1,7.303396E-1,-4.02944E-2,-4.9868345E-1,-4.9229942E-2,-2.2467196E-3,-3.4355458E-2,2.6625264E-3,-3.832847E-2,1.9525455E-2,-3.3748537E-2,-3.3049465E-3,-4.7032572E-2,4.776455E-2,-3.5355862E-2,5.6038965E-3,-4.9468976E-2,-4.901687E-2,4.6340007E-2,5.0782904E-2,-1.2313204E-2,3.4312468E-2,4.9778916E-2,-4.3241516E-2,1.8229956E-2],"split_indices":[28,27,37,19,37,8,2,28,37,37,19,0,0,0,0,1,21,3,37,0,1,0,36,1,21,1,0,37,1,28,1,0,0,2,24,0,23,28,0,5,28,14,28,0,0,1,0,21,0,0,0,0,0,1,0,1,7,3,0,15,0,3,0,14,16,26,0,3,0,0,0,0,0,0,0,0,0,0,0,0,0,0,0,0,0,0,0,0,0],"split_type":[0,0,0,0,0,0,0,0,0,0,0,0,0,0,0,0,0,0,0,0,0,0,0,0,0,0,0,0,0,0,0,0,0,0,0,0,0,0,0,0,0,0,0,0,0,0,0,0,0,0,0,0,0,0,0,0,0,0,0,0,0,0,0,0,0,0,0,0,0,0,0,0,0,0,0,0,0,0,0,0,0,0,0,0,0,0,0,0,0],"sum_hessian":[3.390107E4,1.9705783E4,1.4195286E4,1.7418482E4,2.2873022E3,1.3884297E4,3.1099002E2,1.3383063E4,4.035418E3,2.4978807E2,2.0375143E3,1.3881849E4,2.4475775E0,1.1901586E0,3.0979987E2,1.315835E4,2.2471373E2,3.216704E3,8.1871375E2,2.4524484E2,4.5432234E0,5.907108E1,1.9784431E3,1.3135065E4,2.3284538E1,1.7615294E2,4.8560783E1,3.1102295E3,1.0647477E2,7.631355E2,5.5578285E1,1.3806766E0,3.1625466E0,1.9651809E3,1.3262213E1,1.3092436E4,4.2629753E1,1.6775564E1,6.5089746E0,1.43420725E1,1.6181087E2,2.9437751E3,1.6645427E2,9.921547E1,7.259303E0,1.7237128E2,5.907642E2,4.585632E1,9.721969E0,1.9641361E3,1.0447748E0,3.3279119E0,9.9343E0,1.4585719E1,2.8044035E1,8.803921E0,7.971643E0,1.3249112E1,1.0929605E0,4.761723E1,1.1419364E2,2.9423591E3,1.4159014E0,1.4597752E2,2.0476742E1,1.6278413E2,9.587143E0,2.0395752E1,2.5460566E1,3.3341315E0,1.1251588E1,4.97677E0,3.8271503E0,6.249358E0,1.722285E0,1.3831959E0,1.1865916E1,3.4756676E1,1.2860553E1,1.0701504E0,2.941289E3,1.4070612E2,5.271398E0,1.9442509E1,1.0342332E0,8.531703E1,7.74671E1,1.2202625E1,8.193128E0],"tree_param":{"num_deleted":"0","num_feature":"38","num_nodes":"89","size_leaf_vector":"1"}},{"base_weights":[-1.541607E-3,-1.1323029E0,1.5701396E0,-1.4545168E0,1.0292617E0,1.6444379E0,-1.6362692E0,-1.5952357E0,-9.784922E-1,-4.879975E-2,1.4766575E0,4.934919E-2,-3.5420224E-2,-4.919335E-2,-7.936845E-3,-1.6296302E0,7.2842115E-1,-1.479497E0,1.3511949E0,1.6255758E0,-4.9031615E-2,-1.6319792E0,4.4461626E-1,1.3883826E0,-4.8386414E-2,-1.5595466E0,-1.7102765E-1,1.5269864E0,-6.476378E-1,1.6419998E0,-1.2566377E0,-1.6328205E0,-8.3621395E-1,9.924558E-1,-3.8664065E-2,8.041699E-1,1.5640049E0,-1.5683463E0,-9.226152E-2,4.9329776E-2,-4.8999075E-2,8.4984124E-1,4.9357448E-2,-1.1711869E0,4.6545748E-2,4.9329948E-2,-2.986568E-2,-4.5659576E-2,2.6128776E-2,-1.6371206E0,-1.5675825E0,-5.4017365E-1,-4.1382726E-2,-1.7471036E-2,1.2156265E0,4.6826124E-2,-1.0497792E0,4.8172873E-2,-3.0145368E-2,-1.4165004E0,-1.6284187E0,4.5257997E-2,-4.5339823E-2,-3.668689E-1,5.0869912E-2,-1.3570213E0,4.005086E-2,-4.913685E-2,-4.140813E-2,-4.784211E-2,1.4650237E-2,2.9087259E-2,-2.3530573E-2,9.816857E-3,3.9666522E-2,3.7552737E-2,-4.6231683E-2,-4.8642505E-2,5.433627E-2,2.4594726E-2,-4.8904225E-2,-5.1072527E-2,1.1442321E-2,-4.7188036E-2,-1.8607631E-2],"categories":[],"categories_nodes":[],"categories_segments":[],"categories_sizes":[],"default_left":[0,0,0,0,0,0,0,0,0,0,0,0,0,0,0,0,0,0,0,0,0,0,0,0,0,0,0,0,0,0,0,0,0,0,0,0,0,0,0,0,0,0,0,0,0,0,0,0,0,0,0,0,0,0,0,0,0,0,0,0,0,0,0,0,0,0,0,0,0,0,0,0,0,0,0,0,0,0,0,0,0,0,0,0,0],"id":8,"left_children":[1,3,5,7,9,11,13,15,17,-1,19,-1,-1,-1,-1,21,23,25,27,29,-1,31,33,35,-1,37,39,41,43,45,47,49,51,53,-1,55,57,59,61,-1,-1,63,-1,65,-1,-1,-1,-1,-1,67,69,71,-1,-1,73,-1,75,-1,-1,77,79,-1,-1,81,-1,83,-1,-1,-1,-1,-1,-1,-1,-1,-1,-1,-1,-1,-1,-1,-1,-1,-1,-1,-1],"loss_changes":[5.9843133E4,1.3641023E4,3.3592227E3,1.1400938E3,3.0218335E3,2.2761719E1,1.1045532E0,1.0523867E3,4.5438086E3,0E0,1.010438E3,0E0,0E0,0E0,0E0,6.3882812E1,2.9974744E2,3.3522607E2,2.4317114E2,1.0035498E2,0E0,7.296875E0,1.5949006E1,1.4208252E1,0E0,3.8824707E1,4.9584943E2,4.9358276E1,6.677562E1,1.4337891E1,8.287437E0,1.0664062E0,1.7832022E0,5.031927E0,0E0,5.340379E1,1.3932404E1,2.5061035E1,4.5569054E1,0E0,0E0,9.973174E1,0E0,2.3300762E1,0E0,0E0,0E0,0E0,0E0,1.4648438E-1,4.6739258E1,5.117905E0,0E0,0E0,6.1844444E-1,0E0,1.4698103E1,0E0,0E0,5.7052295E2,1.0372559E1,0E0,0E0,4.0939514E1,0E0,5.936386E0,0E0,0E0,0E0,0E0,0E0,0E0,0E0,0E0,0E0,0E0,0E0,0E0,0E0,0E0,0E0,0E0,0E0,0E0,0E0],"parents":[2147483647,0,0,1,1,2,2,3,3,4,4,5,5,6,6,7,7,8,8,10,10,15,15,16,16,17,17,18,18,19,19,21,21,22,22,23,23,25,25,26,26,27,27,28,28,29,29,30,30,31,31,32,32,33,33,35,35,36,36,37,37,38,38,41,41,43,43,49,49,50,50,51,51,54,54,56,56,59,59,60,60,63,63,65,65],"right_children":[2,4,6,8,10,12,14,16,18,-1,20,-1,-1,-1,-1,22,24,26,28,30,-1,32,34,36,-1,38,40,42,44,46,48,50,52,54,-1,56,58,60,62,-1,-1,64,-1,66,-1,-1,-1,-1,-1,68,70,72,-1,-1,74,-1,76,-1,-1,78,80,-1,-1,82,-1,84,-1,-1,-1,-1,-1,-1,-1,-1,-1,-1,-1,-1,-1,-1,-1,-1,-1,-1,-1],"split_conditions":[-5.2742146E-2,1.0311204E0,-3.9410585E-1,2.1607E0,2.1607E0,9.366294E-3,-1.7284878E-2,-5.166066E-1,1.0807884E0,-4.879975E-2,-2.2186866E-1,4.934919E-2,-3.5420224E-2,-4.919335E-2,-7.936845E-3,7.233433E-2,3.0881488E0,8.00323E-1,1.7233512E0,1.8190586E1,-4.9031615E-2,-2.5020115E-2,3.0881488E0,-3.5712412E-1,-4.8386414E-2,9.049647E0,-2.2186866E-1,-1.2060426E0,-2.2184387E-1,3.0881488E0,-3.0580088E-1,-1.8084956E-2,-1.0791393E-1,-2.6886168E-1,-3.8664065E-2,-5.0475407E-1,-1.7096378E-2,-2.6886168E-1,-2.2186863E-1,4.9329776E-2,-4.8999075E-2,-3.0549023E-1,4.9357448E-2,-1.7896455E-2,4.6545748E-2,4.9329948E-2,-2.986568E-2,-4.5659576E-2,2.6128776E-2,-1.077382E-1,-2.1733344E-1,3.314899E0,-4.1382726E-2,-1.7471036E-2,-8.483964E-1,4.6826124E-2,-1.077382E-1,4.8172873E-2,-3.0145368E-2,-1.187426E0,-4.8369768E-1,4.5257997E-2,-4.5339823E-2,-1.0791393E-1,5.0869912E-2,-1.8084956E-2,4.005086E-2,-4.913685E-2,-4.140813E-2,-4.784211E-2,1.4650237E-2,2.9087259E-2,-2.3530573E-2,9.816857E-3,3.9666522E-2,3.7552737E-2,-4.6231683E-2,-4.8642505E-2,5.433627E-2,2.4594726E-2,-4.8904225E-2,-5.1072527E-2,1.1442321E-2,-4.7188036E-2,-1.8607631E-2],"split_indices":[28,3,37,19,19,8,6,28,37,0,1,0,0,0,0,1,21,3,37,25,0,1,21,28,0,25,1,28,1,21,2,6,7,32,0,4,6,32,1,0,0,2,0,6,0,0,0,0,0,1,1,2,0,0,28,0,1,0,0,28,15,0,0,7,0,6,0,0,0,0,0,0,0,0,0,0,0,0,0,0,0,0,0,0,0],"split_type":[0,0,0,0,0,0,0,0,0,0,0,0,0,0,0,0,0,0,0,0,0,0,0,0,0,0,0,0,0,0,0,0,0,0,0,0,0,0,0,0,0,0,0,0,0,0,0,0,0,0,0,0,0,0,0,0,0,0,0,0,0,0,0,0,0,0,0,0,0,0,0,0,0,0,0,0,0,0,0,0,0,0,0,0,0],"sum_hessian":[3.3670773E4,1.9582346E4,1.4088428E4,1.7042266E4,2.5400798E3,1.3769844E4,3.1858472E2,1.3152012E4,3.8902537E3,3.6581573E2,2.1742642E3,1.3767653E4,2.190242E0,3.1757684E2,1.0078697E0,1.2960471E4,1.9154086E2,3.2020173E3,6.8823645E2,2.0753972E3,9.886681E1,1.2946023E4,1.4447964E1,1.4973958E2,4.180129E1,3.0172363E3,1.8478084E2,6.3281805E2,5.5418438E1,2.0640657E3,1.1331593E1,1.2931301E4,1.4722261E1,1.1303119E1,3.144845E0,3.589911E1,1.1384047E2,2.999181E3,1.8055567E1,8.2382225E1,1.0239861E2,9.530516E1,5.375129E2,4.5139603E1,1.0278832E1,2.0626187E3,1.4469905E0,1.032814E1,1.0034527E0,1.2109044E4,8.2225635E2,1.0819972E1,3.9022894E0,1.2031893E0,1.0099929E1,2.5605959E1,1.029315E1,1.1238846E2,1.4520068E0,8.5714465E2,2.1420361E3,8.454676E0,9.600891E0,3.931584E1,5.598932E1,4.2450466E1,2.6891382E0,1.206728E4,4.1763783E1,8.11759E2,1.0497356E1,1.0927535E0,9.727219E0,1.5179884E0,8.581941E0,1.5383432E0,8.754807E0,8.064439E2,5.070075E1,1.171856E0,2.1408643E3,1.3660005E1,2.5655836E1,3.1951885E1,1.049858E1],"tree_param":{"num_deleted":"0","num_feature":"38","num_nodes":"85","size_leaf_vector":"1"}},{"base_weights":[-7.054855E-4,-1.1096265E0,1.5399418E0,-1.4072372E0,1.1699649E0,1.6133786E0,-1.6062723E0,-1.444196E0,3.3368304E-1,-1.5711766E0,1.5051156E0,4.8417237E-2,-3.4837782E-2,-4.8291598E-2,-7.823175E-3,-8.5889846E-1,-1.5414783E0,1.3664328E0,-1.566476E0,-4.755783E-2,-5.7151204E-1,1.5946336E0,-4.7698297E-2,1.1634161E0,-4.8117448E-2,-1.5916214E0,-1.0961778E0,1.5050559E0,-4.0709265E-2,-4.794443E-2,-8.879082E-3,2.7803347E-2,-3.687926E-2,4.84388E-2,-1.0820143E0,-8.684576E-2,1.5535108E0,-1.5940014E0,-1.0491683E0,-2.9360715E-1,-4.8340008E-2,-4.1458666E-2,4.8242826E-2,2.4700893E-2,-2.670175E-2,-4.5595117E-2,3.383646E-2,-9.3403965E-1,1.4601196E0,1.2137142E0,4.863555E-2,-1.5575695E0,-4.832948E-2,1.4748071E0,-4.7580227E-2,1.3784844E0,-1.5229707E0,-1.3011701E-2,-4.6950154E-2,1.8045703E-3,4.678442E-2,-1.165164E-2,4.427433E-2,-4.6998933E-2,2.90749E-2,1.9221245E-3,4.843792E-2,6.7071426E-3,4.6572868E-2,-4.7495324E-2,4.203521E-2],"categories":[],"categories_nodes":[],"categories_segments":[],"categories_sizes":[],"default_left":[0,0,0,0,0,0,0,0,0,0,0,0,0,0,0,0,0,0,0,0,0,0,0,0,0,0,0,0,0,0,0,0,0,0,0,0,0,0,0,0,0,0,0,0,0,0,0,0,0,0,0,0,0,0,0,0,0,0,0,0,0,0,0,0,0,0,0,0,0,0,0],"id":9,"left_children":[1,3,5,7,9,11,13,15,17,19,21,-1,-1,-1,-1,23,25,27,29,-1,31,33,-1,35,-1,37,39,41,-1,-1,43,-1,-1,-1,45,47,49,51,53,55,-1,-1,-1,-1,-1,-1,-1,57,59,61,-1,63,-1,65,-1,67,69,-1,-1,-1,-1,-1,-1,-1,-1,-1,-1,-1,-1,-1,-1],"loss_changes":[5.6843883E4,1.3127074E4,3.2200117E3,1.101582E3,2.0553503E3,2.1859375E1,1.0558472E0,9.5283203E2,7.0185364E2,2.5286865E0,5.5436914E2,0E0,0E0,0E0,0E0,3.603629E3,3.1907422E2,8.945572E1,6.2026367E0,0E0,6.0208855E0,1.0536426E2,0E0,3.1430664E2,0E0,1.4998047E1,6.020757E2,6.790463E1,0E0,0E0,3.3120372E0,0E0,0E0,0E0,1.6183033E1,2.0337154E2,9.32373E0,5.4433594E0,8.272544E1,1.1757937E3,0E0,0E0,0E0,0E0,0E0,0E0,0E0,3.0953743E1,7.5474396E0,3.648787E1,0E0,9.576953E1,0E0,2.050766E0,0E0,4.8358673E1,6.0231873E1,0E0,0E0,0E0,0E0,0E0,0E0,0E0,0E0,0E0,0E0,0E0,0E0,0E0,0E0],"parents":[2147483647,0,0,1,1,2,2,3,3,4,4,5,5,6,6,7,7,8,8,9,9,10,10,15,15,16,16,17,17,18,18,20,20,21,21,23,23,25,25,26,26,27,27,30,30,34,34,35,35,36,36,37,37,38,38,39,39,47,47,48,48,49,49,51,51,53,53,55,55,56,56],"right_children":[2,4,6,8,10,12,14,16,18,20,22,-1,-1,-1,-1,24,26,28,30,-1,32,34,-1,36,-1,38,40,42,-1,-1,44,-1,-1,-1,46,48,50,52,54,56,-1,-1,-1,-1,-1,-1,-1,58,60,62,-1,64,-1,66,-1,68,70,-1,-1,-1,-1,-1,-1,-1,-1,-1,-1,-1,-1,-1,-1],"split_conditions":[-5.2742146E-2,1.5565194E-1,-3.9410585E-1,1.44232E0,-1.980374E-1,9.366294E-3,-1.7284878E-2,-4.9865082E-1,-1.1520544E0,-2.1028669E-1,3.0881488E0,4.8417237E-2,-3.4837782E-2,-4.8291598E-2,-7.823175E-3,3.0881488E0,-1.1210058E-1,3.0881488E0,-9.129094E-2,-4.755783E-2,-2.2186863E-1,1.8190586E1,-4.7698297E-2,-4.9868196E-1,-4.8117448E-2,1.145156E0,3.0881488E0,-3.9410585E-1,-4.0709265E-2,-4.794443E-2,-2.2186854E-1,2.7803347E-2,-3.687926E-2,4.84388E-2,-2.611348E-2,7.233433E-2,-2.611348E-2,-1.1520544E0,-2.2186866E-1,-8.608852E-2,-4.8340008E-2,-4.1458666E-2,4.8242826E-2,2.4700893E-2,-2.670175E-2,-4.5595117E-2,3.383646E-2,-1.0791393E-1,-8.12999E-1,-2.2186866E-1,4.863555E-2,9.885233E-1,-4.832948E-2,-1.0458221E-1,-4.7580227E-2,-1.2060426E0,-6.6961765E-1,-1.3011701E-2,-4.6950154E-2,1.8045703E-3,4.678442E-2,-1.165164E-2,4.427433E-2,-4.6998933E-2,2.90749E-2,1.9221245E-3,4.843792E-2,6.7071426E-3,4.6572868E-2,-4.7495324E-2,4.203521E-2],"split_indices":[9,27,37,3,37,8,6,3,9,37,21,0,0,0,0,21,36,21,36,0,1,25,0,3,0,3,21,37,0,0,1,0,0,0,8,1,8,9,1,36,0,0,0,0,0,0,0,7,9,1,0,26,0,24,0,9,9,0,0,0,0,0,0,0,0,0,0,0,0,0,0],"split_type":[0,0,0,0,0,0,0,0,0,0,0,0,0,0,0,0,0,0,0,0,0,0,0,0,0,0,0,0,0,0,0,0,0,0,0,0,0,0,0,0,0,0,0,0,0,0,0,0,0,0,0,0,0,0,0,0,0,0,0,0,0,0,0,0,0,0,0,0,0,0,0],"sum_hessian":[3.327008E4,1.934575E4,1.3924327E4,1.7112076E4,2.233674E3,1.3607204E4,3.1712305E2,1.6756514E4,3.5556198E2,2.4294879E2,1.9907252E3,1.3605027E4,2.176972E0,3.1611667E2,1.0063916E0,2.3895645E3,1.4366949E4,2.305418E2,1.25020195E2,2.3899574E2,3.9530592E0,1.9352374E3,5.548781E1,6.431636E2,1.7464009E3,1.2910578E4,1.4563713E3,2.1980115E2,1.0740648E1,1.2250321E2,2.5169837E0,1.0812774E0,2.8717818E0,1.9212832E3,1.3954201E1,1.5313617E2,4.900274E2,1.2852251E4,5.8327103E1,5.6997174E2,8.863996E2,7.14671E0,2.1265443E2,1.3281788E0,1.188805E0,1.1907379E1,2.0468218E0,9.920363E1,5.393255E1,8.4530334E1,4.0549707E2,4.1154995E3,8.736751E3,9.923603E0,4.84035E1,2.4144897E2,3.2852277E2,5.627135E1,4.2932274E1,3.6805212E0,5.025203E1,1.1816786E1,7.2713554E1,4.101172E3,1.4327887E1,1.0261569E0,8.897446E0,3.1904287E1,2.095447E2,3.2234442E2,6.1783395E0],"tree_param":{"num_deleted":"0","num_feature":"38","num_nodes":"71","size_leaf_vector":"1"}},{"base_weights":[3.0017742E-3,-1.0868936E0,1.5126407E0,-1.3801484E0,1.145085E0,1.5816308E0,-1.5706221E0,-1.5371987E0,-8.6197686E-1,1.462469E0,-4.7528878E-2,4.754644E-2,-4.3483205E-2,-6.9985674E-3,-4.729411E-2,-1.5724816E0,5.36623E-1,4.2230353E-1,-1.5644518E0,-1.5121697E0,1.5690795E0,-1.5734518E0,-1.096942E0,1.1345366E0,-4.641075E-2,1.2163012E0,-1.0476696E0,4.48252E-2,-1.5667181E0,2.7392976E-2,-4.69887E-2,4.7592513E-2,1.1557379E0,-1.5318229E0,-4.7395386E-2,6.53147E-1,-4.5876995E-2,1.3018925E0,-1.1907792E0,3.4857452E-1,4.783355E-2,-1.5617042E0,4.8520595E-2,-4.7035646E-2,9.22321E-3,4.687908E-2,-4.1392945E-2,-6.0015017E-1,-4.6920322E-2,3.3635147E-2,-2.0112012E-2,7.266281E-1,1.5324589E0,-4.4188634E-2,2.2051979E-2,-2.0371717E-1,4.7242485E-2,-4.6935312E-2,-1.496795E-2,-2.2849888E-2,3.0942177E-2,4.4177424E-2,-3.513062E-2,4.63965E-2,8.546383E-3,2.3911038E-2,-2.9862924E-2],"categories":[],"categories_nodes":[],"categories_segments":[],"categories_sizes":[],"default_left":[0,0,0,0,0,0,0,0,0,0,0,0,0,0,0,0,0,0,0,0,0,0,0,0,0,0,0,0,0,0,0,0,0,0,0,0,0,0,0,0,0,0,0,0,0,0,0,0,0,0,0,0,0,0,0,0,0,0,0,0,0,0,0,0,0,0,0],"id":10,"left_children":[1,3,5,7,9,11,13,15,17,19,-1,-1,-1,-1,-1,21,23,25,27,29,31,33,35,37,-1,39,41,-1,43,-1,-1,-1,45,47,-1,49,-1,51,53,55,-1,57,-1,-1,-1,-1,-1,59,-1,-1,-1,61,63,-1,-1,65,-1,-1,-1,-1,-1,-1,-1,-1,-1,-1,-1],"loss_changes":[5.3969184E4,1.2469695E4,2.9278125E3,1.3688574E3,1.9190686E3,1.3483203E2,1.9901733E0,9.4617773E2,3.5357573E3,6.3114014E2,0E0,0E0,0E0,0E0,0E0,4.1328125E0,2.719483E2,1.6192516E3,1.990039E1,1.0501282E1,1.1886719E1,9.5703125E-1,2.3063679E1,6.735474E1,0E0,2.9494128E2,6.6927875E2,0E0,5.8759766E0,0E0,0E0,0E0,8.547394E1,5.0663086E1,0E0,4.7643433E0,0E0,1.9872284E1,7.536026E0,1.8629161E2,0E0,4.3792725E-1,0E0,0E0,0E0,0E0,0E0,1.6355534E1,0E0,0E0,0E0,6.849921E1,1.5292053E0,0E0,0E0,1.515066E2,0E0,0E0,0E0,0E0,0E0,0E0,0E0,0E0,0E0,0E0,0E0],"parents":[2147483647,0,0,1,1,2,2,3,3,4,4,5,5,6,6,7,7,8,8,9,9,15,15,16,16,17,17,18,18,19,19,20,20,21,21,22,22,23,23,25,25,26,26,28,28,32,32,33,33,35,35,37,37,38,38,39,39,41,41,47,47,51,51,52,52,55,55],"right_children":[2,4,6,8,10,12,14,16,18,20,-1,-1,-1,-1,-1,22,24,26,28,30,32,34,36,38,-1,40,42,-1,44,-1,-1,-1,46,48,-1,50,-1,52,54,56,-1,58,-1,-1,-1,-1,-1,60,-1,-1,-1,62,64,-1,-1,66,-1,-1,-1,-1,-1,-1,-1,-1,-1,-1,-1],"split_conditions":[-5.2742146E-2,1.5565194E-1,2.3631003E0,2.1607E0,-2.6886168E-1,3.0881488E0,3.5775018E0,-6.6961765E-1,4.484607E-2,2.1607E0,-4.7528878E-2,4.754644E-2,-4.3483205E-2,-6.9985674E-3,-4.729411E-2,-8.483964E-1,3.0881488E0,-9.770405E-2,-2.248812E-1,4.9132848E-1,5.7746534E0,-5.0475407E-1,-1.0791393E-1,8.00323E-1,-4.641075E-2,-1.187426E0,6.9001925E-1,4.48252E-2,3.4690447E0,2.7392976E-2,-4.69887E-2,4.7592513E-2,-5.686453E-2,3.0881488E0,-4.7395386E-2,3.0881488E0,-4.5876995E-2,-3.5712412E-1,4.568465E-1,7.303396E-1,4.783355E-2,4.90562E-1,4.8520595E-2,-4.7035646E-2,9.22321E-3,4.687908E-2,-4.1392945E-2,-2.6886168E-1,-4.6920322E-2,3.3635147E-2,-2.0112012E-2,-5.0475407E-1,-3.7734324E-1,-4.4188634E-2,2.2051979E-2,-3.952129E-1,4.7242485E-2,-4.6935312E-2,-1.496795E-2,-2.2849888E-2,3.0942177E-2,4.4177424E-2,-3.513062E-2,4.63965E-2,8.546383E-3,2.3911038E-2,-2.9862924E-2],"split_indices":[9,27,11,19,32,21,11,9,8,19,0,0,0,0,0,9,21,7,16,3,27,4,7,3,0,9,15,0,17,0,0,0,7,21,0,21,0,9,0,26,0,26,0,0,0,0,0,32,0,0,0,4,0,0,0,0,0,0,0,0,0,0,0,0,0,0,0],"split_type":[0,0,0,0,0,0,0,0,0,0,0,0,0,0,0,0,0,0,0,0,0,0,0,0,0,0,0,0,0,0,0,0,0,0,0,0,0,0,0,0,0,0,0,0,0,0,0,0,0,0,0,0,0,0,0,0,0,0,0,0,0,0,0,0,0,0,0],"sum_hessian":[3.279907E4,1.904771E4,1.3751359E4,1.6836041E4,2.2116697E3,1.3450874E4,3.0048532E2,1.2918625E4,3.9174163E3,1.9816941E3,2.2997568E2,1.3436941E4,1.3932711E1,1.4863483E0,2.9899896E2,1.2702749E4,2.1587598E2,1.3852571E3,2.5321592E3,6.810996E1,1.9135841E3,1.2674584E4,2.8165178E1,1.6809558E2,4.7780396E1,8.9954535E2,4.8571173E2,1.3874459E0,2.5307717E3,1.140261E0,6.69697E1,1.8338256E3,7.975854E1,1.719706E3,1.0954878E4,5.4778285E0,2.268735E1,1.5722035E2,1.0875227E1,2.7361472E2,6.2593066E2,4.0752213E2,7.81896E1,2.529401E3,1.3707563E0,6.905955E1,1.0698993E1,5.808516E1,1.6616208E3,4.1597776E0,1.3180506E0,4.6172115E1,1.1104824E2,9.690533E0,1.1846944E0,1.8922029E2,8.4394424E1,4.05978E2,1.5441142E0,5.333821E1,4.7469454E0,3.330439E1,1.2867727E1,1.09571014E2,1.4772261E0,8.35737E1,1.0564659E2],"tree_param":{"num_deleted":"0","num_feature":"38","num_nodes":"67","size_leaf_vector":"1"}},{"base_weights":[1.0802575E-3,-1.0696023E0,1.4867332E0,-1.3566109E0,1.1320478E0,1.5571998E0,-1.5500977E0,-1.3925394E0,3.0263248E-1,-1.5148911E0,1.4535741E0,4.673149E-2,-3.353699E-2,-4.6606924E-2,-1.7368652E-2,-8.3161074E-1,-1.4853678E0,1.3524233E0,-1.5131207E0,-4.5891967E-2,-5.156985E-1,1.5407202E0,-4.602667E-2,1.0997373E0,-4.6433073E-2,-1.5346518E0,-1.0492659E0,-3.6831245E-2,1.4528288E0,-4.6402223E-2,-1.07902564E-1,2.7505077E-2,-3.551095E-2,1.5578296E0,-7.9023874E-1,-1.6861859E-1,1.5092996E0,-1.5368589E0,-1.0185558E0,-2.781873E-1,-4.6674345E-2,-3.9940707E-2,4.6557494E-2,2.645857E-2,-2.9838815E-2,4.6747673E-2,1.3717822E-2,3.5708424E-2,-4.3366466E-2,-9.777334E-1,1.3426961E0,1.2094457E0,4.698916E-2,-1.498419E0,-4.6642724E-2,4.4173494E-2,-4.5902565E-2,1.3350403E0,-1.459777E0,-3.313436E-2,4.0002707E-2,-5.072948E-4,4.400995E-2,-1.0239948E-2,4.4166926E-2,-4.524402E-2,3.3706676E-2,6.384319E-3,4.536332E-2,-4.554853E-2,4.0688008E-2],"categories":[],"categories_nodes":[],"categories_segments":[],"categories_sizes":[],"default_left":[0,0,0,0,0,0,0,0,0,0,0,0,0,0,0,0,0,0,0,0,0,0,0,0,0,0,0,0,0,0,0,0,0,0,0,0,0,0,0,0,0,0,0,0,0,0,0,0,0,0,0,0,0,0,0,0,0,0,0,0,0,0,0,0,0,0,0,0,0,0,0],"id":11,"left_children":[1,3,5,7,9,11,13,15,17,19,21,-1,-1,-1,-1,23,25,27,29,-1,31,33,-1,35,-1,37,39,-1,41,-1,43,-1,-1,45,47,49,51,53,55,57,-1,-1,-1,-1,-1,-1,-1,-1,-1,59,61,63,-1,65,-1,-1,-1,67,69,-1,-1,-1,-1,-1,-1,-1,-1,-1,-1,-1,-1],"loss_changes":[5.150507E4,1.1892436E4,2.9045605E3,9.928828E2,1.8496423E3,2.0060547E1,1.375122E-1,8.472715E2,6.762029E2,2.705017E0,5.0648584E2,0E0,0E0,0E0,0E0,3.2052244E3,2.9886914E2,5.9976807E1,5.976654E0,0E0,5.8286824E0,7.627832E1,0E0,3.260135E2,0E0,1.2738281E1,5.552434E2,0E0,6.184265E1,0E0,4.4877744E0,0E0,0E0,1.640625E-1,2.03774E1,1.8958846E2,6.210083E0,6.2753906E0,7.417548E1,1.0794532E3,0E0,0E0,0E0,0E0,0E0,0E0,0E0,0E0,0E0,3.1017197E1,9.169273E0,3.315644E1,0E0,1.03581055E2,0E0,0E0,0E0,4.7271515E1,5.5896545E1,0E0,0E0,0E0,0E0,0E0,0E0,0E0,0E0,0E0,0E0,0E0,0E0],"parents":[2147483647,0,0,1,1,2,2,3,3,4,4,5,5,6,6,7,7,8,8,9,9,10,10,15,15,16,16,17,17,18,18,20,20,21,21,23,23,25,25,26,26,28,28,30,30,33,33,34,34,35,35,36,36,37,37,38,38,39,39,49,49,50,50,51,51,53,53,57,57,58,58],"right_children":[2,4,6,8,10,12,14,16,18,20,22,-1,-1,-1,-1,24,26,28,30,-1,32,34,-1,36,-1,38,40,-1,42,-1,44,-1,-1,46,48,50,52,54,56,58,-1,-1,-1,-1,-1,-1,-1,-1,-1,60,62,64,-1,66,-1,-1,-1,68,70,-1,-1,-1,-1,-1,-1,-1,-1,-1,-1,-1,-1],"split_conditions":[-5.2742146E-2,1.5565194E-1,-3.9410585E-1,1.44232E0,-1.980374E-1,9.366294E-3,1.948121E0,-4.9865082E-1,-2.7118373E-1,-2.1028669E-1,3.0881488E0,4.673149E-2,-3.353699E-2,-4.6606924E-2,-1.7368652E-2,3.0881488E0,-1.1210058E-1,-4.6708295E-1,-9.129094E-2,-4.5891967E-2,-2.2186863E-1,-4.4469167E-2,-4.602667E-2,-4.9868196E-1,-4.6433073E-2,1.145156E0,3.0881488E0,-3.6831245E-2,-3.9410585E-1,-4.6402223E-2,-3.058011E-1,2.7505077E-2,-3.551095E-2,-2.5228846E-1,3.1551468E0,5.1950056E-2,-2.611348E-2,-1.1520544E0,-2.2186866E-1,-8.608852E-2,-4.6674345E-2,-3.9940707E-2,4.6557494E-2,2.645857E-2,-2.9838815E-2,4.6747673E-2,1.3717822E-2,3.5708424E-2,-4.3366466E-2,-2.611348E-2,-8.12999E-1,-2.2186866E-1,4.698916E-2,9.885233E-1,-4.6642724E-2,4.4173494E-2,-4.5902565E-2,-1.2060426E0,-6.6961765E-1,-3.313436E-2,4.0002707E-2,-5.072948E-4,4.400995E-2,-1.0239948E-2,4.4166926E-2,-4.524402E-2,3.3706676E-2,6.384319E-3,4.536332E-2,-4.554853E-2,4.0688008E-2],"split_indices":[9,27,37,3,37,8,14,3,32,37,21,0,0,0,0,21,36,15,36,0,1,36,0,3,0,3,21,0,37,0,2,0,0,11,24,1,8,9,1,36,0,0,0,0,0,0,0,0,0,8,9,1,0,26,0,0,0,9,9,0,0,0,0,0,0,0,0,0,0,0,0],"split_type":[0,0,0,0,0,0,0,0,0,0,0,0,0,0,0,0,0,0,0,0,0,0,0,0,0,0,0,0,0,0,0,0,0,0,0,0,0,0,0,0,0,0,0,0,0,0,0,0,0,0,0,0,0,0,0,0,0,0,0,0,0,0,0,0,0,0,0,0,0,0,0],"sum_hessian":[3.2377633E4,1.8816912E4,1.3560721E4,1.664716E4,2.1697512E3,1.3253669E4,3.0705096E2,1.6294488E4,3.526724E2,2.3461235E2,1.9351388E3,1.3251527E4,2.141518E0,3.0536127E2,1.6896933E0,2.3151047E3,1.3979384E4,2.2363269E2,1.2903969E2,2.3065544E2,3.9569056E0,1.8807661E3,5.4372654E1,6.260978E2,1.689007E3,1.2557712E4,1.4216714E3,7.9561067E0,2.1567659E2,1.2592616E2,3.1135266E0,1.139889E0,2.8170166E0,1.867391E3,1.3375101E1,1.5296753E2,4.7313028E2,1.2502269E4,5.5444183E1,5.64271E2,8.5740045E2,6.984645E0,2.0869194E2,1.473752E0,1.6397747E0,1.8662524E3,1.1386049E0,3.122307E0,1.0252794E1,9.985895E1,5.3108574E1,7.912815E1,3.9400214E2,3.998855E3,8.503413E3,9.125765E0,4.6318417E1,2.3850694E2,3.2576404E2,9.516229E1,4.6966534E0,4.521109E0,4.8587467E1,1.14223585E1,6.7705795E1,3.9845164E3,1.4338742E1,3.280412E1,2.0570282E2,3.1958505E2,6.178984E0],"tree_param":{"num_deleted":"0","num_feature":"38","num_nodes":"71","size_leaf_vector":"1"}},{"base_weights":[1.9575134E-3,-1.0532305E0,1.4646807E0,-1.3347358E0,1.1133521E0,1.5317329E0,-4.5732226E-2,-1.4853911E0,-8.3977884E-1,-1.4793026E0,1.4251133E0,4.5967307E-2,-3.302486E-2,-1.5196764E0,4.8758075E-1,-1.3834707E0,1.2941257E0,-4.488719E-2,-3.2561937E-1,-4.5302477E-2,1.5145351E0,-1.5212351E0,-4.1686007E-1,1.0759441E0,-4.48983E-2,-1.4745882E0,1.2695583E0,1.4414845E0,-6.551021E-1,2.8740399E-2,-3.32083E-2,4.5979008E-2,-9.406267E-1,-1.5220933E0,-1.2492846E0,-8.6418915E-1,2.7184555E-1,1.2721819E0,-4.4122607E-2,-1.5003774E0,-1.0350558E0,4.5528263E-2,-4.1554235E-2,1.1123567E0,4.6094846E-2,-4.3346368E-2,5.814283E-1,-4.3214668E-2,3.3542298E-2,-4.5772653E-2,-1.4666209E0,-8.1340873E-1,-4.4101786E-2,-1.7439674E-1,-3.7896276E-2,6.690413E-1,-2.8581975E-2,7.1181124E-1,1.4928006E0,-1.5015402E0,-3.4993297E-1,-1.377856E0,1.5068598E0,1.2526281E0,-3.699713E-2,1.0407182E0,-3.9189517E-2,-4.433229E-2,2.162703E-2,9.675655E-5,-3.0185802E-2,-1.796339E-4,-8.741382E-3,9.88637E-3,3.274435E-2,4.2548183E-2,-2.9755812E-2,4.6014328E-2,-3.5264615E-2,-3.0053253E-3,-4.506223E-2,2.8398922E-2,-3.242461E-2,-4.482834E-2,4.410169E-2,4.8673175E-2,-8.715609E-3,4.7470134E-2,3.170211E-2,1.7765813E-2,4.3779112E-2],"categories":[],"categories_nodes":[],"categories_segments":[],"categories_sizes":[],"default_left":[0,0,0,0,0,0,0,0,0,0,0,0,0,0,0,0,0,0,0,0,0,0,0,0,0,0,0,0,0,0,0,0,0,0,0,0,0,0,0,0,0,0,0,0,0,0,0,0,0,0,0,0,0,0,0,0,0,0,0,0,0,0,0,0,0,0,0,0,0,0,0,0,0,0,0,0,0,0,0,0,0,0,0,0,0,0,0,0,0,0,0],"id":12,"left_children":[1,3,5,7,9,11,-1,13,15,17,19,-1,-1,21,23,25,27,-1,29,-1,31,33,35,37,-1,39,41,43,45,-1,-1,-1,47,49,51,53,55,57,-1,59,61,-1,-1,63,-1,-1,65,-1,-1,-1,67,69,-1,71,-1,73,-1,75,77,79,81,83,85,87,-1,89,-1,-1,-1,-1,-1,-1,-1,-1,-1,-1,-1,-1,-1,-1,-1,-1,-1,-1,-1,-1,-1,-1,-1,-1,-1],"loss_changes":[4.937045E4,1.1334844E4,2.6890195E3,1.2250859E3,1.7296711E3,1.9316406E1,0E0,8.535176E2,4.4568984E3,4.005249E0,5.031853E2,0E0,0E0,2.0669922E1,2.5387984E2,7.4177E2,2.2505603E2,0E0,5.678579E0,0E0,8.375586E1,9.84375E-1,6.047374E0,8.545607E1,0E0,3.1995605E1,6.9379425E1,2.0984253E1,5.5066345E1,0E0,0E0,0E0,1.6198101E1,2.6953125E-1,3.0870895E0,2.993699E0,4.620897E0,1.820131E1,0E0,3.2109375E0,1.4781494E2,0E0,0E0,5.622377E1,0E0,0E0,2.0741941E1,0E0,0E0,0E0,2.0270142E1,2.711481E0,0E0,1.05418205E-1,0E0,6.1143756E-1,0E0,5.668564E1,1.3937683E1,1.9379883E0,4.9314895E0,5.1234314E1,4.699444E0,8.4878235E0,0E0,2.6160698E0,0E0,0E0,0E0,0E0,0E0,0E0,0E0,0E0,0E0,0E0,0E0,0E0,0E0,0E0,0E0,0E0,0E0,0E0,0E0,0E0,0E0,0E0,0E0,0E0,0E0],"parents":[2147483647,0,0,1,1,2,2,3,3,4,4,5,5,7,7,8,8,9,9,10,10,13,13,14,14,15,15,16,16,18,18,20,20,21,21,22,22,23,23,25,25,26,26,27,27,28,28,32,32,33,33,34,34,35,35,36,36,37,37,39,39,40,40,43,43,46,46,50,50,51,51,53,53,55,55,57,57,58,58,59,59,60,60,61,61,62,62,63,63,65,65],"right_children":[2,4,6,8,10,12,-1,14,16,18,20,-1,-1,22,24,26,28,-1,30,-1,32,34,36,38,-1,40,42,44,46,-1,-1,-1,48,50,52,54,56,58,-1,60,62,-1,-1,64,-1,-1,66,-1,-1,-1,68,70,-1,72,-1,74,-1,76,78,80,82,84,86,88,-1,90,-1,-1,-1,-1,-1,-1,-1,-1,-1,-1,-1,-1,-1,-1,-1,-1,-1,-1,-1,-1,-1,-1,-1,-1,-1],"split_conditions":[-5.2742146E-2,1.5565194E-1,-3.9410585E-1,2.1607E0,-1.980374E-1,3.5775018E0,-4.5732226E-2,-6.6961765E-1,1.0807884E0,-2.1028669E-1,2.1607E0,4.5967307E-2,-3.302486E-2,-1.216413E-3,-3.9410585E-1,1.44232E0,1.7233512E0,-4.488719E-2,-2.2186863E-1,-4.5302477E-2,1.8190586E1,-1.077382E-1,-2.6886168E-1,-1.715921E-2,-4.48983E-2,8.3090293E-1,-2.2186866E-1,-1.2060426E0,-1.8084956E-2,2.8740399E-2,-3.32083E-2,4.5979008E-2,-1.2060426E0,-1.8084956E-2,-3.9410585E-1,3.2762E-2,-1.0791393E-1,-3.5712412E-1,-4.4122607E-2,1.0257025E1,-1.187426E0,4.5528263E-2,-4.1554235E-2,-2.2186866E-1,4.6094846E-2,-4.3346368E-2,4.5791855E0,-4.3214668E-2,3.3542298E-2,-4.5772653E-2,-2.6886168E-1,-9.381013E-2,-4.4101786E-2,1.5250159E-2,-3.7896276E-2,-3.9522615E-1,-2.8581975E-2,-4.8475882E-1,-1.588398E-1,-4.983969E-1,-2.2186863E-1,6.9001925E-1,-2.2546619E-1,-3.9426062E-1,-3.699713E-2,-3.9522392E-1,-3.9189517E-2,-4.433229E-2,2.162703E-2,9.675655E-5,-3.0185802E-2,-1.796339E-4,-8.741382E-3,9.88637E-3,3.274435E-2,4.2548183E-2,-2.9755812E-2,4.6014328E-2,-3.5264615E-2,-3.0053253E-3,-4.506223E-2,2.8398922E-2,-3.242461E-2,-4.482834E-2,4.410169E-2,4.8673175E-2,-8.715609E-3,4.7470134E-2,3.170211E-2,1.7765813E-2,4.3779112E-2],"split_indices":[9,27,37,19,37,11,0,9,37,37,19,0,0,1,37,3,37,0,1,0,25,1,32,6,0,37,1,9,6,0,0,0,9,6,37,1,7,9,0,25,9,0,0,1,0,0,37,0,0,0,32,1,0,1,0,0,0,15,10,3,1,15,16,0,0,0,0,0,0,0,0,0,0,0,0,0,0,0,0,0,0,0,0,0,0,0,0,0,0,0,0],"split_type":[0,0,0,0,0,0,0,0,0,0,0,0,0,0,0,0,0,0,0,0,0,0,0,0,0,0,0,0,0,0,0,0,0,0,0,0,0,0,0,0,0,0,0,0,0,0,0,0,0,0,0,0,0,0,0,0,0,0,0,0,0,0,0,0,0,0,0,0,0,0,0,0,0,0,0,0,0,0,0,0,0,0,0,0,0,0,0,0,0,0,0],"sum_hessian":[3.1985117E4,1.8581188E4,1.3403929E4,1.6444879E4,2.1363079E3,1.3110321E4,2.9360767E2,1.2605887E4,3.8389932E3,2.2891019E2,1.9073977E3,1.3108196E4,2.1252384E0,1.2390796E4,2.150906E2,3.0597573E3,7.792358E2,2.2530559E2,3.6046076E0,5.592189E1,1.8514758E3,1.2372929E4,1.7866802E1,1.6625075E2,4.8839855E1,2.9585898E3,1.011676E2,7.247093E2,5.4526516E1,1.2783208E0,2.3262868E0,1.8383003E3,1.3175471E1,1.2329423E4,4.350618E1,1.0677036E1,7.1897664E0,1.5482133E2,1.1429426E1,2.7923372E3,1.6625252E2,9.291419E1,8.2534075E0,1.6518738E2,5.595219E2,3.317135E1,2.1355165E1,1.0843029E1,2.3324425E0,1.1541071E4,7.883513E2,1.6202307E1,2.7303873E1,4.439487E0,6.23755E0,5.771438E0,1.4183283E0,4.4928787E1,1.0989254E2,2.789213E3,3.124291E0,1.4689972E2,1.9352806E1,1.5630592E2,8.881455E0,1.7537079E1,3.8180869E0,7.8468616E2,3.6651409E0,3.2822018E0,1.2920105E1,2.2506387E0,2.188848E0,4.1867905E0,1.5846474E0,3.1877617E1,1.3051173E1,1.0864784E2,1.2447002E0,1.1346135E0,2.7880784E3,1.0198822E0,2.1044087E0,1.4158698E2,5.312738E0,1.8274977E1,1.0778311E0,5.561729E1,1.0068863E2,9.631474E0,7.9056053E0],"tree_param":{"num_deleted":"0","num_feature":"38","num_nodes":"91","size_leaf_vector":"1"}},{"base_weights":[3.490915E-4,-1.0367347E0,1.4390812E0,-1.3144639E0,1.0883051E0,1.507836E0,-4.499513E-2,-1.4622937E0,-8.2606745E-1,-1.4594053E0,1.4049994E0,4.5252014E-2,-3.361219E-2,-1.495124E0,4.8269138E-1,-1.3614855E0,1.2846017E0,-4.423882E-2,-3.545236E-1,-4.4573415E-2,1.4911972E0,-1.4967884E0,-4.0698865E-1,1.0739183E0,-4.416717E-2,-1.4519922E0,1.2878612E0,1.4208393E0,-5.9850365E-1,2.7422167E-2,-3.2719895E-2,1.5086355E0,-9.242253E-1,-1.4976438E0,-1.222587E0,-8.2936424E-1,2.0129913E-1,1.2512263E0,-1.0681031E0,-1.477242E0,-1.0152715E0,4.48197E-2,-4.0037416E-2,1.097689E0,4.5372084E-2,-1.0980686E0,4.293207E-2,1.144549E-2,4.5271546E-2,-4.2428177E-2,3.2805275E-2,-1.4792771E0,-4.5273677E-2,-8.105108E-1,-4.304379E-2,-1.0866498E-1,-3.7760872E-2,5.4508245E-1,-2.8810091E-2,7.243884E-1,1.4615569E0,3.2793865E-2,-4.185356E-2,-1.4785429E0,2.0833153E-2,-1.3508463E0,1.4685558E0,1.222855E0,-3.6001846E-2,-5.309554E-1,-4.4815976E-2,-4.4540517E-2,-3.17371E-2,5.8711634E-4,-2.9458668E-2,8.110756E-3,-8.004911E-3,3.2172927E-3,1.9084528E-2,4.272044E-2,-3.241126E-2,4.4065773E-2,1.0590397E-2,-4.113814E-2,-4.491392E-2,-4.4049896E-2,4.4276867E-2,4.7590997E-2,-1.1002021E-2,2.9328415E-2,4.4902433E-2,-4.02864E-2,1.5962074E-2],"categories":[],"categories_nodes":[],"categories_segments":[],"categories_sizes":[],"default_left":[0,0,0,0,0,0,0,0,0,0,0,0,0,0,0,0,0,0,0,0,0,0,0,0,0,0,0,0,0,0,0,0,0,0,0,0,0,0,0,0,0,0,0,0,0,0,0,0,0,0,0,0,0,0,0,0,0,0,0,0,0,0,0,0,0,0,0,0,0,0,0,0,0,0,0,0,0,0,0,0,0,0,0,0,0,0,0,0,0,0,0,0,0],"id":13,"left_children":[1,3,5,7,9,11,-1,13,15,17,19,-1,-1,21,23,25,27,-1,29,-1,31,33,35,37,-1,39,41,43,45,-1,-1,47,49,51,53,55,57,59,61,63,65,-1,-1,67,-1,69,-1,-1,-1,-1,-1,71,-1,73,-1,75,-1,77,-1,79,81,-1,-1,83,-1,85,87,89,-1,91,-1,-1,-1,-1,-1,-1,-1,-1,-1,-1,-1,-1,-1,-1,-1,-1,-1,-1,-1,-1,-1,-1,-1],"loss_changes":[4.6998535E4,1.0804338E4,2.6683594E3,1.1676309E3,1.709565E3,2.0820312E1,0E0,7.941836E2,4.2552705E3,3.4206543E0,4.7137305E2,0E0,0E0,2.1517578E1,2.4085625E2,7.218843E2,1.9636938E2,0E0,5.202088E0,0E0,7.842505E1,1.0332031E0,5.3147135E0,6.1924515E1,0E0,3.052295E1,5.5899414E1,1.9377075E1,5.441643E1,0E0,0E0,2.758789E-1,1.5121167E1,3.3007812E-1,2.6312485E0,3.58255E0,4.1238604E0,1.5318161E1,1.05256E1,8.776855E0,1.369485E2,0E0,0E0,4.7663055E1,0E0,8.722023E0,0E0,0E0,0E0,0E0,0E0,9.199219E0,0E0,2.4452505E0,0E0,4.0676892E-1,0E0,2.3460388E-1,0E0,5.728631E1,3.28537E-1,0E0,0E0,3.4140625E0,0E0,4.9713806E1,4.8524475E0,8.801758E0,0E0,1.7092602E1,0E0,0E0,0E0,0E0,0E0,0E0,0E0,0E0,0E0,0E0,0E0,0E0,0E0,0E0,0E0,0E0,0E0,0E0,0E0,0E0,0E0,0E0,0E0],"parents":[2147483647,0,0,1,1,2,2,3,3,4,4,5,5,7,7,8,8,9,9,10,10,13,13,14,14,15,15,16,16,18,18,20,20,21,21,22,22,23,23,25,25,26,26,27,27,28,28,31,31,32,32,33,33,34,34,35,35,36,36,37,37,38,38,39,39,40,40,43,43,45,45,51,51,53,53,55,55,57,57,59,59,60,60,63,63,65,65,66,66,67,67,69,69],"right_children":[2,4,6,8,10,12,-1,14,16,18,20,-1,-1,22,24,26,28,-1,30,-1,32,34,36,38,-1,40,42,44,46,-1,-1,48,50,52,54,56,58,60,62,64,66,-1,-1,68,-1,70,-1,-1,-1,-1,-1,72,-1,74,-1,76,-1,78,-1,80,82,-1,-1,84,-1,86,88,90,-1,92,-1,-1,-1,-1,-1,-1,-1,-1,-1,-1,-1,-1,-1,-1,-1,-1,-1,-1,-1,-1,-1,-1,-1],"split_conditions":[-5.2742146E-2,1.5565194E-1,-3.9410585E-1,2.1607E0,-1.980374E-1,-2.2546883E-1,-4.499513E-2,-6.6961765E-1,1.0807884E0,-2.1028669E-1,2.1607E0,4.5252014E-2,-3.361219E-2,-1.216413E-3,3.0881488E0,1.44232E0,1.7233512E0,-4.423882E-2,-2.2186863E-1,-4.4573415E-2,1.8190586E1,-1.077382E-1,-2.6886168E-1,-3.5731066E-2,-4.416717E-2,8.3090293E-1,-2.2186866E-1,-1.2060426E0,-2.2184387E-1,2.7422167E-2,-3.2719895E-2,6.9001925E-1,-1.2060426E0,-1.52895795E-2,3.0881488E0,3.2762E-2,3.0881488E0,-3.5712412E-1,-2.4170099E-1,2.3609116E0,-1.187426E0,4.48197E-2,-4.0037416E-2,-2.2186866E-1,4.5372084E-2,3.0881488E0,4.293207E-2,1.144549E-2,4.5271546E-2,-4.2428177E-2,3.2805275E-2,-1.0868962E0,-4.5273677E-2,-9.381013E-2,-4.304379E-2,-1.0682795E0,-3.7760872E-2,5.1950056E-2,-2.8810091E-2,-5.0475407E-1,-3.7734324E-1,3.2793865E-2,-4.185356E-2,9.8065734E-2,2.0833153E-2,4.2066136E-1,-2.2546619E-1,7.303396E-1,-3.6001846E-2,-4.9868345E-1,-4.4815976E-2,-4.4540517E-2,-3.17371E-2,5.8711634E-4,-2.9458668E-2,8.110756E-3,-8.004911E-3,3.2172927E-3,1.9084528E-2,4.272044E-2,-3.241126E-2,4.4065773E-2,1.0590397E-2,-4.113814E-2,-4.491392E-2,-4.4049896E-2,4.4276867E-2,4.7590997E-2,-1.1002021E-2,2.9328415E-2,4.4902433E-2,-4.02864E-2,1.5962074E-2],"split_indices":[9,27,37,19,37,16,0,9,37,37,19,0,0,1,21,3,37,0,1,0,25,1,32,3,0,37,1,9,1,0,0,15,9,33,21,1,21,9,9,14,9,0,0,1,0,21,0,0,0,0,0,9,0,1,0,9,0,1,0,4,0,0,0,31,0,14,16,26,0,3,0,0,0,0,0,0,0,0,0,0,0,0,0,0,0,0,0,0,0,0,0,0,0],"split_type":[0,0,0,0,0,0,0,0,0,0,0,0,0,0,0,0,0,0,0,0,0,0,0,0,0,0,0,0,0,0,0,0,0,0,0,0,0,0,0,0,0,0,0,0,0,0,0,0,0,0,0,0,0,0,0,0,0,0,0,0,0,0,0,0,0,0,0,0,0,0,0,0,0,0,0,0,0,0,0,0,0,0,0,0,0,0,0,0,0,0,0,0,0],"sum_hessian":[3.149655E4,1.830326E4,1.319329E4,1.6187976E4,2.1152842E3,1.2892171E4,3.0111984E2,1.2425099E4,3.7628772E3,2.334711E2,1.881813E3,1.2889828E4,2.342482E0,1.2219078E4,2.0601993E2,3.0017673E3,7.6110986E2,2.2996815E2,3.5029514E0,5.40174E1,1.8277955E3,1.2200043E4,1.9035984E1,1.5852737E2,4.7492558E1,2.9030457E3,9.872155E1,7.099895E2,5.112036E1,1.197529E0,2.3054223E0,1.815067E3,1.2728611E1,1.2157653E4,4.238916E1,1.1020359E1,8.015625E0,1.4679236E2,1.1735016E1,2.7421223E3,1.6092339E2,9.192628E1,6.795269E0,1.5962411E2,5.503654E2,4.139118E1,9.729181E0,1.008431E0,1.8140585E3,1.048194E1,2.2466705E0,4.725875E3,7.4317783E3,1.6047148E1,2.634201E1,4.5819507E0,6.4384084E0,6.594702E0,1.4209236E0,4.3151115E1,1.0364124E2,1.2343708E0,1.0500645E1,2.7407996E3,1.3226882E0,1.421716E2,1.8751797E1,1.5182169E2,7.8024216E0,1.7975992E1,2.3415188E1,4.663512E3,6.2362823E1,2.898651E0,1.3148498E1,1.140219E0,3.4417315E0,1.5104358E0,5.0842657E0,3.1248453E1,1.190266E1,1.0264008E2,1.0011542E0,4.1582535E2,2.3249744E3,1.369599E2,5.211699E0,1.774814E1,1.0036564E0,8.251123E1,6.9310455E1,1.004244E1,7.933552E0],"tree_param":{"num_deleted":"0","num_feature":"38","num_nodes":"93","size_leaf_vector":"1"}},{"base_weights":[-9.483818E-4,-1.0199556E0,1.4176006E0,-1.2929586E0,1.0832412E0,1.4852635E0,-1.4791658E0,-1.4401636E0,-8.086207E-1,-1.438082E0,1.3890061E0,4.4574693E-2,-3.3109564E-2,-4.445515E-2,-1.5270436E-2,-1.4733986E0,4.7348803E-1,-1.3407943E0,1.2528684E0,-4.377045E-2,-7.866948E-1,-4.385071E-2,1.4685581E0,-1.4260811E0,-4.4418927E-2,1.0490015E0,-4.3523274E-2,1.2517295E0,-1.4226098E0,1.393089E0,-6.277877E-1,3.5235688E-2,-3.9483692E-2,1.4836088E0,-1.1048747E0,-3.5577446E-1,-1.4636803E0,1.2399446E0,-4.2600013E-2,4.410464E-2,-3.9399274E-2,-1.450207E0,-9.5347404E-1,1.0628278E0,4.468128E-2,-4.173269E-2,6.3691264E-1,4.459776E-2,3.705E-1,2.358169E-2,-4.150528E-2,-4.015745E-2,-3.3684794E-2,-1.4642141E0,-1.0771728E-2,7.2547954E-1,4.355318E-2,-1.4523721E0,3.3089157E-2,-1.3170612E0,1.5130677E0,1.1917565E0,-3.4703657E-2,9.489279E-1,-3.44865E-2,3.471187E-2,-2.9346785E-2,5.9623268E-2,-6.626646E-3,-4.3942057E-2,-1.4328421E-2,4.221621E-2,-3.0403046E-2,-4.3599706E-2,1.6129265E-2,-4.338413E-2,4.261776E-2,4.6439767E-2,1.2809517E-2,2.8360676E-2,4.4235297E-2,1.3019572E-2,4.1200273E-2],"categories":[],"categories_nodes":[],"categories_segments":[],"categories_sizes":[],"default_left":[0,0,0,0,0,0,0,0,0,0,0,0,0,0,0,0,0,0,0,0,0,0,0,0,0,0,0,0,0,0,0,0,0,0,0,0,0,0,0,0,0,0,0,0,0,0,0,0,0,0,0,0,0,0,0,0,0,0,0,0,0,0,0,0,0,0,0,0,0,0,0,0,0,0,0,0,0,0,0,0,0,0,0],"id":14,"left_children":[1,3,5,7,9,11,13,15,17,19,21,-1,-1,-1,-1,23,25,27,29,-1,31,-1,33,35,-1,37,-1,39,41,43,45,-1,-1,47,49,51,53,55,-1,-1,-1,57,59,61,-1,-1,63,-1,65,-1,-1,-1,67,69,-1,71,-1,73,-1,75,77,79,-1,81,-1,-1,-1,-1,-1,-1,-1,-1,-1,-1,-1,-1,-1,-1,-1,-1,-1,-1,-1],"loss_changes":[4.4990855E4,1.0401547E4,2.5524805E3,1.1419043E3,1.6067439E3,2.006836E1,1.7028809E-2,7.826113E2,4.103916E3,1.9287109E0,4.2326074E2,0E0,0E0,0E0,0E0,2.0214844E0,2.3478139E2,6.3227734E2,2.0333496E2,0E0,1.1093304E1,0E0,7.162915E1,6.504932E1,0E0,7.847209E1,0E0,5.3178284E1,3.5929688E1,2.1147095E1,5.2976555E1,0E0,0E0,5.4160156E0,6.9253883E0,1.787724E1,4.0234375E-1,1.5464676E1,0E0,0E0,0E0,1.6638184E1,1.4820663E2,4.855249E1,0E0,0E0,1.2793867E1,0E0,7.640268E0,0E0,0E0,0E0,1.6961382E1,1.0888672E-1,0E0,5.620115E1,0E0,5.9282227E0,0E0,5.2454346E1,1.5117264E-1,9.49472E0,0E0,3.4300194E0,0E0,0E0,0E0,0E0,0E0,0E0,0E0,0E0,0E0,0E0,0E0,0E0,0E0,0E0,0E0,0E0,0E0,0E0,0E0],"parents":[2147483647,0,0,1,1,2,2,3,3,4,4,5,5,6,6,7,7,8,8,9,9,10,10,15,15,16,16,17,17,18,18,20,20,22,22,23,23,25,25,27,27,28,28,29,29,30,30,33,33,34,34,35,35,36,36,37,37,41,41,42,42,43,43,46,46,48,48,52,52,53,53,55,55,57,57,59,59,60,60,61,61,63,63],"right_children":[2,4,6,8,10,12,14,16,18,20,22,-1,-1,-1,-1,24,26,28,30,-1,32,-1,34,36,-1,38,-1,40,42,44,46,-1,-1,48,50,52,54,56,-1,-1,-1,58,60,62,-1,-1,64,-1,66,-1,-1,-1,68,70,-1,72,-1,74,-1,76,78,80,-1,82,-1,-1,-1,-1,-1,-1,-1,-1,-1,-1,-1,-1,-1,-1,-1,-1,-1,-1,-1],"split_conditions":[-5.2742146E-2,1.5565194E-1,-3.9410585E-1,2.1607E0,-1.980374E-1,9.366294E-3,2.132919E0,-6.6961765E-1,1.0807884E0,-2.3111048E-1,2.1607E0,4.4574693E-2,-3.3109564E-2,-4.445515E-2,-1.5270436E-2,-5.0475407E-1,3.0881488E0,-3.0580062E-1,1.7233512E0,-4.377045E-2,-1.1520544E0,-4.385071E-2,-1.8097522E-2,-3.9410585E-1,-4.4418927E-2,-1.7096378E-2,-4.3523274E-2,-1.1520544E0,8.3090293E-1,-1.2060426E0,-1.8084956E-2,3.5235688E-2,-3.9483692E-2,-4.4469167E-2,-6.196947E-2,-1.2060426E0,7.034569E-1,-3.5712412E-1,-4.2600013E-2,4.410464E-2,-3.9399274E-2,2.3609116E0,-1.187426E0,-1.588398E-1,4.468128E-2,-4.173269E-2,3.0881488E0,4.459776E-2,6.641847E0,2.358169E-2,-4.150528E-2,-4.015745E-2,-1.1166828E0,1.0751795E-1,-1.0771728E-2,-5.0475407E-1,4.355318E-2,3.4690447E0,3.3089157E-2,6.9001925E-1,-2.2681461E-1,7.303396E-1,-3.4703657E-2,-1.2060426E0,-3.44865E-2,3.471187E-2,-2.9346785E-2,5.9623268E-2,-6.626646E-3,-4.3942057E-2,-1.4328421E-2,4.221621E-2,-3.0403046E-2,-4.3599706E-2,1.6129265E-2,-4.338413E-2,4.261776E-2,4.6439767E-2,1.2809517E-2,2.8360676E-2,4.4235297E-2,1.3019572E-2,4.1200273E-2],"split_indices":[9,27,37,19,37,8,14,9,37,37,19,0,0,0,0,4,21,2,37,0,9,0,6,37,0,6,0,9,37,9,6,0,0,36,7,9,0,9,0,0,0,14,9,29,0,0,21,0,24,0,0,0,9,29,0,4,0,17,0,15,17,26,0,9,0,0,0,0,0,0,0,0,0,0,0,0,0,0,0,0,0,0,0],"split_type":[0,0,0,0,0,0,0,0,0,0,0,0,0,0,0,0,0,0,0,0,0,0,0,0,0,0,0,0,0,0,0,0,0,0,0,0,0,0,0,0,0,0,0,0,0,0,0,0,0,0,0,0,0,0,0,0,0,0,0,0,0,0,0,0,0,0,0,0,0,0,0,0,0,0,0,0,0,0,0,0,0,0,0],"sum_hessian":[3.1122516E4,1.8112078E4,1.3010437E4,1.6031513E4,2.0805657E3,1.2713951E4,2.9648596E2,1.2293247E4,3.7382651E3,2.2462398E2,1.8559418E3,1.2711629E4,2.3221889E0,2.9514548E2,1.340494E0,1.2083618E4,2.0962955E2,2.971517E3,7.667479E2,2.164289E2,8.195091E0,4.991442E1,1.8060273E3,1.62837E3,1.0455248E4,1.6171754E2,4.791201E1,9.04695E1,2.8810476E3,7.137876E2,5.296036E1,1.4829961E0,6.7120957E0,1.7959473E3,1.0080101E1,5.5617317E1,1.5727526E3,1.5057077E2,1.114677E1,8.376349E1,6.706007E0,2.7190088E3,1.6203896E2,1.6384442E2,5.499432E2,3.296475E1,1.999561E1,1.7908123E3,5.135037E0,1.0606935E0,9.019407E0,1.2949124E1,4.2668194E1,1.5716675E3,1.0850805E0,4.5205494E1,1.0536528E2,2.7171357E3,1.8728977E0,1.4162794E2,2.0411016E1,1.5528748E2,8.5569515E0,1.7421648E1,2.5739613E0,3.3332367E0,1.8018001E0,2.801842E0,3.9866352E1,1.5703534E3,1.3141998E0,3.2611263E1,1.2594232E1,2.7161067E3,1.0290148E0,1.3570157E2,5.9263797E0,1.9363073E1,1.047943E0,8.529875E1,6.998872E1,8.785164E0,8.636485E0],"tree_param":{"num_deleted":"0","num_feature":"38","num_nodes":"83","size_leaf_vector":"1"}},{"base_weights":[-1.9475842E-3,-1.0075325E0,1.3979174E0,-1.2749583E0,1.0615549E0,1.4641324E0,-1.456009E0,-1.4181854E0,-8.0259573E-1,-1.4230047E0,1.3663017E0,4.3938998E-2,-3.1562272E-2,-4.378835E-2,-1.5170443E-2,-1.4509276E0,4.9007836E-1,-1.3191892E0,1.2229218E0,-4.311639E-2,-5.240708E-1,-4.3249458E-2,1.4483852E0,-1.4526916E0,-5.0994384E-1,1.0490929E0,-4.2843305E-2,-1.4065019E0,1.237829E0,1.3657397E0,-6.436246E-1,2.5937129E-2,-3.4113295E-2,1.4615144E0,-1.0746208E0,-4.370368E-2,-1.3908682E0,-2.0609874E-1,-3.7037306E-2,1.2366239E0,-4.1960943E-2,-1.432372E0,-9.630615E-1,4.3550584E-2,-3.9163034E-2,1.0147872E0,4.404475E-2,-1.0812085E0,4.1543096E-2,4.395541E-2,8.544923E-1,1.2576203E-2,-3.985101E-2,-1.4050169E0,1.0367345E0,-6.1727005E-1,3.594588E-1,7.4164337E-1,4.3144207E-2,-1.433832E0,2.1946818E-2,-1.3012782E0,1.4222935E0,1.1538281E0,-3.4097422E-2,-1.2369949E0,3.6300093E-2,-2.4471832E-2,4.0269457E-2,-3.3281032E-2,-4.379517E-2,4.2774588E-2,1.09107215E-2,2.9247971E-3,-3.0565491E-2,2.2737646E-2,-2.7667511E-2,4.0669285E-2,-2.8463226E-2,-3.9750453E-2,-4.357439E-2,-4.2346314E-2,4.240468E-2,4.600477E-2,-8.643066E-3,4.5672216E-2,2.8233971E-2,-4.254061E-2,-1.680952E-2],"categories":[],"categories_nodes":[],"categories_segments":[],"categories_sizes":[],"default_left":[0,0,0,0,0,0,0,0,0,0,0,0,0,0,0,0,0,0,0,0,0,0,0,0,0,0,0,0,0,0,0,0,0,0,0,0,0,0,0,0,0,0,0,0,0,0,0,0,0,0,0,0,0,0,0,0,0,0,0,0,0,0,0,0,0,0,0,0,0,0,0,0,0,0,0,0,0,0,0,0,0,0,0,0,0,0,0,0,0],"id":15,"left_children":[1,3,5,7,9,11,13,15,17,19,21,-1,-1,-1,-1,23,25,27,29,-1,31,-1,33,35,37,39,-1,41,43,45,47,-1,-1,49,51,-1,53,55,-1,57,-1,59,61,-1,-1,63,-1,65,-1,-1,67,-1,-1,69,71,73,75,77,-1,79,-1,81,83,85,-1,87,-1,-1,-1,-1,-1,-1,-1,-1,-1,-1,-1,-1,-1,-1,-1,-1,-1,-1,-1,-1,-1,-1,-1],"loss_changes":[4.3086008E4,9.857418E3,2.4201152E3,1.0660586E3,1.5459932E3,1.7304688E1,2.56958E-1,7.5689844E2,3.8443052E3,2.0987244E0,4.2087524E2,0E0,0E0,0E0,0E0,1.9009766E1,2.2121576E2,6.551343E2,1.9995898E2,0E0,5.280658E0,0E0,6.0065186E1,9.824219E-1,4.986942E0,7.482716E1,0E0,3.1091309E1,5.4742523E1,2.3457153E1,4.9213875E1,0E0,0E0,2.6582031E0,4.2404566E0,0E0,2.7571777E1,4.4013276E0,0E0,1.3739822E1,0E0,9.492676E0,1.301879E2,0E0,0E0,4.9179855E1,0E0,1.7481102E1,0E0,0E0,1.1644318E1,0E0,0E0,1.0639404E1,7.8585815E-1,3.1921077E0,4.8858223E0,4.800566E1,0E0,3.4951172E0,0E0,4.3856827E1,4.28981E0,1.0389862E1,0E0,4.402359E0,0E0,0E0,0E0,0E0,0E0,0E0,0E0,0E0,0E0,0E0,0E0,0E0,0E0,0E0,0E0,0E0,0E0,0E0,0E0,0E0,0E0,0E0,0E0],"parents":[2147483647,0,0,1,1,2,2,3,3,4,4,5,5,6,6,7,7,8,8,9,9,10,10,15,15,16,16,17,17,18,18,20,20,22,22,23,23,24,24,25,25,27,27,28,28,29,29,30,30,33,33,34,34,36,36,37,37,39,39,41,41,42,42,45,45,47,47,50,50,53,53,54,54,55,55,56,56,57,57,59,59,61,61,62,62,63,63,65,65],"right_children":[2,4,6,8,10,12,14,16,18,20,22,-1,-1,-1,-1,24,26,28,30,-1,32,-1,34,36,38,40,-1,42,44,46,48,-1,-1,50,52,-1,54,56,-1,58,-1,60,62,-1,-1,64,-1,66,-1,-1,68,-1,-1,70,72,74,76,78,-1,80,-1,82,84,86,-1,88,-1,-1,-1,-1,-1,-1,-1,-1,-1,-1,-1,-1,-1,-1,-1,-1,-1,-1,-1,-1,-1,-1,-1],"split_conditions":[-5.2742146E-2,1.5565194E-1,-3.9410585E-1,2.1607E0,-1.980374E-1,9.366294E-3,1.620306E0,-6.6961765E-1,1.0807884E0,-2.1028669E-1,2.1607E0,4.3938998E-2,-3.1562272E-2,-4.378835E-2,-1.5170443E-2,-2.5020115E-2,3.0881488E0,1.44232E0,1.7233512E0,-4.311639E-2,-2.2186863E-1,-4.3249458E-2,-1.8097522E-2,-1.8084956E-2,3.0881488E0,-1.715921E-2,-4.2843305E-2,8.3090293E-1,-2.2186866E-1,-1.2060426E0,-2.2184387E-1,2.5937129E-2,-3.4113295E-2,6.641847E0,-5.686453E-2,-4.370368E-2,-2.6958734E-1,-2.6886168E-1,-3.7037306E-2,-3.5712412E-1,-4.1960943E-2,2.3609116E0,-1.187426E0,4.3550584E-2,-3.9163034E-2,-2.2186866E-1,4.404475E-2,-1.7896455E-2,4.1543096E-2,4.395541E-2,-1.2060426E0,1.2576203E-2,-3.985101E-2,-3.951044E-1,-3.952241E-1,1.5250159E-2,-1.0791393E-1,-5.0475407E-1,4.3144207E-2,9.8065734E-2,2.1946818E-2,6.9001925E-1,-2.2681305E-1,-3.9426062E-1,-3.4097422E-2,-1.8084956E-2,3.6300093E-2,-2.4471832E-2,4.0269457E-2,-3.3281032E-2,-4.379517E-2,4.2774588E-2,1.09107215E-2,2.9247971E-3,-3.0565491E-2,2.2737646E-2,-2.7667511E-2,4.0669285E-2,-2.8463226E-2,-3.9750453E-2,-4.357439E-2,-4.2346314E-2,4.240468E-2,4.600477E-2,-8.643066E-3,4.5672216E-2,2.8233971E-2,-4.254061E-2,-1.680952E-2],"split_indices":[28,27,37,19,37,8,14,28,37,37,19,0,0,0,0,1,21,3,37,0,1,0,6,6,21,6,0,37,1,28,1,0,0,24,7,0,32,32,0,28,0,14,28,0,0,1,0,6,0,0,28,0,0,0,0,1,7,4,0,8,0,15,17,0,0,6,0,0,0,0,0,0,0,0,0,0,0,0,0,0,0,0,0,0,0,0,0,0,0],"split_type":[0,0,0,0,0,0,0,0,0,0,0,0,0,0,0,0,0,0,0,0,0,0,0,0,0,0,0,0,0,0,0,0,0,0,0,0,0,0,0,0,0,0,0,0,0,0,0,0,0,0,0,0,0,0,0,0,0,0,0,0,0,0,0,0,0,0,0,0,0,0,0,0,0,0,0,0,0,0,0,0,0,0,0,0,0,0,0,0,0],"sum_hessian":[3.060575E4,1.7811352E4,1.2794399E4,1.5773091E4,2.03826E3,1.2504759E4,2.8964078E2,1.2101686E4,3.6714055E3,2.2228995E2,1.8159701E3,1.25026875E4,2.0710707E0,2.8801303E2,1.6277497E0,1.1897781E4,2.0390393E2,2.925601E3,7.458044E2,2.1824168E2,4.0482635E0,5.1107258E1,1.7648628E3,1.1874976E4,2.2805418E1,1.5824107E2,4.5662853E1,2.8294363E3,9.616482E1,6.930448E2,5.2759632E1,1.1141697E0,2.934094E0,1.7561449E3,8.717889E0,1.1115648E4,7.5932745E2,1.6972933E1,5.832485E0,1.4744014E2,1.0800934E1,2.6713604E3,1.580758E2,8.910167E1,7.063148E0,1.5902647E2,5.340183E2,4.3781624E1,8.978009E0,1.7441973E3,1.1947618E1,1.1711501E0,7.5467386E0,7.553463E2,3.9811301E0,9.774932E0,7.1980014E0,4.4012783E1,1.0342736E2,2.6698962E3,1.4641725E0,1.3884378E2,1.9232025E1,1.4980818E2,9.218293E0,4.1425117E1,2.3565052E0,2.548799E0,9.398818E0,1.21476E2,6.3387036E2,1.8139973E0,2.1671329E0,3.7887108E0,5.986221E0,5.802699E0,1.3953024E0,3.243109E1,1.1581692E1,4.0113852E2,2.2687576E3,1.338858E2,4.9579883E0,1.8155127E1,1.0768993E0,5.2563526E1,9.724465E1,3.1817657E1,9.607461E0],"tree_param":{"num_deleted":"0","num_feature":"38","num_nodes":"89","size_leaf_vector":"1"}},{"base_weights":[-1.3873095E-3,-9.9150777E-1,1.3786725E0,-1.2571528E0,1.0462546E0,1.4420716E0,-1.4302623E0,-1.2896613E0,2.7187485E-1,1.3350177E0,-4.335465E-2,4.333939E-2,-3.925773E-2,-4.309241E-2,3.5389077E-3,-1.3779001E0,-7.7677256E-1,1.2406259E0,-1.4038447E0,1.4023849E0,-7.945685E-1,-1.420868E0,-9.5057315E-1,1.0524141E0,-4.2949084E-2,1.3635758E0,-7.184187E-1,-4.294275E-2,-2.47069E-2,1.4235435E0,-1.2517558E0,-1.0936886E0,1.1463473E0,-6.837418E-1,-1.4224768E0,-2.9271147E-1,-4.333947E-2,-9.0808555E-2,1.4066023E0,1.4045827E0,-5.971346E-1,-9.49996E-1,1.4153656E-2,2.1359386E-2,-2.3770921E-2,1.4316995E0,-3.6185518E-2,-1.0857535E-2,-4.065468E-2,3.23167E-2,-1.2524782E0,-1.1260335E-2,4.294427E-2,4.125343E-2,-4.1359328E-2,-1.4245021E0,-9.515757E-1,1.234885E0,-1.3525836E0,-8.259092E-1,1.2170975E0,1.4256032E0,7.815069E-1,1.4109404E0,4.110032E-3,1.3720581E-2,-3.140583E-2,-3.1806536E-2,-4.8621997E-1,1.4403466E0,-8.3773667E-1,1.2371421E-2,-4.1062612E-2,-1.1115155E-2,-4.275454E-2,3.833555E-2,-4.239881E-2,5.509041E-4,4.3209177E-2,-4.235674E-2,3.78903E-2,-1.0771645E-2,-4.2621177E-2,-6.3124504E-3,3.9992653E-2,3.6269967E-2,4.345899E-2,-2.3811646E-2,4.2263668E-2,9.258603E-3,4.25202E-2,2.064526E-3,-2.4482526E-2,4.3264084E-2,-1.5404978E-2,5.187807E-3,-3.560024E-2,2.4068186E-2,-2.7478667E-2],"categories":[],"categories_nodes":[],"categories_segments":[],"categories_sizes":[],"default_left":[0,0,0,0,0,0,0,0,0,0,0,0,0,0,0,0,0,0,0,0,0,0,0,0,0,0,0,0,0,0,0,0,0,0,0,0,0,0,0,0,0,0,0,0,0,0,0,0,0,0,0,0,0,0,0,0,0,0,0,0,0,0,0,0,0,0,0,0,0,0,0,0,0,0,0,0,0,0,0,0,0,0,0,0,0,0,0,0,0,0,0,0,0,0,0,0,0,0,0],"id":16,"left_children":[1,3,5,7,9,11,13,15,17,19,-1,-1,-1,-1,-1,21,23,25,27,29,31,33,35,37,-1,39,41,-1,43,45,47,49,51,53,55,57,-1,59,61,63,65,67,-1,-1,-1,69,-1,-1,-1,-1,71,-1,-1,-1,-1,73,75,77,79,81,83,85,87,89,-1,-1,-1,-1,91,93,95,97,-1,-1,-1,-1,-1,-1,-1,-1,-1,-1,-1,-1,-1,-1,-1,-1,-1,-1,-1,-1,-1,-1,-1,-1,-1,-1,-1],"loss_changes":[4.1075664E4,9.476123E3,2.2383613E3,7.700508E2,1.4545437E3,8.886914E1,2.8140259E0,6.8514844E2,5.2640436E2,2.6077417E2,0E0,0E0,0E0,0E0,0E0,2.3616602E2,2.6703806E3,5.04364E1,4.4859467E0,1.0032764E2,3.384551E1,1.2962891E1,3.8470337E2,2.381955E2,0E0,1.6400635E1,3.9708247E0,0E0,2.4575572E0,3.9075928E1,8.3545303E-1,1.8293232E1,4.001607E0,4.126589E1,9.832031E0,8.2651483E2,0E0,1.3561476E2,4.2181396E0,1.3370056E0,2.6918888E0,4.8369408E-2,0E0,0E0,0E0,3.5283203E1,0E0,0E0,0E0,0E0,6.8212357E0,0E0,0E0,0E0,0E0,7.455078E0,5.6594982E1,5.225403E1,4.8515198E1,2.4544415E1,8.688728E0,4.1589355E-1,1.6391438E1,8.946533E-1,0E0,0E0,0E0,0E0,7.821448E-1,6.790283E0,2.7526402E0,4.3177466E0,0E0,0E0,0E0,0E0,0E0,0E0,0E0,0E0,0E0,0E0,0E0,0E0,0E0,0E0,0E0,0E0,0E0,0E0,0E0,0E0,0E0,0E0,0E0,0E0,0E0,0E0,0E0],"parents":[2147483647,0,0,1,1,2,2,3,3,4,4,5,5,6,6,7,7,8,8,9,9,15,15,16,16,17,17,18,18,19,19,20,20,21,21,22,22,23,23,25,25,26,26,28,28,29,29,30,30,31,31,32,32,33,33,34,34,35,35,37,37,38,38,39,39,40,40,41,41,45,45,50,50,55,55,56,56,57,57,58,58,59,59,60,60,61,61,62,62,63,63,68,68,69,69,70,70,71,71],"right_children":[2,4,6,8,10,12,14,16,18,20,-1,-1,-1,-1,-1,22,24,26,28,30,32,34,36,38,-1,40,42,-1,44,46,48,50,52,54,56,58,-1,60,62,64,66,68,-1,-1,-1,70,-1,-1,-1,-1,72,-1,-1,-1,-1,74,76,78,80,82,84,86,88,90,-1,-1,-1,-1,92,94,96,98,-1,-1,-1,-1,-1,-1,-1,-1,-1,-1,-1,-1,-1,-1,-1,-1,-1,-1,-1,-1,-1,-1,-1,-1,-1,-1,-1],"split_conditions":[-5.2742146E-2,1.5565194E-1,2.3631003E0,1.44232E0,-2.6886168E-1,3.0881488E0,-9.129094E-2,-2.4810104E-1,-2.7118373E-1,3.4917033E0,-4.335465E-2,4.333939E-2,-3.925773E-2,-4.309241E-2,3.5389077E-3,-9.129094E-2,3.0881488E0,-1.8097522E-2,-9.129094E-2,-4.4469167E-2,-2.611348E-2,-4.9864864E-1,3.0881488E0,-4.9868262E-1,-4.2949084E-2,7.009991E0,-1.0457601E-1,-4.294275E-2,-3.058011E-1,3.0881488E0,2.0620008E0,-1.0458118E-1,8.073062E-1,3.0881488E0,1.145156E0,-9.770405E-2,-4.333947E-2,8.562093E-2,-9.649336E-2,-5.4874007E-2,-8.749417E-2,-1.0791393E-1,1.4153656E-2,2.1359386E-2,-2.3770921E-2,-1.8097522E-2,-3.6185518E-2,-1.0857535E-2,-4.065468E-2,3.23167E-2,-1.810171E-2,-1.1260335E-2,4.294427E-2,4.125343E-2,-4.1359328E-2,-3.952214E-1,-2.2186866E-1,-1.2060426E0,-6.6961765E-1,-1.0791393E-1,-8.12999E-1,-3.95224E-1,-2.4976294E-1,1.025426E0,4.110032E-3,1.3720581E-2,-3.140583E-2,-3.1806536E-2,1.6267924E0,4.114066E0,2.2056491E0,-3.0580097E-1,-4.1062612E-2,-1.1115155E-2,-4.275454E-2,3.833555E-2,-4.239881E-2,5.509041E-4,4.3209177E-2,-4.235674E-2,3.78903E-2,-1.0771645E-2,-4.2621177E-2,-6.3124504E-3,3.9992653E-2,3.6269967E-2,4.345899E-2,-2.3811646E-2,4.2263668E-2,9.258603E-3,4.25202E-2,2.064526E-3,-2.4482526E-2,4.3264084E-2,-1.5404978E-2,5.187807E-3,-3.560024E-2,2.4068186E-2,-2.7478667E-2],"split_indices":[9,27,11,3,32,21,36,2,32,0,0,0,0,0,0,36,21,6,36,36,8,3,21,3,0,26,24,0,2,21,4,24,27,21,3,7,0,1,36,36,7,7,0,0,0,6,0,0,0,0,6,0,0,0,0,0,1,9,9,7,9,0,32,26,0,0,0,0,0,26,0,2,0,0,0,0,0,0,0,0,0,0,0,0,0,0,0,0,0,0,0,0,0,0,0,0,0,0,0],"split_type":[0,0,0,0,0,0,0,0,0,0,0,0,0,0,0,0,0,0,0,0,0,0,0,0,0,0,0,0,0,0,0,0,0,0,0,0,0,0,0,0,0,0,0,0,0,0,0,0,0,0,0,0,0,0,0,0,0,0,0,0,0,0,0,0,0,0,0,0,0,0,0,0,0,0,0,0,0,0,0,0,0,0,0,0,0,0,0,0,0,0,0,0,0,0,0,0,0,0,0],"sum_hessian":[3.005867E4,1.7502107E4,1.25565625E4,1.5483981E4,2.0181263E3,1.2279886E4,2.766768E2,1.5161785E4,3.2219647E2,1.8089293E3,2.091971E2,1.2268876E4,1.1009594E1,2.7565375E2,1.0230166E0,1.2934765E4,2.2270208E3,2.043305E2,1.1786596E2,1.7537915E3,5.5137802E1,1.1750883E4,1.1838815E3,5.869436E2,1.6400771E3,1.9255E2,1.1780511E1,1.1551789E2,2.348071E0,1.7403809E3,1.3410568E1,4.815327E1,6.984532E0,2.6517979E1,1.1724365E4,5.084599E2,6.754216E2,1.3900787E2,4.4793573E2,1.8888329E2,3.6667235E0,1.0030677E1,1.7498343E0,1.2352172E0,1.1128538E0,1.7354541E3,4.926846E0,1.8645812E0,1.1545987E1,2.8878396E0,4.526543E1,1.0522754E0,5.932256E0,6.444719E0,2.0073261E1,1.1672139E4,5.222592E1,2.0820638E2,3.002535E2,8.9226944E1,4.9780933E1,4.3347873E2,1.4456993E1,1.878281E2,1.0551772E0,1.0911987E0,2.5755248E0,7.0654373E0,2.9652393E0,1.7292306E3,6.223501E0,3.8860824E0,4.137935E1,7.53795E0,1.1664602E4,8.657101E0,4.356882E1,3.0235926E1,1.7797046E2,2.940463E2,6.207204E0,5.0888416E1,3.8338524E1,3.6797535E0,4.610118E1,4.680054E1,3.866782E2,4.0418296E0,1.0415163E1,1.368291E0,1.8645981E2,1.400351E0,1.5648884E0,1.7279098E3,1.3207349E0,1.7267025E0,4.496799E0,2.1729412E0,1.7131412E0],"tree_param":{"num_deleted":"0","num_feature":"38","num_nodes":"99","size_leaf_vector":"1"}},{"base_weights":[-9.636856E-4,-9.781804E-1,1.3608657E0,-1.2386063E0,1.0265865E0,1.4252323E0,-1.4170676E0,-1.3807307E0,-7.7041006E-1,-1.3801514E0,1.3246258E0,4.277343E-2,-3.1566177E-2,-4.262822E-2,-1.0664764E-2,-1.4129492E0,5.0898266E-1,-1.2799807E0,1.1973089E0,-4.185403E-2,-3.239568E-1,-4.2129092E-2,1.4087245E0,-1.4145714E0,-3.4131938E-1,1.0206714E0,-4.1571278E-2,1.2125918E0,-1.3610811E0,1.339102E0,-6.494396E-1,2.5710486E-2,-3.0628484E-2,1.4258531E0,-8.840113E-1,-1.395117E0,-4.280296E-2,-7.4952984E-1,2.4300079E-1,1.1955684E0,-4.076256E-2,4.2346947E-2,-3.7519973E-2,-1.3890803E0,-8.917092E-1,1.0284761E0,4.289871E-2,-1.0475513E0,4.0190414E-2,4.2788804E-2,1.03695905E-2,-4.0178888E-2,3.0521428E-2,-4.2055022E-2,-9.514548E-1,-1.0606451E-1,-3.4784365E-2,5.889716E-1,-2.6819905E-2,6.9264346E-1,4.1772645E-2,-1.3903812E0,1.9492744E-2,-1.2526034E0,1.4106714E0,1.1583937E0,-3.4584854E-2,-1.2271284E0,3.6974974E-2,-6.708122E-3,-4.0044323E-2,6.642041E-3,-7.037943E-3,2.4583633E-3,2.1052144E-2,4.023024E-2,-2.7511107E-2,-3.7852168E-2,-4.2396147E-2,-4.1648738E-2,4.1452285E-2,4.533095E-2,-5.0924895E-3,2.7790464E-2,4.262579E-2,-4.1668627E-2,-1.8179884E-2],"categories":[],"categories_nodes":[],"categories_segments":[],"categories_sizes":[],"default_left":[0,0,0,0,0,0,0,0,0,0,0,0,0,0,0,0,0,0,0,0,0,0,0,0,0,0,0,0,0,0,0,0,0,0,0,0,0,0,0,0,0,0,0,0,0,0,0,0,0,0,0,0,0,0,0,0,0,0,0,0,0,0,0,0,0,0,0,0,0,0,0,0,0,0,0,0,0,0,0,0,0,0,0,0,0,0,0],"id":17,"left_children":[1,3,5,7,9,11,13,15,17,19,21,-1,-1,-1,-1,23,25,27,29,-1,31,-1,33,35,37,39,-1,41,43,45,47,-1,-1,49,51,53,-1,55,57,59,-1,-1,-1,61,63,65,-1,67,-1,-1,-1,-1,-1,-1,69,71,-1,73,-1,75,-1,77,-1,79,81,83,-1,85,-1,-1,-1,-1,-1,-1,-1,-1,-1,-1,-1,-1,-1,-1,-1,-1,-1,-1,-1],"loss_changes":[3.9368934E4,8.993596E3,2.2119258E3,1.0132988E3,1.422603E3,1.7919922E1,6.477661E-1,7.1261914E2,3.5631743E3,3.0097046E0,4.065796E2,0E0,0E0,0E0,0E0,1.95E1,1.9216028E2,5.7209766E2,1.9233057E2,0E0,4.465562E0,0E0,6.8444824E1,7.34375E-1,4.641329E0,6.633142E1,0E0,4.5607742E1,3.468457E1,1.770227E1,4.322274E1,0E0,0E0,3.149414E-1,1.287894E1,1.1982422E1,0E0,2.8448453E0,3.848146E0,1.3427856E1,0E0,0E0,0E0,7.741211E0,1.3194708E2,4.5912796E1,0E0,1.9758827E1,0E0,0E0,0E0,0E0,0E0,0E0,1.9163845E1,2.825564E-1,0E0,3.471222E-1,0E0,4.5986557E1,0E0,5.7822266E0,0E0,5.0520676E1,3.6984253E0,7.7558594E0,0E0,3.3609734E0,0E0,0E0,0E0,0E0,0E0,0E0,0E0,0E0,0E0,0E0,0E0,0E0,0E0,0E0,0E0,0E0,0E0,0E0,0E0],"parents":[2147483647,0,0,1,1,2,2,3,3,4,4,5,5,6,6,7,7,8,8,9,9,10,10,15,15,16,16,17,17,18,18,20,20,22,22,23,23,24,24,25,25,27,27,28,28,29,29,30,30,33,33,34,34,35,35,37,37,38,38,39,39,43,43,44,44,45,45,47,47,54,54,55,55,57,57,59,59,61,61,63,63,64,64,65,65,67,67],"right_children":[2,4,6,8,10,12,14,16,18,20,22,-1,-1,-1,-1,24,26,28,30,-1,32,-1,34,36,38,40,-1,42,44,46,48,-1,-1,50,52,54,-1,56,58,60,-1,-1,-1,62,64,66,-1,68,-1,-1,-1,-1,-1,-1,70,72,-1,74,-1,76,-1,78,-1,80,82,84,-1,86,-1,-1,-1,-1,-1,-1,-1,-1,-1,-1,-1,-1,-1,-1,-1,-1,-1,-1,-1],"split_conditions":[-5.2742146E-2,1.5565194E-1,-3.9410585E-1,2.1607E0,-1.980374E-1,9.366294E-3,-1.792159E-2,-6.6961765E-1,1.0807884E0,-2.1028669E-1,2.1607E0,4.277343E-2,-3.1566177E-2,-4.262822E-2,-1.0664764E-2,-1.216413E-3,3.0881488E0,-3.0580062E-1,1.7233512E0,-4.185403E-2,-2.2186863E-1,-4.2129092E-2,1.8190586E1,-1.52895795E-2,-2.6886168E-1,-1.7096378E-2,-4.1571278E-2,-2.2186866E-1,8.3090293E-1,-1.2060426E0,-2.2184387E-1,2.5710486E-2,-3.0628484E-2,-2.5228846E-1,-2.611348E-2,-1.0868962E0,-4.280296E-2,3.2762E-2,3.0881488E0,-3.5712412E-1,-4.076256E-2,4.2346947E-2,-3.7519973E-2,3.4690447E0,-1.187426E0,-2.2186866E-1,4.289871E-2,-1.7896455E-2,4.0190414E-2,4.2788804E-2,1.03695905E-2,-4.0178888E-2,3.0521428E-2,-4.2055022E-2,-5.0475407E-1,6.7865E-3,-3.4784365E-2,5.1950056E-2,-2.6819905E-2,-5.0475407E-1,4.1772645E-2,9.8065734E-2,1.9492744E-2,6.9001925E-1,-2.2546619E-1,7.303396E-1,-3.4584854E-2,-1.8084956E-2,3.6974974E-2,-6.708122E-3,-4.0044323E-2,6.642041E-3,-7.037943E-3,2.4583633E-3,2.1052144E-2,4.023024E-2,-2.7511107E-2,-3.7852168E-2,-4.2396147E-2,-4.1648738E-2,4.1452285E-2,4.533095E-2,-5.0924895E-3,2.7790464E-2,4.262579E-2,-4.1668627E-2,-1.8179884E-2],"split_indices":[9,27,37,19,37,8,6,9,37,